tree
version=v4
num_class=1
num_tree_per_iteration=1
label_index=0
max_feature_idx=18
objective=binary sigmoid:1
feature_names=Column_0 Column_1 Column_2 Column_3 Column_4 Column_5 Column_6 Column_7 Column_8 Column_9 Column_10 Column_11 Column_12 Column_13 Column_14 Column_15 Column_16 Column_17 Column_18
feature_infos=none [0:1] [1:5] [0:3] [0:1] [0:3] [1:2] none [0:1] none none none none [1:4] [1:4] [0:3] [0:3] [0:2] [1:4]
tree_sizes=563 464 573 469 465 468 574 568 469 575 465 463 568 466 470 471 570 581 467 470 572 460 573 466 465 464 464 465 464 572 575 469 468 469 467 467 568 466 467 465 573 467 467 468 465 575 465 466 466 467 469 470 465 577 471 466 575 465 468 469 466 465 575 466 464 462 464 569 573 466 469 573 571 574 575 572 577 569 572 470

Tree=0
num_leaves=4
num_cat=0
split_feature=1 13 13
split_gain=103.124 0.806481 7.10543e-15
threshold=1.0000000180025095e-35 1.5000000000000002 1.5000000000000002
decision_type=2 2 2
left_child=2 -2 -1
right_child=1 -3 -4
leaf_value=-0.40481737053860251 -0.21109893078273756 -0.23537566619971295 -0.40481737053860256
leaf_weight=5.3628807365894344 8.775623023509981 5.6066480427980414 10.725761473178862
leaf_count=22 36 23 44
internal_value=-0.317849 -0.220563 -0.404817
internal_weight=30.4709 14.3823 16.0886
internal_count=125 59 66
is_linear=0
shrinkage=1


Tree=1
num_leaves=3
num_cat=0
split_feature=1 13
split_gain=93.0952 0.702311
threshold=1.0000000180025095e-35 1.5000000000000002
decision_type=2 2
left_child=-1 -2
right_child=1 -3
leaf_value=-0.083354931012827482 0.10051637207534746 0.078002609798231329
leaf_weight=15.842050194740295 8.9004739522933942 5.6710895746946344
leaf_count=66 36 23
internal_value=0.000542196 0.0917543
internal_weight=30.4136 14.5716
internal_count=125 59
is_linear=0
shrinkage=0.05


Tree=2
num_leaves=4
num_cat=0
split_feature=1 13 8
split_gain=84.422 0.62632 7.10543e-15
threshold=1.0000000180025095e-35 1.5000000000000002 1.0000000180025095e-35
decision_type=2 2 2
left_child=2 -2 -1
right_child=1 -3 -4
leaf_value=-0.080687355633320385 0.094701318178246063 0.073523200666139876 -0.080687355633320357
leaf_weight=6.8346534222364417 8.9725416898727399 5.7145449221134195 8.7200750559568405
leaf_count=29 36 23 37
internal_value=0.000489165 0.0864612 -0.0806874
internal_weight=30.2418 14.6871 15.5547
internal_count=125 59 66
is_linear=0
shrinkage=0.05


Tree=3
num_leaves=3
num_cat=0
split_feature=1 17
split_gain=76.8514 0.607351
threshold=1.0000000180025095e-35 1.0000000180025095e-35
decision_type=2 2
left_child=-1 -2
right_child=1 -3
leaf_value=-0.078308534513128761 0.094096138123463707 0.073434201309765426
leaf_weight=15.233971506357193 5.9949669986963263 8.7443704307079315
leaf_count=66 24 35
internal_value=0.000443365 0.0818381
internal_weight=29.9733 14.7393
internal_count=125 59
is_linear=0
shrinkage=0.05


Tree=4
num_leaves=3
num_cat=0
split_feature=1 13
split_gain=70.1843 0.588724
threshold=1.0000000180025095e-35 1.5000000000000002
decision_type=2 2
left_child=-1 -2
right_child=1 -3
leaf_value=-0.076176308064557052 0.085732035760788319 0.065245825912659303
leaf_weight=14.886154174804688 8.9902757406234723 5.7498465180397043
leaf_count=66 36 23
internal_value=0.000402881 0.0777407
internal_weight=29.6263 14.7401
internal_count=125 59
is_linear=0
shrinkage=0.05


Tree=5
num_leaves=3
num_cat=0
split_feature=1 17
split_gain=64.8275 1.08662
threshold=1.0000000180025095e-35 1.0000000180025095e-35
decision_type=2 2
left_child=-1 -2
right_child=1 -3
leaf_value=-0.074256353390388732 0.094050056193678455 0.06546983655334894
leaf_weight=14.516843944787979 5.4750558882951728 8.4717950522899628
leaf_count=66 22 34
internal_value=-0.000294816 0.0766895
internal_weight=28.4637 13.9469
internal_count=122 56
is_linear=0
shrinkage=0.05


Tree=6
num_leaves=4
num_cat=0
split_feature=1 17 13
split_gain=59.5236 1.00744 3.55271e-15
threshold=1.0000000180025095e-35 1.0000000180025095e-35 2.5000000000000004
decision_type=2 2 2
left_child=2 -2 -1
right_child=1 -3 -4
leaf_value=-0.072520409670976643 0.09009956922653585 0.062487237792944295 -0.072520409670976602
leaf_weight=9.6347033232450467 5.4304207116365424 8.4332875609397888 4.4961948841810235
leaf_count=45 22 34 21
internal_value=-0.000304598 0.073303 -0.0725204
internal_weight=27.9946 13.8637 14.1309
internal_count=122 56 66
is_linear=0
shrinkage=0.05


Tree=7
num_leaves=4
num_cat=0
split_feature=1 13 2
split_gain=54.7811 0.148705 3.55271e-15
threshold=1.0000000180025095e-35 1.5000000000000002 1.5000000000000002
decision_type=2 2 2
left_child=2 -2 -1
right_child=1 -3 -4
leaf_value=-0.070945040432878678 0.074615737975697483 0.064055394523034492 -0.070945040432878706
leaf_weight=4.9936527013778695 8.0626535564661008 5.6834290176630029 8.7388922274112684
leaf_count=24 33 23 42
internal_value=-0.000313 0.0702495 -0.070945
internal_weight=27.4786 13.7461 13.7325
internal_count=122 56 66
is_linear=0
shrinkage=0.05


Tree=8
num_leaves=3
num_cat=0
split_feature=1 17
split_gain=50.5152 0.970205
threshold=1.0000000180025095e-35 1.0000000180025095e-35
decision_type=2 2
left_child=-1 -2
right_child=1 -3
leaf_value=-0.069510578447278093 0.084173483380067415 0.056791801351102227
leaf_weight=13.325461328029633 5.3011100441217414 8.300631195306778
leaf_count=66 22 34
internal_value=-0.000320859 0.0674635
internal_weight=26.9272 13.6017
internal_count=122 56
is_linear=0
shrinkage=0.05


Tree=9
num_leaves=4
num_cat=0
split_feature=1 17 13
split_gain=46.6691 0.926085 3.55271e-15
threshold=1.0000000180025095e-35 1.0000000180025095e-35 2.5000000000000004
decision_type=2 2 2
left_child=2 -2 -1
right_child=1 -3 -4
leaf_value=-0.06820045208674845 0.081417751136256863 0.054472925562470742 -0.068200452086748409
leaf_weight=8.8042042404413206 5.208824396133422 8.2232485413551331 4.1086286455392846
leaf_count=45 22 34 21
internal_value=-0.000327421 0.0649219 -0.0682005
internal_weight=26.3449 13.4321 12.9128
internal_count=122 56 66
is_linear=0
shrinkage=0.05


Tree=10
num_leaves=3
num_cat=0
split_feature=1 13
split_gain=38.6933 0.401309
threshold=1.0000000180025095e-35 1.5000000000000002
decision_type=2 2
left_child=-1 -2
right_child=1 -3
leaf_value=-0.067000553929947651 0.066188655449108555 0.048383041301993127
leaf_weight=11.929350033402443 7.043212503194809 5.7462916374206543
leaf_count=63 30 24
internal_value=-0.00222782 0.0581886
internal_weight=24.7189 12.7895
internal_count=117 54
is_linear=0
shrinkage=0.05


Tree=11
num_leaves=3
num_cat=0
split_feature=1 13
split_gain=35.8538 0.38438
threshold=1.0000000180025095e-35 1.5000000000000002
decision_type=2 2
left_child=-1 -2
right_child=1 -3
leaf_value=-0.065898820625144128 0.063999215145065666 0.046455586223647156
leaf_weight=11.532414212822914 6.9230110943317413 5.6869906783103943
leaf_count=63 30 24
internal_value=-0.00218341 0.0560872
internal_weight=24.1424 12.61
internal_count=117 54
is_linear=0
shrinkage=0.05


Tree=12
num_leaves=4
num_cat=0
split_feature=1 13 2
split_gain=33.2623 0.369891 3.55271e-15
threshold=1.0000000180025095e-35 1.5000000000000002 3.0000000000000004
decision_type=2 2 2
left_child=2 -2 -1
right_child=1 -3 -4
leaf_value=-0.064884886056043409 0.06196806201494634 0.04463373217605511 -0.064884886056043409
leaf_weight=5.4801204204559326 6.7956754565238953 5.6247626543045044 5.6568984985351562
leaf_count=31 30 24 32
internal_value=-0.00214179 0.054118 -0.0648849
internal_weight=23.5575 12.4204 11.137
internal_count=117 54 63
is_linear=0
shrinkage=0.05


Tree=13
num_leaves=3
num_cat=0
split_feature=15 14
split_gain=30.8914 0.357322
threshold=1.0000000180025095e-35 1.5000000000000002
decision_type=2 2
left_child=-1 -2
right_child=1 -3
leaf_value=-0.063949749248619542 0.060073908267957166 0.042906223929178713
leaf_weight=10.744822025299074 6.6628360748290998 5.5603243112564087
leaf_count=63 30 24
internal_value=-0.00210265 0.0522643
internal_weight=22.968 12.2232
internal_count=117 54
is_linear=0
shrinkage=0.05


Tree=14
num_leaves=3
num_cat=0
split_feature=1 17
split_gain=28.7174 0.365797
threshold=1.0000000180025095e-35 1.0000000180025095e-35
decision_type=2 2
left_child=-1 -2
right_child=1 -3
leaf_value=-0.063085590715695222 0.062107741479482614 0.043951079657513797
leaf_weight=10.357227936387062 4.3436302244663239 7.6765834391117096
leaf_count=63 20 34
internal_value=-0.00206568 0.0505122
internal_weight=22.3774 12.0202
internal_count=117 54
is_linear=0
shrinkage=0.05


Tree=15
num_leaves=3
num_cat=0
split_feature=1 17
split_gain=30.7561 0.167521
threshold=1.0000000180025095e-35 1.0000000180025095e-35
decision_type=2 2
left_child=-1 -2
right_child=1 -3
leaf_value=-0.062285576994653771 0.061298153443903429 0.049150319327542401
leaf_weight=10.767119467258453 4.4772767722606659 7.7512019872665405
leaf_count=68 21 35
internal_value=-0.000661579 0.0535981
internal_weight=22.9956 12.2285
internal_count=124 56
is_linear=0
shrinkage=0.05


Tree=16
num_leaves=4
num_cat=0
split_feature=1 14 2
split_gain=28.6418 0.174449 1.77636e-15
threshold=1.0000000180025095e-35 1.5000000000000002 3.0000000000000004
decision_type=2 2 2
left_child=2 -2 -1
right_child=1 -3 -4
leaf_value=-0.06154370582136387 0.057109096336751097 0.044898913802205537 -0.06154370582136387
leaf_weight=4.2668370604515076 6.9278215169906616 5.0631949305534363 6.0954815149307251
leaf_count=28 33 23 40
internal_value=-0.000660389 0.0519534 -0.0615437
internal_weight=22.3533 11.991 10.3623
internal_count=124 56 68
is_linear=0
shrinkage=0.05


Tree=17
num_leaves=4
num_cat=0
split_feature=1 17 8
split_gain=26.6939 0.174408 1.77636e-15
threshold=1.0000000180025095e-35 1.0000000180025095e-35 1.0000000180025095e-35
decision_type=2 2 2
left_child=2 -2 -1
right_child=1 -3 -4
leaf_value=-0.060854686176774676 0.058438927822444864 0.045780285806280255 -0.060854686176774676
leaf_weight=5.1294080168008804 4.2795941233634949 7.4714782536029816 4.8362989872694016
leaf_count=35 21 35 33
internal_value=-0.000659337 0.0503904 -0.0608547
internal_weight=21.7168 11.7511 9.96571
internal_count=124 56 68
is_linear=0
shrinkage=0.05


Tree=18
num_leaves=3
num_cat=0
split_feature=1 13
split_gain=24.8956 0.181803
threshold=1.0000000180025095e-35 1.5000000000000002
decision_type=2 2
left_child=-1 -2
right_child=1 -3
leaf_value=-0.060213820031606503 0.054293525034333726 0.041580288525930764
leaf_weight=9.5780011415481567 6.6244698017835617 4.8863565921783447
leaf_count=68 33 23
internal_value=-0.000658458 0.0488967
internal_weight=21.0888 11.5108
internal_count=124 56
is_linear=0
shrinkage=0.05


Tree=19
num_leaves=3
num_cat=0
split_feature=1 17
split_gain=23.2336 0.181311
threshold=1.0000000180025095e-35 1.0000000180025095e-35
decision_type=2 2
left_child=-1 -2
right_child=1 -3
leaf_value=-0.05961696006590881 0.055884191894630578 0.042689385426487966
leaf_weight=9.1997724771499634 4.0816573351621628 7.1891209632158279
leaf_count=68 21 35
internal_value=-0.000657686 0.0474678
internal_weight=20.4706 11.2708
internal_count=124 56
is_linear=0
shrinkage=0.05


Tree=20
num_leaves=4
num_cat=0
split_feature=1 13 2
split_gain=23.215 0.356851 1.77636e-15
threshold=1.0000000180025095e-35 1.5000000000000002 1.5000000000000002
decision_type=2 2 2
left_child=2 -2 -1
right_child=1 -3 -4
leaf_value=-0.059060379660551769 0.058366750241194545 0.039975083307405242 -0.059060379660551776
leaf_weight=3.3767381012439728 5.6817829012870789 4.9224016070365906 5.7144798636436462
leaf_count=26 30 24 44
internal_value=-0.000433104 0.0498294 -0.0590604
internal_weight=19.6954 10.6042 9.09122
internal_count=124 54 70
is_linear=0
shrinkage=0.05


Tree=21
num_leaves=3
num_cat=0
split_feature=1 13
split_gain=21.7001 0.352388
threshold=1.0000000180025095e-35 1.5000000000000002
decision_type=2 2
left_child=-1 -2
right_child=1 -3
leaf_value=-0.05854076975560131 0.05713538687651698 0.038649901128476806
leaf_weight=8.7226436287164688 5.518191397190094 4.8387712240219116
leaf_count=70 30 24
internal_value=-0.0004365 0.048499
internal_weight=19.0796 10.357
internal_count=124 54
is_linear=0
shrinkage=0.05


Tree=22
num_leaves=4
num_cat=0
split_feature=1 14 2
split_gain=20.2945 0.348393 1.77636e-15
threshold=1.0000000180025095e-35 1.5000000000000002 3.0000000000000004
decision_type=2 2 2
left_child=2 -2 -1
right_child=1 -3 -4
leaf_value=-0.058055141074250742 0.055964272499181678 0.037370331337277921 -0.058055141074250742
leaf_weight=3.7044467628002167 5.3561122119426727 4.7563544511795044 4.6604330241680145
leaf_count=31 30 24 39
internal_value=-0.000439826 0.0472187 -0.0580551
internal_weight=18.4773 10.1125 8.36488
internal_count=124 54 70
is_linear=0
shrinkage=0.05


Tree=23
num_leaves=3
num_cat=0
split_feature=1 14
split_gain=18.9888 0.344731
threshold=1.0000000180025095e-35 1.5000000000000002
decision_type=2 2
left_child=-1 -2
right_child=1 -3
leaf_value=-0.057600815670765609 0.054846355315114906 0.03613288552581416
leaf_weight=8.0180875957012177 5.1960977911949158 4.6753721237182617
leaf_count=70 30 24
internal_value=-0.000443089 0.0459832
internal_weight=17.8896 9.87147
internal_count=124 54
is_linear=0
shrinkage=0.05


Tree=24
num_leaves=3
num_cat=0
split_feature=1 13
split_gain=17.7747 0.341286
threshold=1.0000000180025095e-35 1.5000000000000002
decision_type=2 2
left_child=-1 -2
right_child=1 -3
leaf_value=-0.057175370704794795 0.053775424906808672 0.034934561052177474
leaf_weight=7.6823546737432489 5.038612425327301 4.5960073471069336
leaf_count=70 30 24
internal_value=-0.000446293 0.0447878
internal_weight=17.317 9.63462
internal_count=124 54
is_linear=0
shrinkage=0.05


Tree=25
num_leaves=3
num_cat=0
split_feature=1 13
split_gain=14.1238 1.61863
threshold=1.0000000180025095e-35 1.5000000000000002
decision_type=2 2
left_child=-1 -2
right_child=1 -3
leaf_value=-0.05677661968901794 0.054008647494578545 0.010838570929515774
leaf_weight=7.1474828422069558 5.5460304319858551 3.5683298856019974
leaf_count=68 34 19
internal_value=-0.00415701 0.0371073
internal_weight=16.2618 9.11436
internal_count=121 53
is_linear=0
shrinkage=0.05


Tree=26
num_leaves=3
num_cat=0
split_feature=1 13
split_gain=13.2388 1.55679
threshold=1.0000000180025095e-35 1.5000000000000002
decision_type=2 2
left_child=-1 -2
right_child=1 -3
leaf_value=-0.056402586787084277 0.05303065607294271 0.010353825611913744
leaf_weight=6.8428400158882132 5.3703698962926865 3.5491247028112411
leaf_count=68 34 19
internal_value=-0.00408649 0.0360493
internal_weight=15.7623 8.91949
internal_count=121 53
is_linear=0
shrinkage=0.05


Tree=27
num_leaves=3
num_cat=0
split_feature=1 13
split_gain=12.4135 1.4977
threshold=1.0000000180025095e-35 1.5000000000000002
decision_type=2 2
left_child=-1 -2
right_child=1 -3
leaf_value=-0.056051460220444563 0.052087180171739411 0.0098887281457892412
leaf_weight=6.5488533377647391 5.1986380964517593 3.5307302623987198
leaf_count=68 34 19
internal_value=-0.00401722 0.0350194
internal_weight=15.2782 8.72937
internal_count=121 53
is_linear=0
shrinkage=0.05


Tree=28
num_leaves=3
num_cat=0
split_feature=1 13
split_gain=11.6434 1.44103
threshold=1.0000000180025095e-35 1.5000000000000002
decision_type=2 2
left_child=-1 -2
right_child=1 -3
leaf_value=-0.055721599657917134 0.051174141596199096 0.009442618908669119
leaf_weight=6.265404760837554 5.0310907661914825 3.5131205916404724
leaf_count=68 34 19
internal_value=-0.00394903 0.0340154
internal_weight=14.8096 8.54421
internal_count=121 53
is_linear=0
shrinkage=0.05


Tree=29
num_leaves=4
num_cat=0
split_feature=1 13 13
split_gain=10.9244 1.38649 8.88178e-16
threshold=1.0000000180025095e-35 1.5000000000000002 2.5000000000000004
decision_type=2 2 2
left_child=2 -2 -1
right_child=1 -3 -4
leaf_value=-0.055411501185402015 0.050287878007115476 0.0090148620473141719 -0.055411501185401994
leaf_weight=4.2298911809921256 4.8679275214672089 3.4962693154811859 1.7624546587467191
leaf_count=48 34 19 20
internal_value=-0.00388177 0.0330356 -0.0554115
internal_weight=14.3565 8.3642 5.99235
internal_count=121 53 68
is_linear=0
shrinkage=0.05


Tree=30
num_leaves=4
num_cat=0
split_feature=1 17 2
split_gain=11.3841 0.507274 8.88178e-16
threshold=1.0000000180025095e-35 1.0000000180025095e-35 3.0000000000000004
decision_type=2 2 2
left_child=2 -2 -1
right_child=1 -3 -4
leaf_value=-0.055119797581110547 0.049455285471275638 0.025766107536406065 -0.055119797581110519
leaf_weight=2.6962342262268058 3.9346633404493332 5.3091856986284256 2.7804915457963943
leaf_count=32 26 33 33
internal_value=0.00200474 0.0358495 -0.0551198
internal_weight=14.7206 9.24385 5.47673
internal_count=124 59 65
is_linear=0
shrinkage=0.05


Tree=31
num_leaves=3
num_cat=0
split_feature=4 17
split_gain=10.6651 0.492482
threshold=1.0000000180025095e-35 1.0000000180025095e-35
decision_type=2 2
left_child=-1 -2
right_child=1 -3
leaf_value=-0.054845229013953847 0.048482756659852744 0.024859255514403038
leaf_weight=5.2350429445505133 3.8159411698579788 5.2297766804695129
leaf_count=65 26 33
internal_value=0.00195358 0.0348248
internal_weight=14.2808 9.04572
internal_count=124 59
is_linear=0
shrinkage=0.05


Tree=32
num_leaves=3
num_cat=0
split_feature=1 17
split_gain=9.99385 0.478133
threshold=1.0000000180025095e-35 1.0000000180025095e-35
decision_type=2 2
left_child=-1 -2
right_child=1 -3
leaf_value=-0.05458665515333655 0.047534230666444882 0.023976179833180442
leaf_weight=5.0027189776301375 3.7004319578409195 5.1532608866691589
leaf_count=65 26 33
internal_value=0.00190316 0.0338223
internal_weight=13.8564 8.85369
internal_count=124 59
is_linear=0
shrinkage=0.05


Tree=33
num_leaves=3
num_cat=0
split_feature=1 17
split_gain=9.36676 0.464133
threshold=1.0000000180025095e-35 1.0000000180025095e-35
decision_type=2 2
left_child=-1 -2
right_child=1 -3
leaf_value=-0.054342993086772221 0.046606867535341323 0.023116388611175362
leaf_weight=4.7795306146144858 3.5882243290543556 5.0795950442552567
leaf_count=65 26 33
internal_value=0.00185344 0.0328408
internal_weight=13.4473 8.66782
internal_count=124 59
is_linear=0
shrinkage=0.05


Tree=34
num_leaves=3
num_cat=0
split_feature=1 17
split_gain=8.78076 0.450404
threshold=1.0000000180025095e-35 1.0000000180025095e-35
decision_type=2 2
left_child=-1 -2
right_child=1 -3
leaf_value=-0.05411327849768223 0.045698132374112188 0.022279466108390641
leaf_weight=4.5652420073747626 3.479379691183567 5.0087276846170425
leaf_count=65 26 33
internal_value=0.00180434 0.0318791
internal_weight=13.0533 8.48811
internal_count=124 59
is_linear=0
shrinkage=0.05


Tree=35
num_leaves=3
num_cat=0
split_feature=1 15
split_gain=8.58522 0.276695
threshold=1.0000000180025095e-35 1.5000000000000002
decision_type=2 2
left_child=-1 -2
right_child=1 -3
leaf_value=-0.053896611713951714 0.045114907262731388 0.025352089066459395
leaf_weight=4.5608207881450653 3.0292684137821198 4.2642524689435959
leaf_count=68 22 30
internal_value=-8.77244e-05 0.0335603
internal_weight=11.8543 7.29352
internal_count=120 52
is_linear=0
shrinkage=0.05


Tree=36
num_leaves=4
num_cat=0
split_feature=1 15 2
split_gain=8.05538 0.266924 8.88178e-16
threshold=1.0000000180025095e-35 1.5000000000000002 1.5000000000000002
decision_type=2 2 2
left_child=2 -2 -1
right_child=1 -3 -4
leaf_value=-0.053692159535572916 0.04414190964372585 0.024499409680116206 -0.053692159535572929
leaf_weight=1.600915193557739 2.9434353038668633 4.1938553005456924 2.7535741329193115
leaf_count=25 22 30 43
internal_value=-9.79919e-05 0.0326 -0.0536922
internal_weight=11.4918 7.13729 4.35449
internal_count=120 52 68
is_linear=0
shrinkage=0.05


Tree=37
num_leaves=3
num_cat=0
split_feature=1 15
split_gain=7.55954 0.257477
threshold=1.0000000180025095e-35 1.5000000000000002
decision_type=2 2
left_child=-1 -2
right_child=1 -3
leaf_value=-0.053499143084163252 0.043186395957721217 0.023665966863007488
leaf_weight=4.1566846072673798 2.860260896384716 4.1262245178222656
leaf_count=68 22 30
internal_value=-0.000108013 0.0316576
internal_weight=11.1432 6.98649
internal_count=120 52
is_linear=0
shrinkage=0.05


Tree=38
num_leaves=3
num_cat=0
split_feature=3 15
split_gain=7.09538 0.248306
threshold=1.0000000180025095e-35 1.5000000000000002
decision_type=2 2
left_child=-1 -2
right_child=1 -3
leaf_value=-0.053316860774922217 0.042246559933835651 0.022851591236261775
leaf_weight=3.9671368449926376 2.7797581553459167 4.0612923502922058
leaf_count=68 22 30
internal_value=-0.000117788 0.0307324
internal_weight=10.8082 6.84105
internal_count=120 52
is_linear=0
shrinkage=0.05


Tree=39
num_leaves=3
num_cat=0
split_feature=1 15
split_gain=6.66076 0.239372
threshold=1.0000000180025095e-35 1.5000000000000002
decision_type=2 2
left_child=-1 -2
right_child=1 -3
leaf_value=-0.053144651247230716 0.041320830567679975 0.022056152631052053
leaf_weight=3.7855765074491501 2.7019260600209236 3.9989875853061676
leaf_count=68 22 30
internal_value=-0.00012731 0.029824
internal_weight=10.4865 6.70091
internal_count=120 52
is_linear=0
shrinkage=0.05


Tree=40
num_leaves=4
num_cat=0
split_feature=1 17 2
split_gain=6.50576 1.1676 4.44089e-16
threshold=1.0000000180025095e-35 1.0000000180025095e-35 3.0000000000000004
decision_type=2 2 2
left_child=2 -2 -1
right_child=1 -3 -4
leaf_value=-0.052981891566546417 0.058316258454987481 0.016539799895533554 -0.052981891566546438
leaf_weight=1.4340709783136847 2.6403314918279648 4.5629032850265503 1.8589808978140352
leaf_count=27 23 33 35
internal_value=0.00523725 0.0318529 -0.0529819
internal_weight=10.4963 7.20323 3.29305
internal_count=118 56 62
is_linear=0
shrinkage=0.05


Tree=41
num_leaves=3
num_cat=0
split_feature=1 17
split_gain=6.10201 1.14226
threshold=1.0000000180025095e-35 1.0000000180025095e-35
decision_type=2 2
left_child=-1 -2
right_child=1 -3
leaf_value=-0.05282801760254055 0.057853326206626969 0.015890019412051603
leaf_weight=3.1413412392139435 2.5311481654644012 4.5133080780506134
leaf_count=62 23 33
internal_value=0.00512489 0.0309679
internal_weight=10.1858 7.04446
internal_count=118 56
is_linear=0
shrinkage=0.05


Tree=42
num_leaves=3
num_cat=0
split_feature=1 17
split_gain=5.72405 1.11747
threshold=1.0000000180025095e-35 1.0000000180025095e-35
decision_type=2 2
left_child=-1 -2
right_child=1 -3
leaf_value=-0.052682496831705755 0.057419205188521422 0.015260153158768677
leaf_weight=2.9961815476417542 2.4254446774721146 4.4658524245023727
leaf_count=62 23 33
internal_value=0.00501345 0.0300984
internal_weight=9.88748 6.8913
internal_count=118 56
is_linear=0
shrinkage=0.05


Tree=43
num_leaves=3
num_cat=0
split_feature=1 17
split_gain=5.37015 1.09313
threshold=1.0000000180025095e-35 1.0000000180025095e-35
decision_type=2 2
left_child=-1 -2
right_child=1 -3
leaf_value=-0.052544837066569351 0.057011758860541328 0.014649925902266837
leaf_weight=2.8573342114686966 2.3232249021530151 4.4204611331224442
leaf_count=62 23 33
internal_value=0.00490285 0.0292437
internal_weight=9.60102 6.74369
internal_count=118 56
is_linear=0
shrinkage=0.05


Tree=44
num_leaves=3
num_cat=0
split_feature=3 15
split_gain=5.03872 0.0524013
threshold=1.0000000180025095e-35 1.5000000000000002
decision_type=2 2
left_child=-1 -2
right_child=1 -3
leaf_value=-0.052414569092800116 0.023145038446729122 0.032177323340982375
leaf_weight=2.7245647981762886 2.7581508457660675 3.8433853015303612
leaf_count=62 24 32
internal_value=0.00479305 0.0284036
internal_weight=9.3261 6.60154
internal_count=118 56
is_linear=0
shrinkage=0.05


Tree=45
num_leaves=4
num_cat=0
split_feature=1 13 13
split_gain=4.43543 0.638123 4.44089e-16
threshold=1.0000000180025095e-35 1.5000000000000002 1.5000000000000002
decision_type=2 2 2
left_child=2 -2 -1
right_child=1 -3 -4
leaf_value=-0.052291272201384055 0.039783594746628438 0.0065274314249466675 -0.052291272201384111
leaf_weight=0.92174421995878253 2.9602125138044357 2.8133142292499542 1.9691808335483072
leaf_count=22 30 21 47
internal_value=-0.00173566 0.0235786 -0.0522913
internal_weight=8.66445 5.77353 2.89093
internal_count=120 51 69
is_linear=0
shrinkage=0.05


Tree=46
num_leaves=3
num_cat=0
split_feature=1 13
split_gain=4.17221 0.60906
threshold=1.0000000180025095e-35 1.5000000000000002
decision_type=2 2
left_child=-1 -2
right_child=1 -3
leaf_value=-0.052174533693056219 0.039000759509553361 0.0062290956418424416
leaf_weight=2.7559304013848305 2.8709340244531631 2.8009746000170708
leaf_count=69 30 21
internal_value=-0.00170545 0.022817
internal_weight=8.42784 5.67191
internal_count=120 51
is_linear=0
shrinkage=0.05


Tree=47
num_leaves=3
num_cat=0
split_feature=1 14
split_gain=3.92525 0.580792
threshold=1.0000000180025095e-35 1.5000000000000002
decision_type=2 2
left_child=-1 -2
right_child=1 -3
leaf_value=-0.052063984447439052 0.038221590867900765 0.0059432373528940981
leaf_weight=2.6269477754831314 2.7851814776659012 2.7892194911837578
leaf_count=69 30 21
internal_value=-0.00167513 0.0220707
internal_weight=8.20135 5.5744
internal_count=120 51
is_linear=0
shrinkage=0.05


Tree=48
num_leaves=3
num_cat=0
split_feature=1 13
split_gain=3.69352 0.553314
threshold=1.0000000180025095e-35 1.5000000000000002
decision_type=2 2
left_child=-1 -2
right_child=1 -3
leaf_value=-0.051959279976953855 0.037445594972168712 0.0056694300974875949
leaf_weight=2.5037383809685707 2.7028626054525375 2.7780230790376663
leaf_count=69 30 21
internal_value=-0.0016447 0.0213396
internal_weight=7.98462 5.48089
internal_count=120 51
is_linear=0
shrinkage=0.05


Tree=49
num_leaves=3
num_cat=0
split_feature=1 13
split_gain=3.47604 0.526625
threshold=1.0000000180025095e-35 1.5000000000000002
decision_type=2 2
left_child=-1 -2
right_child=1 -3
leaf_value=-0.051860074040997774 0.036672365253278154 0.0054072565768433292
leaf_weight=2.3860706202685833 2.6238824129104614 2.7673601806163788
leaf_count=69 30 21
internal_value=-0.00161418 0.0206238
internal_weight=7.77731 5.39124
internal_count=120 51
is_linear=0
shrinkage=0.05


Tree=50
num_leaves=3
num_cat=0
split_feature=1 17
split_gain=2.87294 0.551685
threshold=1.0000000180025095e-35 1.0000000180025095e-35
decision_type=2 2
left_child=-1 -2
right_child=1 -3
leaf_value=-0.05176606973725472 0.034535914127734539 0.0032144324941747343
leaf_weight=2.1748607307672501 2.3078188821673393 3.597232311964035
leaf_count=66 26 30
internal_value=-0.00263843 0.0154555
internal_weight=8.07991 5.90505
internal_count=122 56
is_linear=0
shrinkage=0.05


Tree=51
num_leaves=3
num_cat=0
split_feature=1 17
split_gain=2.70864 0.519929
threshold=1.0000000180025095e-35 1.0000000180025095e-35
decision_type=2 2
left_child=-1 -2
right_child=1 -3
leaf_value=-0.051676973562284734 0.033734171059045907 0.0030608071514398446
leaf_weight=2.0722683817148209 2.2461184933781624 3.589104101061821
leaf_count=66 26 30
internal_value=-0.00257124 0.0148677
internal_weight=7.90749 5.83522
internal_count=122 56
is_linear=0
shrinkage=0.05


Tree=52
num_leaves=3
num_cat=0
split_feature=1 15
split_gain=2.55431 0.0129662
threshold=1.0000000180025095e-35 1.5000000000000002
decision_type=2 2
left_child=-1 -2
right_child=1 -3
leaf_value=-0.051592512848414311 0.017098477052521377 0.01229103082484889
leaf_weight=1.9743481613695619 2.4067496806383133 3.3616024255752563
leaf_count=66 24 32
internal_value=-0.00250459 0.0142969
internal_weight=7.7427 5.76835
internal_count=122 56
is_linear=0
shrinkage=0.05


Tree=53
num_leaves=4
num_cat=0
split_feature=1 17 2
split_gain=2.40872 0.496248 2.22045e-16
threshold=1.0000000180025095e-35 1.0000000180025095e-35 3.0000000000000004
decision_type=2 2 2
left_child=2 -2 -1
right_child=1 -3 -4
leaf_value=-0.051512437321238148 0.032606696106173887 0.0022156618576049426 -0.051512437321238162
leaf_weight=0.79795921593904484 2.1625157557427883 3.5454186499118805 1.0829446502029894
leaf_count=28 26 30 38
internal_value=-0.00244069 0.0137297 -0.0515124
internal_weight=7.58884 5.70793 1.8809
internal_count=122 56 66
is_linear=0
shrinkage=0.05


Tree=54
num_leaves=3
num_cat=0
split_feature=1 17
split_gain=2.27251 0.466252
threshold=1.0000000180025095e-35 1.0000000180025095e-35
decision_type=2 2
left_child=-1 -2
right_child=1 -3
leaf_value=-0.051436500873322966 0.031815746520615189 0.0021082725031893053
leaf_weight=1.7917458079755304 2.1068924516439438 3.5398543626070023
leaf_count=66 26 30
internal_value=-0.00237492 0.0131926
internal_weight=7.43849 5.64675
internal_count=122 56
is_linear=0
shrinkage=0.05


Tree=55
num_leaves=3
num_cat=0
split_feature=3 13
split_gain=2.21954 0.121197
threshold=1.0000000180025095e-35 1.5000000000000002
decision_type=2 2
left_child=-1 -2
right_child=1 -3
leaf_value=-0.0513644788966931 0.021137206057450078 0.0066325277166816221
leaf_weight=1.6808318626135585 2.9016488641500473 2.8593453615903854
leaf_count=65 34 23
internal_value=-0.000811308 0.0139381
internal_weight=7.44183 5.76099
internal_count=122 57
is_linear=0
shrinkage=0.05


Tree=56
num_leaves=4
num_cat=0
split_feature=1 13 2
split_gain=2.09188 0.113329 2.22045e-16
threshold=1.0000000180025095e-35 1.5000000000000002 3.0000000000000004
decision_type=2 2 2
left_child=2 -2 -1
right_child=1 -3 -4
leaf_value=-0.051296159679527692 0.020432392655599346 0.0063308000925319241 -0.051296159679527664
leaf_weight=0.78815132379531838 2.8529167771339417 2.8461865335702896 0.81278105266392231
leaf_count=32 34 23 33
internal_value=-0.000796041 0.0133899 -0.0512962
internal_weight=7.30004 5.6991 1.60093
internal_count=122 57 65
is_linear=0
shrinkage=0.05


Tree=57
num_leaves=3
num_cat=0
split_feature=1 13
split_gain=1.97201 0.105849
threshold=1.0000000180025095e-35 1.5000000000000002
decision_type=2 2
left_child=-1 -2
right_child=1 -3
leaf_value=-0.0512313513455998 0.019741145277328228 0.0060415611772665157
leaf_weight=1.5247318800538776 2.8063791543245316 2.8336534053087234
leaf_count=65 34 23
internal_value=-0.00078066 0.0128582
internal_weight=7.16476 5.64003
internal_count=122 57
is_linear=0
shrinkage=0.05


Tree=58
num_leaves=3
num_cat=0
split_feature=1 13
split_gain=1.85943 0.0987483
threshold=1.0000000180025095e-35 1.5000000000000002
decision_type=2 2
left_child=-1 -2
right_child=1 -3
leaf_value=-0.051169856285590787 0.01906373493934822 0.0057643993305467617
leaf_weight=1.4520688634365795 2.7619482278823853 2.8217180520296097
leaf_count=65 34 23
internal_value=-0.000765179 0.0123429
internal_weight=7.03574 5.58367
internal_count=122 57
is_linear=0
shrinkage=0.05


Tree=59
num_leaves=3
num_cat=0
split_feature=3 13
split_gain=1.75368 0.0920196
threshold=1.0000000180025095e-35 1.5000000000000002
decision_type=2 2
left_child=-1 -2
right_child=1 -3
leaf_value=-0.051111497915851081 0.018400416778319887 0.0054989073280402668
leaf_weight=1.3827878702431915 2.7195390239357948 2.8103531152009964
leaf_count=65 34 23
internal_value=-0.000749613 0.0118437
internal_weight=6.91268 5.52989
internal_count=122 57
is_linear=0
shrinkage=0.05


Tree=60
num_leaves=3
num_cat=0
split_feature=1 15
split_gain=1.90457 0.0102027
threshold=1.0000000180025095e-35 1.5000000000000002
decision_type=2 2
left_child=-1 -2
right_child=1 -3
leaf_value=-0.051056118161655561 0.016844472017265227 0.012585408176314039
leaf_weight=1.3775118365883825 2.3766280710697174 3.4434231147170067
leaf_count=68 23 36
internal_value=0.00181166 0.0143246
internal_weight=7.19756 5.82005
internal_count=127 59
is_linear=0
shrinkage=0.05


Tree=61
num_leaves=3
num_cat=0
split_feature=1 15
split_gain=1.79223 0.00944535
threshold=1.0000000180025095e-35 1.5000000000000002
decision_type=2 2
left_child=-1 -2
right_child=1 -3
leaf_value=-0.051003548012110836 0.016198313301852663 0.012077667691336627
leaf_weight=1.3116462975740431 2.348590612411499 3.409654900431633
leaf_count=68 23 36
internal_value=0.00174335 0.0137583
internal_weight=7.06989 5.75825
internal_count=127 59
is_linear=0
shrinkage=0.05


Tree=62
num_leaves=4
num_cat=0
split_feature=1 13 13
split_gain=1.68693 0.00921499 2.22045e-16
threshold=1.0000000180025095e-35 1.5000000000000002 1.5000000000000002
decision_type=2 2 2
left_child=2 -2 -1
right_child=1 -3 -4
leaf_value=-0.050953650148427766 0.015457140771690579 0.011411048769845377 -0.05095365014842778
leaf_weight=0.51423959434032418 2.5330052897334099 3.1662531942129135 0.73462799191474915
leaf_count=28 33 26 40
internal_value=0.00167656 0.0132093 -0.0509537
internal_weight=6.94813 5.69926 1.24887
internal_count=127 59 68
is_linear=0
shrinkage=0.05


Tree=63
num_leaves=3
num_cat=0
split_feature=3 15
split_gain=1.58827 0.00905873
threshold=1.0000000180025095e-35 1.5000000000000002
decision_type=2 2
left_child=-1 -2
right_child=1 -3
leaf_value=-0.050906271437762808 0.015093788394646514 0.011016999736254673
leaf_weight=1.1890372633934019 2.301257535815239 3.3406594470143318
leaf_count=68 23 36
internal_value=0.00161168 0.0126799
internal_weight=6.83095 5.64192
internal_count=127 59
is_linear=0
shrinkage=0.05


Tree=64
num_leaves=3
num_cat=0
split_feature=1 13
split_gain=1.49569 0.00913373
threshold=1.0000000180025095e-35 1.5000000000000002
decision_type=2 2
left_child=-1 -2
right_child=1 -3
leaf_value=-0.050861292500429062 0.014430370796492054 0.010361190682113204
leaf_weight=1.1320223361253736 2.4766526818275452 3.1116209477186203
leaf_count=68 33 26
internal_value=0.001548 0.0121646
internal_weight=6.7203 5.58827
internal_count=127 59
is_linear=0
shrinkage=0.05


Tree=65
num_leaves=3
num_cat=0
split_feature=1 13
split_gain=2.22402 0.107001
threshold=1.0000000180025095e-35 1.5000000000000002
decision_type=2 2
left_child=-1 -2
right_child=1 -3
leaf_value=-0.050818579983301519 0.034952155567275961 0.020579102454351225
leaf_weight=1.0935435891151426 2.5494368672370911 2.6313664019107819
leaf_count=69 36 22
internal_value=0.0139755 0.027652
internal_weight=6.27435 5.1808
internal_count=127 58
is_linear=0
shrinkage=0.05


Tree=66
num_leaves=3
num_cat=0
split_feature=1 13
split_gain=2.08258 0.104609
threshold=1.0000000180025095e-35 1.5000000000000002
decision_type=2 2
left_child=-1 -2
right_child=1 -3
leaf_value=-0.050778021038383164 0.034215286657537862 0.019846079903018853
leaf_weight=1.0410207426175473 2.4760075360536575 2.5931218266487122
leaf_count=69 36 22
internal_value=0.0136363 0.0268647
internal_weight=6.11015 5.06913
internal_count=127 58
is_linear=0
shrinkage=0.05


Tree=67
num_leaves=4
num_cat=0
split_feature=1 13 13
split_gain=1.95017 0.10206 2.22045e-16
threshold=1.0000000180025095e-35 1.5000000000000002 2.5000000000000004
decision_type=2 2 2
left_child=2 -2 -1
right_child=1 -3 -4
leaf_value=-0.050739500716807787 0.033478726734295909 0.019130820079323457 -0.050739500716807696
leaf_weight=0.6606549099087714 2.4057593792676926 2.5565195530653 0.33032745495438576
leaf_count=46 36 22 23
internal_value=0.0132983 0.0260868 -0.0507395
internal_weight=5.95326 4.96228 0.990982
internal_count=127 58 69
is_linear=0
shrinkage=0.05


Tree=68
num_leaves=4
num_cat=0
split_feature=1 14 14
split_gain=1.82621 0.099372 1.11022e-16
threshold=1.0000000180025095e-35 1.5000000000000002 1.5000000000000002
decision_type=2 2 2
left_child=2 -2 -1
right_child=1 -3 -4
leaf_value=-0.050702915139125761 0.032742616838173234 0.01843332232545547 -0.050702915139125795
leaf_weight=0.35545189678668965 2.3385765478014946 2.5215026289224625 0.58786275237798691
leaf_count=26 36 22 43
internal_value=0.0129617 0.0253187 -0.0507029
internal_weight=5.80339 4.86008 0.943315
internal_count=127 58 69
is_linear=0
shrinkage=0.05


Tree=69
num_leaves=3
num_cat=0
split_feature=1 13
split_gain=1.71019 0.0965597
threshold=1.0000000180025095e-35 1.5000000000000002
decision_type=2 2
left_child=-1 -2
right_child=1 -3
leaf_value=-0.050668163290603065 0.032007160395313254 0.017753568426496471
leaf_weight=0.89790854416787613 2.2743452191352844 2.4880148470401764
leaf_count=69 36 22
internal_value=0.0126268 0.0245606
internal_weight=5.66027 4.76236
internal_count=127 58
is_linear=0
shrinkage=0.05


Tree=70
num_leaves=3
num_cat=0
split_feature=3 15
split_gain=0.786907 0.970694
threshold=1.0000000180025095e-35 1.5000000000000002
decision_type=2 2
left_child=-1 -2
right_child=1 -3
leaf_value=-0.050635153936519739 0.029917428509338991 -0.016833591219002835
leaf_weight=0.84227344393730152 1.8535125404596327 2.768997423350811
leaf_count=68 24 33
internal_value=-0.00618661 0.00191242
internal_weight=5.46478 4.62251
internal_count=125 57
is_linear=0
shrinkage=0.05


Tree=71
num_leaves=4
num_cat=0
split_feature=6 15 18
split_gain=0.331533 0.903138 0.289425
threshold=1.5000000000000002 1.5000000000000002 1.5000000000000002
decision_type=2 2 2
left_child=2 -2 -1
right_child=1 -3 -4
leaf_value=0.0085566392223012933 0.028052955694209975 -0.018143195128515002 -0.050603794696373744
leaf_weight=0.2985949059948324 1.7329191565513609 2.7164691016077995 0.67199586052447557
leaf_count=14 22 32 57
internal_value=-0.00592668 -0.000151015 -0.0324035
internal_weight=5.41998 4.44939 0.970591
internal_count=125 54 71
is_linear=0
shrinkage=0.05


Tree=72
num_leaves=4
num_cat=0
split_feature=6 15 18
split_gain=0.312658 0.821419 0.280537
threshold=1.5000000000000002 1.5000000000000002 1.5000000000000002
decision_type=2 2 2
left_child=2 -2 -1
right_child=1 -3 -4
leaf_value=0.0081328267624531728 0.02724358862852171 -0.01698041263540331 -0.050574001569680387
leaf_weight=0.29845119547098864 1.6961308121681211 2.7563006281852722 0.63958930224180222
leaf_count=14 22 32 57
internal_value=-0.00566069 -0.000133507 -0.0318956
internal_weight=5.39047 4.45243 0.93804
internal_count=125 54 71
is_linear=0
shrinkage=0.05


Tree=73
num_leaves=4
num_cat=0
split_feature=6 15 18
split_gain=0.294594 0.747409 0.271964
threshold=1.5000000000000002 1.5000000000000002 1.5000000000000002
decision_type=2 2 2
left_child=2 -2 -1
right_child=1 -3 -4
leaf_value=0.0077294167554560677 0.026444706176286303 -0.015908232768001278 -0.050545689243344676
leaf_weight=0.29832969047129143 1.6609107553958891 2.7939622029662132 0.60872832499444485
leaf_count=14 22 32 57
internal_value=-0.00540615 -0.000117782 -0.0313791
internal_weight=5.36193 4.45487 0.907058
internal_count=125 54 71
is_linear=0
shrinkage=0.05


Tree=74
num_leaves=4
num_cat=0
split_feature=6 2 13
split_gain=0.277329 0.107678 0.0104656
threshold=1.5000000000000002 3.0000000000000004 1.5000000000000002
decision_type=2 2 2
left_child=1 -1 -2
right_child=2 -3 -4
leaf_value=-0.015257569553715667 0.0026525006266849855 -0.050521902762713157 -0.002233654054802438
leaf_weight=0.48943166993558396 1.9428208023309705 0.38813702296465635 2.5139647275209427
leaf_count=33 31 38 23
internal_value=-0.00516257 -0.0308545 -0.000103661
internal_weight=5.33435 0.877569 4.45679
internal_count=125 71 54
is_linear=0
shrinkage=0.05


Tree=75
num_leaves=4
num_cat=0
split_feature=13 3 3
split_gain=0.499648 0.666696 1.09336
threshold=1.5000000000000002 2.0000000000000004 1.0000000180025095e-35
decision_type=2 2 2
left_child=-1 2 -2
right_child=1 -3 -4
leaf_value=0.0031476745501647328 -0.050516418190258809 -0.043916490393648443 0.056756855437393852
leaf_weight=2.4931895965710282 0.44318347051739704 1.9721700400114059 0.51188281923532486
leaf_count=59 44 18 5
internal_value=-0.0133012 -0.0273111 0.00697838
internal_weight=5.42043 2.92724 0.955066
internal_count=126 67 49
is_linear=0
shrinkage=0.05


Tree=76
num_leaves=4
num_cat=0
split_feature=13 17 3
split_gain=0.445464 0.579124 0.0129636
threshold=1.5000000000000002 1.0000000180025095e-35 2.0000000000000004
decision_type=2 2 2
left_child=-1 2 -2
right_child=1 -3 -4
leaf_value=0.002996561747028512 -0.010001373108165644 -0.049229373762208505 -0.00081631390518394509
leaf_weight=2.4881041524931788 0.68313539121300004 1.3878931328654287 0.87772057950496674
leaf_count=59 47 11 9
internal_value=-0.0125841 -0.0257309 -0.00483631
internal_weight=5.43685 2.94875 1.56086
internal_count=126 67 56
is_linear=0
shrinkage=0.05


Tree=77
num_leaves=4
num_cat=0
split_feature=14 3 3
split_gain=0.392853 0.540249 1.04457
threshold=1.5000000000000002 2.0000000000000004 1.0000000180025095e-35
decision_type=2 2 2
left_child=-1 2 -2
right_child=1 -3 -4
leaf_value=0.0028524163285576463 -0.050486094061045088 -0.038160067091607859 0.056611396040030071
leaf_weight=2.4832765217870474 0.41765969060361419 2.0773351117968559 0.50053080916404724
leaf_count=59 44 18 5
internal_value=-0.0118526 -0.024043 0.00789568
internal_weight=5.4788 2.99553 0.91819
internal_count=126 67 49
is_linear=0
shrinkage=0.05


Tree=78
num_leaves=4
num_cat=0
split_feature=13 17 3
split_gain=0.351261 0.481819 0.0171982
threshold=1.5000000000000002 1.0000000180025095e-35 2.0000000000000004
decision_type=2 2 2
left_child=-1 2 -2
right_child=1 -3 -4
leaf_value=0.0027149371631100799 -0.0095380996181493038 -0.043346790464133353 0.001127688929623963
leaf_weight=2.4786937264725566 0.6491373870521786 1.457764610648155 0.9047129899263382
leaf_count=59 47 11 9
internal_value=-0.0112255 -0.022699 -0.00332806
internal_weight=5.49031 3.01161 1.55385
internal_count=126 67 56
is_linear=0
shrinkage=0.05


Tree=79
num_leaves=3
num_cat=0
split_feature=14 17
split_gain=0.310803 0.413129
threshold=1.5000000000000002 1.0000000180025095e-35
decision_type=2 2
left_child=-1 -2
right_child=1 -3
leaf_value=0.0025838430348361753 -0.0031670671356639046 -0.039961806387355026
leaf_weight=2.4743432318791747 1.551319031044841 1.5010124593973158
leaf_count=59 56 11
internal_value=-0.0105856 -0.0212612
internal_weight=5.52667 3.05233
internal_count=126 67
is_linear=0
shrinkage=0.05


end of trees

feature_importances:
Column_1=63
Column_13=43
Column_17=25
Column_15=15
Column_3=12
Column_2=11
Column_14=9
Column_6=4
Column_18=3
Column_8=2
Column_4=1

parameters:
[boosting: gbdt]
[objective: binary]
[metric: binary_logloss]
[tree_learner: serial]
[device_type: cpu]
[data_sample_strategy: bagging]
[data: ]
[valid: ]
[num_iterations: 200]
[learning_rate: 0.05]
[num_leaves: 31]
[num_threads: 0]
[seed: 0]
[deterministic: 0]
[force_col_wise: 0]
[force_row_wise: 0]
[histogram_pool_size: -1]
[max_depth: -1]
[min_data_in_leaf: 20]
[min_sum_hessian_in_leaf: 0.001]
[bagging_fraction: 0.8]
[pos_bagging_fraction: 1]
[neg_bagging_fraction: 1]
[bagging_freq: 5]
[bagging_seed: 3]
[bagging_by_query: 0]
[feature_fraction: 0.9]
[feature_fraction_bynode: 1]
[feature_fraction_seed: 2]
[extra_trees: 0]
[extra_seed: 6]
[early_stopping_round: 0]
[early_stopping_min_delta: 0]
[first_metric_only: 0]
[max_delta_step: 0]
[lambda_l1: 0]
[lambda_l2: 0]
[linear_lambda: 0]
[min_gain_to_split: 0]
[drop_rate: 0.1]
[max_drop: 50]
[skip_drop: 0.5]
[xgboost_dart_mode: 0]
[uniform_drop: 0]
[drop_seed: 4]
[top_rate: 0.2]
[other_rate: 0.1]
[min_data_per_group: 100]
[max_cat_threshold: 32]
[cat_l2: 10]
[cat_smooth: 10]
[max_cat_to_onehot: 4]
[top_k: 20]
[monotone_constraints: ]
[monotone_constraints_method: basic]
[monotone_penalty: 0]
[feature_contri: ]
[forcedsplits_filename: ]
[refit_decay_rate: 0.9]
[cegb_tradeoff: 1]
[cegb_penalty_split: 0]
[cegb_penalty_feature_lazy: ]
[cegb_penalty_feature_coupled: ]
[path_smooth: 0]
[interaction_constraints: ]
[verbosity: -1]
[saved_feature_importance_type: 0]
[use_quantized_grad: 0]
[num_grad_quant_bins: 4]
[quant_train_renew_leaf: 0]
[stochastic_rounding: 1]
[linear_tree: 0]
[max_bin: 255]
[max_bin_by_feature: ]
[min_data_in_bin: 3]
[bin_construct_sample_cnt: 200000]
[data_random_seed: 1]
[is_enable_sparse: 1]
[enable_bundle: 1]
[use_missing: 1]
[zero_as_missing: 0]
[feature_pre_filter: 1]
[pre_partition: 0]
[two_round: 0]
[header: 0]
[label_column: ]
[weight_column: ]
[group_column: ]
[ignore_column: ]
[categorical_feature: ]
[forcedbins_filename: ]
[precise_float_parser: 0]
[parser_config_file: ]
[objective_seed: 5]
[num_class: 1]
[is_unbalance: 0]
[scale_pos_weight: 1]
[sigmoid: 1]
[boost_from_average: 1]
[reg_sqrt: 0]
[alpha: 0.9]
[fair_c: 1]
[poisson_max_delta_step: 0.7]
[tweedie_variance_power: 1.5]
[lambdarank_truncation_level: 30]
[lambdarank_norm: 1]
[label_gain: ]
[lambdarank_position_bias_regularization: 0]
[eval_at: ]
[multi_error_top_k: 1]
[auc_mu_weights: ]
[num_machines: 1]
[local_listen_port: 12400]
[time_out: 120]
[machine_list_filename: ]
[machines: ]
[gpu_platform_id: -1]
[gpu_device_id: -1]
[gpu_use_dp: 0]
[num_gpu: 1]

end of parameters

pandas_categorical:null
