tree
version=v4
num_class=1
num_tree_per_iteration=1
label_index=0
max_feature_idx=33
objective=binary sigmoid:1
feature_names=Column_0 Column_1 Column_2 Column_3 Column_4 Column_5 Column_6 Column_7 Column_8 Column_9 Column_10 Column_11 Column_12 Column_13 Column_14 Column_15 Column_16 Column_17 Column_18 Column_19 Column_20 Column_21 Column_22 Column_23 Column_24 Column_25 Column_26 Column_27 Column_28 Column_29 Column_30 Column_31 Column_32 Column_33
feature_infos=[2:7] [2:24] [1:5.5] [1:4] [1:8] [0:4] [1:4] [1:8] [0:4] [0:4] [0:9] [0:4] [0:4] [0:8] [0:4] [0:4] [0:5] [0:4] [0:4] [0:5] none [1:7] [0:4] [0:4] [0:3] [0:2] [0:4] [2:7] [1:4] [1:4] [0:1.5] [0:3] [0:3] [1:4]
tree_sizes=3286 3374 3362 3374 3376

Tree=0
num_leaves=31
num_cat=0
split_feature=26 23 2 28 30 4 22 28 5 14 14 11 1 13 5 7 2 22 4 28 25 10 22 1 12 2 24 22 2 6
split_gain=308.303 167.179 101.182 73.83 73.2287 34.973 25.9911 42.3518 24.5027 15.7519 10.5114 12.5632 15.5487 10.392 8.76926 7.99206 7.83869 9.77434 7.36607 6.60348 4.79324 4.6417 4.45356 4.09973 6.25372 2.10961 3.95378 1.92794 5.93294 1.681
threshold=1.0000000180025095e-35 1.0000000180025095e-35 3.5833333333333335 1.5833333333333337 1.0784560543953219 4.5000000000000009 1.0000000180025095e-35 1.2916666666666667 1.0000000180025095e-35 1.5000000000000002 1.5000000000000002 1.5000000000000002 5.5000000000000009 2.5000000000000004 1.5000000000000002 2.5000000000000004 2.9166666666666674 1.5000000000000002 1.5000000000000002 1.1250000000000002 1.0000000180025095e-35 1.5000000000000002 1.5000000000000002 9.5000000000000018 1.5000000000000002 2.1250000000000004 1.0000000180025095e-35 1.5000000000000002 2.5833333333333335 1.5000000000000002
decision_type=2 2 2 2 2 2 2 2 2 2 2 2 2 2 2 2 2 2 2 2 2 2 2 2 2 2 2 2 2 2
left_child=1 2 4 8 5 6 7 -1 -3 14 11 23 18 -12 -7 -15 21 -18 29 -10 -6 -14 -4 25 -25 26 -8 -23 -29 -13
right_child=-2 3 22 -5 20 9 10 -9 19 -11 13 12 16 15 -16 -17 17 -19 -20 -21 -22 27 -24 24 -26 -27 -28 28 -30 -31
leaf_value=0.49826924150905721 0.31816210184564292 0.49631155520836789 0.31816210184564292 0.32007232908449734 0.3959861745397108 0.41305726145324834 0.48467624983634672 0.33372691638445651 0.43022876652510067 0.35470557945850956 0.41155098907852444 0.49676834867852876 0.47575584905113044 0.44606427349067623 0.48742945995524062 0.52828709811962626 0.40821567167735007 0.50307209856674828 0.41086430608416497 0.3616362390057774 0.33432556309748779 0.51841545399937194 0.37819781506678102 0.45324245659320361 0.52828709811962626 0.52337763558986028 0.51654827151214111 0.52828709811962626 0.45824543269496515 0.45474334942373207
leaf_weight=9.9940513372421282 41.879834175109863 10.945865750312807 8.0904225111007673 26.174896359443665 6.4247472882270795 7.3765617012977627 12.611540973186491 6.4247472882270804 7.1386080980300886 5.4729328751564017 6.424747288227084 4.7590720653533936 10.469958543777464 5.4729328751564008 8.5663297176361066 6.4247472882270813 4.9970256686210615 5.9488400816917419 8.090422511100769 6.9006544947624207 6.1867936849594116 35.455086886882782 4.9970256686210623 6.6627008914947492 4.7590720653533936 50.922071099281311 42.593694984912872 6.4247472882270795 5.7108864784240723 4.7590720653533936
leaf_count=42 176 46 34 110 27 31 53 27 30 23 27 20 44 23 36 27 21 25 34 29 26 149 21 28 20 214 179 27 24 20
internal_value=0.44611 0.462002 0.476892 0.378756 0.483404 0.489105 0.494592 0.433883 0.440235 0.427894 0.499072 0.502328 0.487878 0.462794 0.453018 0.490465 0.49858 0.459768 0.445941 0.396514 0.365738 0.505897 0.341085 0.512974 0.484511 0.516038 0.509267 0.512528 0.495326 0.475756
internal_weight=379.06 337.18 286.02 51.16 272.933 260.321 238.905 16.4188 24.9851 21.4158 222.487 204.164 86.6151 18.3224 15.9429 11.8977 69.0065 10.9459 17.6086 14.0393 12.6115 58.0607 13.0874 117.549 11.4218 106.127 55.2052 47.5907 12.1356 9.51814
internal_count=1593 1417 1202 215 1147 1094 1004 69 105 90 935 858 364 77 67 50 290 46 74 59 53 244 55 494 48 446 232 200 51 40
is_linear=0
shrinkage=1


Tree=1
num_leaves=31
num_cat=0
split_feature=26 23 2 29 28 4 5 22 28 14 8 2 1 5 25 11 6 2 5 4 28 14 22 5 2 4 6 1 33 2
split_gain=272.245 150.362 90.7108 86.5986 64.0632 26.2694 22.1011 14.198 29.031 12.0902 10.316 10.3609 10.9419 11.7693 9.05436 8.72616 6.99626 6.37875 6.32001 6.30439 5.77828 5.33541 3.79901 3.73838 4.87658 3.00543 2.32424 7.23748 2.31969 2.29777
threshold=1.0000000180025095e-35 1.0000000180025095e-35 3.5833333333333335 3.5000000000000004 1.5833333333333337 4.5000000000000009 1.0000000180025095e-35 1.0000000180025095e-35 1.2916666666666667 1.5000000000000002 1.5000000000000002 1.9166666666666667 8.5000000000000018 1.5000000000000002 1.0000000180025095e-35 1.5000000000000002 2.5000000000000004 2.2916666666666674 1.5000000000000002 1.5000000000000002 1.1250000000000002 1.5000000000000002 1.5000000000000002 1.5000000000000002 2.2916666666666674 1.5000000000000002 2.5000000000000004 6.5000000000000009 1.5000000000000002 2.9166666666666674
decision_type=2 2 2 2 2 2 2 2 2 2 2 2 2 2 2 2 2 2 2 2 2 2 2 2 2 2 2 2 2 2
left_child=1 2 3 5 6 7 -3 8 -1 18 11 15 23 -14 17 25 -15 -5 -7 -17 -8 26 -4 24 -13 -9 -12 -28 -25 -29
right_child=-2 4 22 14 -6 9 20 10 -10 -11 21 12 13 16 -16 19 -18 -19 -20 -21 -22 -23 -24 28 -26 -27 27 29 -30 -31
leaf_value=0.049997267357702227 -0.11872995226073829 0.048090812788408648 -0.11872995226073829 -0.072751279865402169 -0.11699622139962647 -0.02484263981630154 -0.015201275454129248 0.020118657349396094 -0.099246037822935618 -0.080016630610717093 0.071191237567277396 0.072608263964911005 0.062380432460981627 -0.040380589875318597 -0.10065953630198184 0.023356512098978911 0.028101459499159726 0.0089077867317053413 0.039465293870544205 -0.039529611281411886 -0.079036808925741636 0.014661615174753945 -0.063771918739216935 0.040267763561638331 0.014339106410944314 0.063294698799669369 -0.00083817804177095743 0.079802804719916187 0.072754473737299291 0.038589668381223644
leaf_weight=9.874333977699278 42.905020713806152 10.819906145334246 8.2884699106216413 4.8018482476472872 26.807535737752914 6.9493438601493862 7.1633760631084424 7.5040689110755929 4.8633268475532523 4.8459699749946585 68.182145029306412 6.3512837737798682 11.051949024200441 7.3634101003408414 9.6877114474773389 7.7983489185571644 7.5571678131818771 4.7642163634300232 8.4859052896499616 8.1511027812957764 7.0180323719978333 5.2191011011600486 5.0666547864675513 6.3188530802726737 8.2610698193311674 8.7073110789060593 4.9316917806863811 11.932218134403231 42.139227867126465 4.7197667807340613
leaf_count=42 176 46 34 20 110 29 30 32 20 20 291 27 47 31 40 33 32 20 36 34 29 22 21 27 35 37 21 51 180 20
internal_value=-0.00013312 0.0150278 0.0293265 0.0356078 -0.0633023 0.0434406 -0.00572919 0.0482323 0.000748002 -0.0111186 0.0514693 0.0418003 0.050586 0.0232728 -0.0665876 0.0174756 -0.00569491 -0.0320824 0.0105122 -0.00878198 -0.0467919 0.0638071 -0.09788 0.0618337 0.0396659 0.043309 0.0666645 0.0523648 0.0685183 0.0681215
internal_weight=378.53 335.625 283.816 270.461 51.8089 251.208 25.0013 230.926 14.7377 20.2812 216.189 121.204 89.043 25.9725 19.2538 32.1608 14.9206 9.56606 15.4352 15.9495 14.1814 94.9849 13.3551 63.0704 14.6124 16.2114 89.7658 21.5837 48.4581 16.652
internal_count=1593 1417 1202 1147 215 1067 105 982 62 85 920 515 379 110 80 136 63 40 65 67 59 405 55 269 62 69 383 92 207 71
is_linear=0
shrinkage=0.05


Tree=2
num_leaves=31
num_cat=0
split_feature=23 29 2 8 28 14 2 28 11 1 10 4 28 4 13 3 28 8 24 29 32 6 1 28 29 30 2 33 24 1
split_gain=168.441 112.321 71.9052 65.6477 61.4124 28.4488 18.7142 51.5825 16.2044 17.7133 15.9622 9.25417 9.13267 9.02508 8.97311 6.78558 6.3017 5.70902 5.55862 10.8694 4.64702 4.56772 4.1798 3.68619 3.67928 3.67639 3.21126 3.09416 2.96767 2.84967
threshold=1.0000000180025095e-35 3.5000000000000004 3.5833333333333335 3.5000000000000004 1.1250000000000002 1.5000000000000002 2.7750000000000004 1.7916666666666667 1.5000000000000002 5.5000000000000009 1.5000000000000002 1.5000000000000002 1.5833333333333337 4.5000000000000009 2.5000000000000004 1.5000000000000002 2.4142857142857146 1.5000000000000002 1.5000000000000002 2.5000000000000004 1.0000000180025095e-35 1.5000000000000002 7.5000000000000009 2.4142857142857146 2.5000000000000004 0.48065123467383369 2.3666666666666671 1.5000000000000002 1.5000000000000002 7.5000000000000009
decision_type=2 2 2 2 2 2 2 2 2 2 2 2 2 2 2 2 2 2 2 2 2 2 2 2 2 2 2 2 2 2
left_child=1 2 3 5 26 6 8 -8 16 11 13 -10 -6 -7 -12 -9 27 23 19 22 -20 -22 -11 -3 -17 -4 -2 -1 -19 -23
right_child=4 17 25 -5 12 10 7 15 9 18 14 -13 -14 -15 -16 24 -18 28 20 -21 21 29 -24 -25 -26 -27 -28 -29 -30 -31
leaf_value=0.048195508954909816 0.033340264601514347 -0.079442294229911004 -0.11349064410831687 -0.11103547272536277 -0.061668291135782066 -0.017858860264996362 -0.1121407365917832 -0.01828793439622101 0.023510580724959904 0.025889193763528797 -0.031327295702416789 -0.045242443256486242 -0.10990464656138824 -0.1054696404464282 0.055249655519253538 0.0042296043375763866 0.015737191526032753 -0.11263828454706566 0.074944312586729372 -0.026889839644532301 0.0089874064602604373 0.036781255888033181 0.079462536460711941 -0.021429793528284918 0.052815092931311938 -0.059233061145920397 -0.012584915557380484 0.067785555954825702 -0.071210181444185741 0.078389793711252431
leaf_weight=27.394904270768166 9.4314473420381528 5.3842764943838137 7.3898255825042707 7.920978069305419 13.128482952713965 6.439264580607416 7.1651291102170935 4.9787690192461005 9.6411906480789185 9.1345617622137087 4.7924451828002912 9.940748319029808 38.852349147200584 5.4084805250167847 7.9698416292667389 4.64993788301945 7.7036417275667182 10.611887246370317 16.105942651629448 7.3314270526170722 7.8711652457714107 9.2970396876335162 6.0536471158266059 5.5719768851995468 24.052687346935272 5.4059719294309616 6.3821110576391211 76.283504739403725 7.2940971404314032 7.3826784640550605
leaf_count=118 40 22 30 32 54 27 30 21 41 39 20 41 157 22 34 20 33 43 70 31 34 40 26 23 103 22 27 331 30 32
internal_value=-9.90098e-05 0.0155517 0.025222 0.0307604 -0.071474 0.035087 0.0404435 0.00968156 0.0469158 0.0301575 -0.0160598 -0.0113918 -0.0977219 -0.0578531 0.0227386 0.0355971 0.0593674 -0.0783676 0.0430359 0.023108 0.0540739 0.0403824 0.0472422 -0.0499391 0.0449441 -0.0905679 0.0148056 0.0626093 -0.0957623 0.0551978
internal_weight=376.97 309.176 280.314 267.518 67.7944 259.597 234.987 40.8465 194.14 82.7584 24.61 19.5819 51.9808 11.8477 12.7623 33.6814 111.382 28.8622 63.1765 22.5196 40.6568 24.5509 15.1882 10.9563 28.7026 12.7958 15.8136 103.678 17.906 16.6797
internal_count=1593 1315 1197 1145 278 1113 1010 174 836 354 103 82 211 49 54 144 482 118 272 96 176 106 65 45 123 52 67 449 73 72
is_linear=0
shrinkage=0.05


Tree=3
num_leaves=31
num_cat=0
split_feature=26 23 2 30 28 4 5 14 11 28 2 5 1 1 4 9 10 28 2 5 2 25 6 30 6 24 1 10 8 3
split_gain=224.698 122.7 74.3259 54.4595 50.663 27.4473 19.4696 11.066 11.065 10.6189 8.53359 6.93268 6.27667 10.3495 5.89038 4.90881 4.85982 4.39242 3.92747 6.49405 4.23646 3.79601 3.72999 3.6372 3.21252 2.59908 3.00998 2.59737 2.53642 7.92634
threshold=1.0000000180025095e-35 1.0000000180025095e-35 3.5833333333333335 1.1038793623175318 1.5833333333333337 4.5000000000000009 1.0000000180025095e-35 1.5000000000000002 1.5000000000000002 2.7083333333333335 1.9166666666666667 1.5000000000000002 8.5000000000000018 10.500000000000002 1.5000000000000002 2.5000000000000004 1.5000000000000002 1.1250000000000002 2.7083333333333335 1.5000000000000002 2.1250000000000004 1.0000000180025095e-35 2.5000000000000004 0.69714552606141222 1.5000000000000002 1.0000000180025095e-35 2.5000000000000004 3.5000000000000004 1.5000000000000002 1.5000000000000002
decision_type=2 2 2 2 2 2 2 2 2 2 2 2 2 2 2 2 2 2 2 2 2 2 2 2 2 2 2 2 2 2
left_child=1 2 3 5 6 8 -3 11 9 18 14 -7 16 15 -10 -14 24 -8 20 -20 21 22 25 -4 -12 -1 -27 28 -18 -30
right_child=-2 4 23 -5 -6 7 17 -9 10 -11 12 -13 13 -15 -16 -17 27 -19 19 -21 -22 -23 -24 -25 -26 26 -28 -29 29 -31
leaf_value=0.030256761745685243 -0.10648239244234943 0.046375676967814465 -0.10676940601756318 -0.070555922862341497 -0.10306036709164434 -0.029486778228616936 -0.015106509302165495 -0.075800301856542601 0.026037239195002372 -0.00587615281775549 -0.0072161137806431011 0.036840937314985549 -0.042102991667174086 0.058831368630923399 -0.031462148362644243 0.021978467961771421 0.071582826369614633 -0.070475566828878053 0.061010286281860039 0.0064936195486037422 0.071033030800890129 0.017181444211028764 0.020902591507258247 -0.053608736932803297 0.047530858473633447 0.028025135546469654 0.069079523859645317 0.027103296137354623 0.067639214182237326 -0.0058699552922991524
leaf_weight=6.3893076330423346 43.813807025551796 10.691846594214441 8.4609967917203885 12.098625034093855 27.44040459394455 7.4656807184219387 7.1652397364377958 5.690249264240264 9.3383346349000931 7.5008605420589438 6.3075585663318616 8.3411796092987043 7.1579106152057665 7.6164392977952948 8.5158383399248123 5.1305246353149414 18.854947954416275 7.1622457504272461 11.915466859936716 10.08680374920368 44.573201656341553 7.3542213737964621 6.9159548282623282 5.1919735670089713 4.6586648970842361 5.0416157245635977 39.010812863707542 7.8063618391752234 11.928871065378191 5.2949171513319007
leaf_count=28 176 46 34 49 110 31 30 23 40 32 27 36 30 33 35 22 83 29 52 43 197 32 30 21 20 22 172 34 53 23
internal_value=-7.33281e-05 0.0140073 0.0272139 0.0330754 -0.0561418 0.0380332 -0.00468292 -0.0160098 0.0430538 0.0519852 0.029669 0.00551394 0.0370864 0.0130359 -0.00138803 -0.0153484 0.0458141 -0.0427853 0.055291 0.0360175 0.0591713 0.0510011 0.0553373 -0.0865534 0.0160415 0.0600586 0.064381 0.0532538 0.058912 0.0450411
internal_weight=374.921 331.107 278.647 264.994 52.4597 252.896 25.0193 21.4971 231.399 138.788 92.6104 15.8069 74.7562 19.9049 17.8542 12.2884 54.8513 14.3275 131.287 22.0023 109.285 64.7119 57.3577 13.653 10.9662 50.4417 44.0524 43.8851 36.0787 17.2238
internal_count=1593 1417 1202 1147 215 1098 105 90 1008 608 400 67 325 85 75 52 240 59 576 95 481 284 252 55 47 222 194 193 159 76
is_linear=0
shrinkage=0.05


Tree=4
num_leaves=31
num_cat=0
split_feature=26 23 2 29 28 4 5 22 28 8 2 1 5 14 25 30 11 32 2 14 4 28 22 5 2 4 28 10 28 28
split_gain=202.39 111.382 67.3537 65.524 45.4925 20.7345 17.635 13.4663 25.5802 8.97545 8.85545 9.4868 10.2416 8.47624 7.4639 6.84286 6.4796 5.17706 5.06361 4.71465 4.49823 3.92277 3.27698 3.21419 4.6152 2.86064 2.2123 5.44361 2.13338 1.99485
threshold=1.0000000180025095e-35 1.0000000180025095e-35 3.5833333333333335 3.5000000000000004 1.5833333333333337 4.5000000000000009 1.0000000180025095e-35 1.0000000180025095e-35 1.2916666666666667 1.5000000000000002 1.9166666666666667 8.5000000000000018 1.5000000000000002 1.5000000000000002 1.0000000180025095e-35 0.48065123467383369 1.5000000000000002 1.0000000180025095e-35 2.2916666666666674 1.5000000000000002 1.5000000000000002 1.1250000000000002 1.5000000000000002 1.5000000000000002 2.2916666666666674 1.5000000000000002 1.4166666666666667 1.5000000000000002 2.0833333333333335 1.5833333333333337
decision_type=2 2 2 2 2 2 2 2 2 2 2 2 2 2 2 2 2 2 2 2 2 2 2 2 2 2 2 2 2 2
left_child=1 2 3 5 6 7 -3 8 -1 10 16 23 28 17 18 -14 25 -7 -5 29 -18 -8 -4 24 -12 -9 27 -25 -13 -11
right_child=-2 4 22 14 -6 13 21 9 -10 19 11 12 15 -15 -16 -17 20 -19 -20 -21 -22 -23 -24 26 -26 -27 -28 -29 -30 -31
leaf_value=0.044531642427101732 -0.10078383422218995 0.044637151177100209 -0.10102908507621058 -0.060289805166733892 -0.09768976705101079 -0.018732151068949956 -0.01430511887137749 0.014861181377413844 -0.096235932077125511 0.074547599548153695 0.068637835650604412 0.031482379141967991 -0.038737666108278973 -0.066144245915207608 -0.086330294138203326 0.029352925520705692 0.020108058081983876 0.03957461619347187 0.01175173214754008 0.011949800271910588 -0.033001945924339318 -0.066504259294662513 -0.050680607415263083 0.0030056694032140575 0.011142058851807642 0.05781949440626958 0.070320812541208255 0.068855165960129652 0.076871102964225155 0.056849270419684385
leaf_weight=9.4677329361438733 43.971336469054222 10.556339621543886 8.4935504794120771 4.9494337439537066 27.499327957630157 8.0086484998464602 7.1877162605524045 7.2638235390186301 4.8963275104761115 21.184100687503815 6.1252502351999274 4.4823372811079043 7.8323285132646543 4.9787601530551902 9.9496315568685514 6.976360023021698 7.6570326387882224 7.2564965039491645 4.8090971261262894 5.1427664756774893 8.3176369965076447 7.2091249078512192 5.2167168706655493 4.7536685317754737 8.1134520471096021 8.307456761598587 31.96829417347908 9.2370583862066251 6.1286102831363678 64.091629594564438
leaf_count=42 176 46 34 20 110 34 30 32 20 96 27 20 33 20 40 30 33 31 20 22 34 29 21 21 35 37 144 42 27 287
internal_value=-5.20669e-05 0.0134494 0.0261592 0.0318146 -0.0533331 0.0389488 -0.00445048 0.0433672 -0.00345229 0.046607 0.0374735 0.0458174 0.0202048 -0.00949236 -0.055857 -0.00666025 0.0148276 0.00898477 -0.024787 0.058442 -0.00754508 -0.0404435 -0.0818716 0.0566328 0.0358758 0.0377799 0.0630636 0.0464813 0.0576977 0.0612459
internal_weight=372.032 328.061 275.608 261.898 52.4525 242.19 24.9532 221.946 14.3641 207.582 117.163 85.6174 25.4196 20.2439 19.7082 14.8087 31.5459 15.2651 9.75853 90.4185 15.9747 14.3968 13.7103 60.1977 14.2387 15.5713 45.959 13.9907 10.6109 85.2757
internal_count=1593 1417 1202 1147 215 1067 105 982 62 920 515 379 110 85 80 63 136 65 40 405 67 59 55 269 62 69 207 63 47 383
is_linear=0
shrinkage=0.05


end of trees

feature_importances:
Column_2=20
Column_28=20
Column_4=12
Column_5=12
Column_1=11
Column_14=8
Column_22=8
Column_6=6
Column_8=5
Column_10=5
Column_11=5
Column_23=5
Column_29=5
Column_30=5
Column_24=4
Column_25=4
Column_26=4
Column_3=2
Column_13=2
Column_32=2
Column_33=2
Column_7=1
Column_9=1
Column_12=1

parameters:
[boosting: gbdt]
[objective: binary]
[metric: binary_logloss]
[tree_learner: serial]
[device_type: cpu]
[data_sample_strategy: bagging]
[data: ]
[valid: ]
[num_iterations: 5]
[learning_rate: 0.05]
[num_leaves: 31]
[num_threads: 0]
[seed: 0]
[deterministic: 0]
[force_col_wise: 0]
[force_row_wise: 0]
[histogram_pool_size: -1]
[max_depth: -1]
[min_data_in_leaf: 20]
[min_sum_hessian_in_leaf: 0.001]
[bagging_fraction: 0.8]
[pos_bagging_fraction: 1]
[neg_bagging_fraction: 1]
[bagging_freq: 5]
[bagging_seed: 3]
[bagging_by_query: 0]
[feature_fraction: 0.9]
[feature_fraction_bynode: 1]
[feature_fraction_seed: 2]
[extra_trees: 0]
[extra_seed: 6]
[early_stopping_round: 0]
[early_stopping_min_delta: 0]
[first_metric_only: 0]
[max_delta_step: 0]
[lambda_l1: 0]
[lambda_l2: 0]
[linear_lambda: 0]
[min_gain_to_split: 0]
[drop_rate: 0.1]
[max_drop: 50]
[skip_drop: 0.5]
[xgboost_dart_mode: 0]
[uniform_drop: 0]
[drop_seed: 4]
[top_rate: 0.2]
[other_rate: 0.1]
[min_data_per_group: 100]
[max_cat_threshold: 32]
[cat_l2: 10]
[cat_smooth: 10]
[max_cat_to_onehot: 4]
[top_k: 20]
[monotone_constraints: ]
[monotone_constraints_method: basic]
[monotone_penalty: 0]
[feature_contri: ]
[forcedsplits_filename: ]
[refit_decay_rate: 0.9]
[cegb_tradeoff: 1]
[cegb_penalty_split: 0]
[cegb_penalty_feature_lazy: ]
[cegb_penalty_feature_coupled: ]
[path_smooth: 0]
[interaction_constraints: ]
[verbosity: -1]
[saved_feature_importance_type: 0]
[use_quantized_grad: 0]
[num_grad_quant_bins: 4]
[quant_train_renew_leaf: 0]
[stochastic_rounding: 1]
[linear_tree: 0]
[max_bin: 255]
[max_bin_by_feature: ]
[min_data_in_bin: 3]
[bin_construct_sample_cnt: 200000]
[data_random_seed: 1]
[is_enable_sparse: 1]
[enable_bundle: 1]
[use_missing: 1]
[zero_as_missing: 0]
[feature_pre_filter: 1]
[pre_partition: 0]
[two_round: 0]
[header: 0]
[label_column: ]
[weight_column: ]
[group_column: ]
[ignore_column: ]
[categorical_feature: ]
[forcedbins_filename: ]
[precise_float_parser: 0]
[parser_config_file: ]
[objective_seed: 5]
[num_class: 1]
[is_unbalance: 0]
[scale_pos_weight: 1]
[sigmoid: 1]
[boost_from_average: 1]
[reg_sqrt: 0]
[alpha: 0.9]
[fair_c: 1]
[poisson_max_delta_step: 0.7]
[tweedie_variance_power: 1.5]
[lambdarank_truncation_level: 30]
[lambdarank_norm: 1]
[label_gain: ]
[lambdarank_position_bias_regularization: 0]
[eval_at: ]
[multi_error_top_k: 1]
[auc_mu_weights: ]
[num_machines: 1]
[local_listen_port: 12400]
[time_out: 120]
[machine_list_filename: ]
[machines: ]
[gpu_platform_id: -1]
[gpu_device_id: -1]
[gpu_use_dp: 0]
[num_gpu: 1]

end of parameters

pandas_categorical:null
