tree
version=v4
num_class=1
num_tree_per_iteration=1
label_index=0
max_feature_idx=27
objective=binary sigmoid:1
feature_names=Column_0 Column_1 Column_2 Column_3 Column_4 Column_5 Column_6 Column_7 Column_8 Column_9 Column_10 Column_11 Column_12 Column_13 Column_14 Column_15 Column_16 Column_17 Column_18 Column_19 Column_20 Column_21 Column_22 Column_23 Column_24 Column_25 Column_26 Column_27
feature_infos=[1:4] [3:28] [0:4] [0:4] [0:4] [0:3] [0:1] none none none [1:4] [0:1] [0:1] [0:1] [1:4] [0:3] [0:3] [0:3] [0:3] [0:3] [1:4] [1:4] [1:4] [0:1.5] [0:18] [0:19] [0:21] [1:4]
tree_sizes=3273 3400 3385 3386 3406 3409 3395 3423 3417 3398 3403 3394 3391 3401 3400 3405 3398 3392 3400 3403 3396 3378 3395 3389 3389 3401 3385 3391 3392 3395 3406 3413 3395 3389 3409 3372 3392 3390 3403 3395 3419 3407 3406 3417 3409 3398 3411 3407 3418 3408 3410 3401 3411 3409 3410 3401 3408 3402 3406 3390 3409 3416 3421 3412 3421 3397 3413 3429 3410 3425 3419 3412 3422 3415 3424 3426 3431 3429 3424 3429 3420 3426 3441 3413 3432 3419 3445 3438 3466 3412 3446 3455 3431 3439 3443 3470 3455 3462 3453 3463 3448 3450 3452 3473 3476 3460 3487 3463 3479 3467 3470 3479 3456 3462 3476 3469 3489 3487 3487 3483 3468 3470 3483 3467 3473 3481 3489 3479 3474 3477 3484 3490 3469 3486 3471 3491 3485 3486 3478 3493 3497 3514 3508 3511 3502 3510 3498 3507 3500 3497 3516 3533 3532 3540 3501 3514 3525 3527 3523 3527 3512 3517 3519 3539 3528 3540 3532 3527 3528 3541 3542 3550 3526 3541 3536 3541 3540 3551 3547 3548 3542 3551 3562 3568 3554 3543 3543 3539 3569 3544 3567 3562 3557 3560 3561 3556 3554 3565 3555 3562

Tree=0
num_leaves=31
num_cat=0
split_feature=10 16 16 1 19 24 0 23 1 25 23 21 3 21 24 26 17 25 15 26 25 21 25 26 17 23 23 24 23 3
split_gain=400.454 154.995 80.1152 68.4049 50.0132 49.3537 48.7428 39.0786 28.5502 19.9703 16.0917 7.81826 5.81591 3.74365 1.68798 0.722037 1.23182 3.30912 0.728814 0.47841 0.411116 0.0805606 0.0920517 0.107682 0.117847 0.0702513 0.046074 0.110665 0.00882974 5.68434e-14
threshold=2.5000000000000004 1.0000000180025095e-35 1.5000000000000002 6.5000000000000009 1.0000000180025095e-35 3.5000000000000004 2.5000000000000004 0.48570226039551589 9.5000000000000018 5.5000000000000009 0.97140452079103179 1.8750000000000002 1.0000000180025095e-35 2.5833333333333335 7.5000000000000009 3.5000000000000004 1.0000000180025095e-35 1.5000000000000002 1.0000000180025095e-35 2.5000000000000004 3.5000000000000004 1.5833333333333337 7.5000000000000009 5.5000000000000009 1.5000000000000002 0.45220861134162554 0.48570226039551589 4.5000000000000009 0.76180168105713697 2.5000000000000004
decision_type=2 2 2 2 2 2 2 2 2 2 2 2 2 2 2 2 2 2 2 2 2 2 2 2 2 2 2 2 2 2
left_child=6 -2 4 -4 10 -6 8 20 -1 -9 12 -10 -3 15 -15 16 19 -18 -17 -14 -7 -20 23 24 28 -22 27 -21 -23 -8
right_child=1 2 3 -5 5 7 29 9 11 -11 -12 -13 13 14 -16 18 17 -19 21 26 25 22 -24 -25 -26 -27 -28 -29 -30 -31
leaf_value=0.34361547280648191 0.31668582126144573 0.47422428279990725 0.49909877672703273 0.31668582126144573 0.31668582126144573 0.50704479562042004 0.31668582126144573 0.32623360680923125 0.50153094946657395 0.46280845225364192 0.43338097795660241 0.41671024128586576 0.51136749730897546 0.4742242827999073 0.50820316666114407 0.50873270770833212 0.52673710331272772 0.4836496608406699 0.52673710331272783 0.52673710331272772 0.52673710331272783 0.51949395565578704 0.51673466131028578 0.52673710331272783 0.52673710331272783 0.5186582078492169 0.52673710331272783 0.51673466131028578 0.51673466131028578 0.31668582126144573
leaf_weight=9.2834472656250018 14.044189453124998 8.5693359374999982 9.0454101562500018 11.901855468749998 6.1889648437499991 7.6171875000000062 44.036865234375 5.2368164062499982 5.9509277343749982 5.474853515625 6.4270019531249991 4.998779296875 9.7595214843749982 6.6650390624999973 8.09326171875 8.3312988281249982 8.5693359375 9.283447265625 24.041748046875 6.1889648437500018 4.7607421874999982 6.9030761718750018 4.9987792968749991 17.852783203125 6.4270019531249991 6.18896484375 11.901855468749998 4.998779296875 4.998779296875 8.0932617187499982
leaf_count=39 59 36 38 50 26 32 185 22 25 23 27 21 41 28 34 35 36 39 101 26 20 29 21 75 27 26 50 21 21 34
internal_value=0.444536 0.47751 0.488244 0.395455 0.498502 0.444972 0.342251 0.47209 0.40812 0.396039 0.510829 0.462808 0.514202 0.516666 0.492858 0.519494 0.514903 0.504332 0.522658 0.520649 0.515965 0.524437 0.523095 0.523973 0.521281 0.522171 0.524572 0.522268 0.518335 0.316686
internal_weight=296.832 224.469 210.425 20.9473 189.478 35.4675 72.3633 29.2786 20.2332 10.7117 154.01 10.9497 147.583 139.014 14.7583 124.255 50.7019 17.8528 73.5535 32.8491 18.5669 65.2222 41.1804 36.1816 18.3289 10.9497 23.0896 11.1877 11.9019 52.1301
internal_count=1247 943 884 88 796 149 304 123 85 45 647 46 620 584 62 522 213 75 309 138 78 274 173 152 77 46 97 47 50 219
is_linear=0
shrinkage=1


Tree=1
num_leaves=31
num_cat=0
split_feature=10 16 16 1 0 15 5 1 3 23 17 21 21 21 24 4 26 17 26 1 17 26 21 15 23 1 24 1 26 0
split_gain=356.775 138.643 73.1377 60.2929 41.7676 35.3643 49.3577 25.1534 15.4095 9.19544 7.20847 7.13665 5.48556 4.67119 2.18386 1.69332 0.407057 1.23652 3.12454 0.460403 1.09037 0.415391 0.252995 0.141496 0.281288 0.0784629 0.000450272 5.07996e-05 4.09363e-05 7.78318e-05
threshold=2.5000000000000004 1.0000000180025095e-35 1.5000000000000002 6.5000000000000009 2.5000000000000004 1.0000000180025095e-35 1.0000000180025095e-35 9.5000000000000018 1.0000000180025095e-35 0.97140452079103179 1.5000000000000002 1.8750000000000002 1.7083333333333337 2.4166666666666674 7.5000000000000009 1.0000000180025095e-35 3.5000000000000004 1.0000000180025095e-35 1.5000000000000002 10.500000000000002 1.0000000180025095e-35 2.5000000000000004 2.1250000000000004 1.5000000000000002 0.76180168105713697 19.500000000000004 5.5000000000000009 11.500000000000002 5.5000000000000009 3.5000000000000004
decision_type=2 2 2 2 2 2 2 2 2 2 2 2 2 2 2 2 2 2 2 2 2 2 2 2 2 2 2 2 2 2
left_child=4 -2 5 -4 7 6 10 -1 12 13 -3 -9 -7 15 -15 -10 17 21 -19 20 -18 -17 25 27 -25 26 28 -23 29 -21
right_child=1 2 3 -5 -6 8 -8 11 9 -11 -12 -13 -14 14 -16 16 19 18 -20 22 -22 23 -24 24 -26 -27 -28 -29 -30 -31
leaf_value=-0.094096448608029515 -0.11862856740568127 0.011223253035006533 0.052364969588178746 -0.11862856740568127 -0.11862856740568127 0.040840905706364838 -0.12157207123409144 0.054739040645392804 0.047110572598730943 0.0010409275286791036 0.074055696634950416 -0.026415408955417458 -0.030975381328791379 0.025311038968827738 0.061267555896710374 0.064371878266719182 0.052721827162352977 0.079526435198782719 0.037354537263531801 0.079811522058101714 0.079526435198782733 0.079526435198782733 0.069396082027131739 0.065585443264596935 0.079526435198782733 0.074581628167075573 0.080009390984669429 0.079718981696801527 0.079526435198782719 0.079526435198782719
leaf_weight=9.4677708595991152 14.38627567887306 10.655087947845464 8.932110935449602 12.191759049892424 53.399904638528824 4.965554550290106 6.5326452851295462 5.8728870004415494 7.5110825300216666 5.5004344433546057 7.9860013723373404 5.0285252630710602 5.7242105305194855 8.9769230186939257 7.9739633202552787 9.6080724596977216 7.2685943245887739 8.4035051465034485 9.2013413161039352 4.9140783995389938 7.9366437494754791 5.1354753673076621 9.5935595184564573 7.0175002664327621 7.4697823524475098 9.8166138231754285 10.310839697718622 10.287984579801559 9.5706586390733719 4.6686139702796936
leaf_count=39 59 45 38 50 219 21 27 25 32 23 34 21 24 38 34 41 31 36 39 21 34 22 41 30 32 42 44 44 41 20
internal_value=-9.90652e-05 0.0314894 0.0418647 -0.0463249 -0.0953922 0.0518252 -0.00330478 -0.0344755 0.0603997 0.0645023 0.0381412 0.0173047 0.00238435 0.0668986 0.0422255 0.0701479 0.0715756 0.0685066 0.0574849 0.0743114 0.066713 0.0734165 0.0766753 0.0763219 0.0727736 0.0784531 0.079743 0.0796549 0.0795996 0.0796726
internal_weight=296.308 222.539 208.153 21.1239 73.7691 187.029 25.1737 20.3692 161.855 151.166 18.6411 10.9014 10.6898 145.665 16.9509 128.714 121.203 57.1237 17.6048 64.0796 15.2052 39.5188 48.8744 29.9107 14.4873 39.2808 29.4642 15.4235 19.1534 9.58269
internal_count=1247 943 884 88 304 796 106 85 690 645 79 46 45 622 72 550 518 244 75 274 65 169 209 128 62 168 126 66 82 41
is_linear=0
shrinkage=0.05


Tree=2
num_leaves=31
num_cat=0
split_feature=10 16 16 1 19 26 26 0 1 14 22 15 21 3 21 26 1 22 15 21 27 15 21 1 21 25 26 17 17 1
split_gain=319.901 124.801 66.906 53.6327 44.3582 36.9305 47.3642 36.4499 22.3139 11.5819 8.66162 16.6492 6.52124 4.01102 1.85394 1.06675 1.06055 1.85844 0.694855 0.344708 0.661258 0.324278 0.275815 0.125694 0.0933432 0.0904371 0.104583 0.12028 0.00356585 0.000695459
threshold=2.5000000000000004 1.0000000180025095e-35 1.5000000000000002 6.5000000000000009 1.0000000180025095e-35 2.5000000000000004 4.5000000000000009 2.5000000000000004 9.5000000000000018 3.5000000000000004 3.5000000000000004 1.5000000000000002 1.8750000000000002 1.0000000180025095e-35 2.4166666666666674 3.5000000000000004 15.500000000000002 2.5000000000000004 1.0000000180025095e-35 1.4166666666666667 2.5000000000000004 1.5000000000000002 1.5833333333333337 11.500000000000002 1.5833333333333337 7.5000000000000009 5.5000000000000009 1.5000000000000002 1.0000000180025095e-35 20.500000000000004
decision_type=2 2 2 2 2 2 2 2 2 2 2 2 2 2 2 2 2 2 2 2 2 2 2 2 2 2 2 2 2 2
left_child=7 -2 4 -4 10 -6 9 8 -1 22 13 -12 -10 -3 15 16 17 19 -17 -15 -21 -22 23 -7 29 26 27 -26 -23 -20
right_child=1 2 3 -5 5 6 -8 -9 12 -11 11 -13 -14 14 -16 18 -18 -19 24 20 21 28 -24 -25 25 -27 -28 -29 -30 -31
leaf_value=-0.088128192334674796 -0.11095160474539263 0.032288184991900511 0.050437549432621714 -0.11095160474539263 -0.11473002077935249 0.079777554256111938 -0.12019294345182197 -0.11095160474539263 0.052762191687050389 -0.0087490831296282642 -0.029651648015987186 0.073080863176186769 -0.024959538471073413 0.077684232036578205 0.037442894763413385 0.059605319823380187 0.047496263022039721 0.038786227595109635 0.077549658317780282 0.053483851516861594 0.064849971008468538 0.077758143370551605 0.061435130197716938 0.069840842316066729 0.068873936568900382 0.067299043506108019 0.077389984340201112 0.077528345832105577 0.079696194982676882 0.078167683478897465
leaf_weight=9.5998030006885546 14.606291994452475 8.2502059340476972 8.8128248155117053 12.378213554620741 5.8934996724128714 6.316279962658891 4.8545128256082526 54.216575369238853 5.7903900742530805 6.1189738363027564 7.1437372565269444 8.8044676184654236 5.0550352782011032 12.842792794108389 4.6900561451911917 8.06592909991741 8.2577722072601301 5.0716829150915137 16.948460519313816 6.1935808956623104 7.5912754237651834 4.8203758299350739 5.5752453356981269 6.4145489037036896 11.458383202552797 4.8165549784898749 17.146651431918144 6.180116578936576 4.6754735708236694 6.223438784480094
leaf_count=39 59 35 38 50 24 27 20 219 25 26 30 38 21 56 20 35 36 22 74 27 33 21 24 28 50 21 75 27 20 27
internal_value=-6.13377e-05 0.0302701 0.0403055 -0.0438339 0.0499771 -0.000533481 0.0224524 -0.0894981 -0.0326077 0.0508034 0.0618862 0.0270635 0.0165362 0.0660546 0.0682835 0.0694859 0.0638506 0.0671289 0.07342 0.0711081 0.0674804 0.0725537 0.0707094 0.0747708 0.0751951 0.0737202 0.0746093 0.0719062 0.0787124 0.0777156
internal_weight=294.813 220.151 205.545 21.191 184.354 35.1731 29.2796 74.6618 20.4452 24.425 149.181 15.9482 10.8454 133.233 124.983 120.292 49.453 41.1952 70.8395 36.1235 23.2807 17.0871 18.3061 12.7308 62.7736 39.6017 34.7852 17.6385 9.49585 23.1719
internal_count=1247 943 884 88 796 149 125 304 85 105 647 68 46 579 544 524 215 179 309 157 101 74 79 55 274 173 152 77 41 101
is_linear=0
shrinkage=0.05


Tree=3
num_leaves=31
num_cat=0
split_feature=10 16 16 1 19 24 0 22 25 26 22 15 21 3 24 21 17 26 21 27 15 1 21 1 25 17 26 1 1 21
split_gain=288.408 112.946 61.3479 48.0641 41.1994 37.35 32.2906 27.6642 24.4107 20.0042 8.18043 15.3449 4.66222 3.83004 2.35305 0.998958 2.63836 0.433859 0.739438 1.34598 0.621592 0.394373 0.377092 0.254312 0.113845 0.00265977 0.00160195 0.000408595 0.000270157 0.000176373
threshold=2.5000000000000004 1.0000000180025095e-35 1.5000000000000002 6.5000000000000009 1.0000000180025095e-35 3.5000000000000004 2.5000000000000004 2.5000000000000004 5.5000000000000009 5.5000000000000009 3.5000000000000004 1.5000000000000002 1.8750000000000002 1.0000000180025095e-35 7.5000000000000009 2.1250000000000004 1.0000000180025095e-35 3.5000000000000004 1.4166666666666667 2.5000000000000004 1.5000000000000002 10.500000000000002 1.5833333333333337 10.500000000000002 7.5000000000000009 1.0000000180025095e-35 7.5000000000000009 7.5000000000000009 17.500000000000004 1.8750000000000002
decision_type=2 2 2 2 2 2 2 2 2 2 2 2 2 2 2 2 2 2 2 2 2 2 2 2 2 2 2 2 2 2
left_child=6 -2 4 -4 10 -6 9 23 -9 12 13 -12 -1 -3 15 17 -17 18 27 -20 -21 22 -19 -7 26 -22 29 -15 -28 -23
right_child=1 2 3 -5 5 7 -8 8 -10 -11 11 -13 -14 14 -16 16 -18 21 19 20 25 24 -24 -25 -26 -27 28 -29 -30 -31
leaf_value=-0.047397992960122586 -0.10455060221796607 0.030924628371190463 0.048616384961753731 -0.10455060221796607 -0.10921195440612792 0.077529536195026616 -0.10455060221796607 -0.10433727343138879 0.031878789462307676 0.022753948933843672 -0.027991020702482352 0.070935010700256748 -0.11267093268891984 0.075231044349070103 0.04066427187620808 0.077606955043362985 0.034025331187126723 0.070637288685553176 0.04292550550775389 0.057904110865356052 0.075781895086099393 0.075306828476485635 0.053133965688925949 0.064490042737944106 0.068932547493040147 0.077421370348336793 0.076301587540329688 0.075827277042280483 0.075889799500940894 0.075583755944156145
leaf_weight=6.1488765180110949 14.722056508064268 8.1849700659513456 8.6889798641204852 12.476319074630736 6.4426338523626319 6.6409255713224438 54.646277546882629 5.9077675342559797 7.4197618663311005 9.3926745206117612 7.1879930347204182 8.621897429227829 4.9283488094806671 4.4580101966857901 8.3704148977994901 6.8663402795791608 7.0263112038373947 9.8657004088163358 7.4629434496164349 8.1314979642629623 5.3868917673826218 14.279463261365891 4.471947342157363 8.5578654259443265 7.3987051695585242 4.5747506618499756 6.7765098810195949 8.0840655565261823 9.661938935518263 9.6252448409795761
leaf_count=25 59 35 38 50 26 29 219 24 32 40 30 38 20 20 37 30 31 44 33 36 24 64 20 38 33 20 30 36 43 43
internal_value=-2.98079e-05 0.0291663 0.0388843 -0.041671 0.0482831 -0.000477995 -0.0844866 0.0240794 -0.0285025 -0.0309237 0.0599273 0.0259581 -0.0764385 0.0640386 0.0662522 0.0681299 0.0555652 0.0698723 0.065672 0.0607922 0.0681617 0.0724501 0.065178 0.0701875 0.074634 0.0765348 0.0756796 0.0756153 0.0760596 0.0754183
internal_weight=292.408 217.292 202.57 21.1653 181.405 34.969 75.1162 28.5263 13.3275 20.4699 146.436 15.8099 11.0772 130.626 122.441 114.07 13.8927 100.178 38.0982 25.5561 18.0931 62.0795 14.3376 15.1988 47.7419 9.96164 40.3432 12.5421 16.4384 23.9047
internal_count=1247 943 884 88 796 149 304 123 56 85 647 68 45 579 544 507 61 446 169 113 80 277 64 67 213 44 180 56 73 107
is_linear=0
shrinkage=0.05


Tree=4
num_leaves=31
num_cat=0
split_feature=10 16 16 1 19 23 0 24 26 25 23 3 1 21 17 24 17 25 15 26 23 23 1 18 24 21 23 21 21 1
split_gain=261.095 102.671 56.3636 43.3391 38.2686 34.8171 29.0577 18.958 18.8786 13.9743 12.0671 4.62839 4.34583 3.33897 2.32374 1.36989 0.713316 4.27213 0.640363 0.594286 0.391212 0.288682 0.153996 0.381376 0.00281962 0.00120683 0.00126016 0.000579607 0.000457449 0.00031392
threshold=2.5000000000000004 1.0000000180025095e-35 1.5000000000000002 6.5000000000000009 1.0000000180025095e-35 0.48570226039551589 2.5000000000000004 1.5000000000000002 2.5000000000000004 5.5000000000000009 0.97140452079103179 1.0000000180025095e-35 11.500000000000002 2.5833333333333335 1.0000000180025095e-35 7.5000000000000009 1.0000000180025095e-35 3.5000000000000004 1.0000000180025095e-35 2.5000000000000004 0.8228263892582881 0.45220861134162554 13.500000000000002 1.0000000180025095e-35 7.5000000000000009 1.5833333333333337 0.60355339059327384 1.8750000000000002 1.5833333333333337 19.500000000000004
decision_type=2 2 2 2 2 2 2 2 2 2 2 2 2 2 2 2 2 2 2 2 2 2 2 2 2 2 2 2 2 2
left_child=6 -2 4 -4 10 12 7 -1 -9 -7 11 -3 -6 16 -10 -15 19 18 -18 -13 25 -14 23 -21 29 -20 27 -27 -25 -24
right_child=1 2 3 -5 5 9 -8 8 14 -11 -12 13 21 15 -16 -17 17 -19 20 22 -22 -23 24 28 -26 26 -28 -29 -30 -31
leaf_value=-0.10935916700550559 -0.099135315219296208 0.025208803915107277 0.046889383589645506 -0.099135315219296208 0.018312583701197479 -0.099084499001769716 -0.099135315219296208 -0.080783834874980864 0.013241531670773575 -0.00034285420639946687 -0.0085376800905865666 0.058290084462232321 0.074814725667781731 0.023564316096282435 0.061204709779074301 0.05498214950013789 0.05537428995789774 0.030270836153732678 0.07345099590922588 0.058575305656883875 0.061616676145169469 0.057965694746845445 0.0736452347216731 0.07360433017944841 0.074968096622672883 0.074224240949750511 0.073718878654412345 0.074958346035776335 0.07425304617193676 0.073983669907321928
leaf_weight=5.4373304843902615 14.748878180980681 8.3601939678192121 8.5618206858634966 12.499049305915831 9.4634260684251803 8.7143995314836484 54.745835959911346 4.9208159595727912 4.7794711738824827 6.0853839814662924 6.4855522811412802 9.0840395241975767 4.4285542070865613 6.429888114333151 5.3542832881212234 7.5358655005693436 7.7440651506185523 8.7645298391580564 8.4761655032634753 6.377983585000039 8.2849184572696668 5.9682877957820892 11.988343119621279 5.0104313492774963 6.885954722762107 6.8143593370914477 8.9458373934030515 4.4411876946687698 5.938313215970993 15.991888359189032
leaf_count=22 59 36 38 50 41 35 219 20 20 26 27 41 20 28 23 34 35 39 39 29 38 27 55 23 31 31 41 20 27 73
internal_value=-5.02197e-06 0.0281594 0.0375806 -0.0397723 0.0467217 -0.000431953 -0.0801246 -0.029336 -0.00043359 -0.0584838 0.0581061 0.0612593 0.0428281 0.0636009 0.0385834 0.0405173 0.0664103 0.0621902 0.0684478 0.0700929 0.0711869 0.0651426 0.0721471 0.0682945 0.0740617 0.0739517 0.0741618 0.0745139 0.0739562 0.0738387
internal_weight=289.267 214.029 199.28 21.0609 178.22 34.6601 75.2377 20.4919 15.0546 14.7998 143.56 137.074 19.8603 128.714 10.1338 13.9658 114.748 53.4711 44.7065 61.277 36.9625 10.3968 52.1929 17.3267 34.8662 28.6775 20.2014 11.2555 10.9487 27.9802
internal_count=1247 943 884 88 796 149 304 85 63 61 647 620 88 584 43 62 522 243 204 279 169 47 238 79 159 131 92 51 50 128
is_linear=0
shrinkage=0.05


Tree=5
num_leaves=31
num_cat=0
split_feature=10 16 16 1 19 22 0 25 1 23 17 3 27 26 17 26 5 27 15 25 23 21 1 17 21 21 22 21 1 21
split_gain=233.727 86.1825 58.5767 36.8599 34.4128 27.556 21.3415 19.0165 17.1266 7.88846 6.54699 5.72032 3.03245 2.05437 5.80657 9.70361 7.02894 1.99318 1.72008 1.43723 0.739635 0.731263 0.243963 0.313518 0.0189027 0.00732357 0.001892 0.000450264 0.00034827 0.000125978
threshold=2.5000000000000004 1.0000000180025095e-35 1.5000000000000002 6.5000000000000009 1.0000000180025095e-35 2.5000000000000004 2.5000000000000004 5.5000000000000009 9.5000000000000018 0.97140452079103179 1.0000000180025095e-35 1.0000000180025095e-35 1.5000000000000002 3.5000000000000004 1.0000000180025095e-35 1.5000000000000002 1.0000000180025095e-35 2.5000000000000004 1.0000000180025095e-35 1.5000000000000002 0.84759080068664439 3.1250000000000004 10.500000000000002 1.0000000180025095e-35 2.5833333333333335 2.2916666666666674 2.5000000000000004 1.5833333333333337 19.500000000000004 1.5833333333333337
decision_type=2 2 2 2 2 2 2 2 2 2 2 2 2 2 2 2 2 2 2 2 2 2 2 2 2 2 2 2 2 2
left_child=6 -2 4 -4 9 12 8 -7 19 11 -10 -3 -6 14 17 -16 -17 -13 -15 -1 24 22 23 -20 26 28 27 -19 29 -24
right_child=1 2 3 -5 5 7 -8 -9 10 -11 -12 13 -14 18 15 16 -18 20 21 -21 -22 -23 25 -25 -26 -27 -28 -29 -30 -31
leaf_value=-0.062310329808799018 -0.094497934850607104 0.018185124974062133 0.039316787475630444 -0.094497934850607104 0.068585958152546769 -0.095738411335780135 -0.094497934850607104 0.010842195418126678 -0.032329671807683341 0.0029563784521463351 0.044941598719558301 0.036993519318399781 0.025244003198229455 0.041033574383610175 0.072451598609079779 -0.045533099307828402 0.041150170408909448 0.071985703132342219 0.056226819536243249 -0.099786997817172762 0.051273700045015858 0.054195706526645571 0.071733098893052724 0.072013597148401456 0.076176798803021806 0.074028043999678633 0.073286024130297445 0.07252815877968033 0.072271759674999811 0.072020042625215927
leaf_weight=4.9923160672187823 13.703386485576628 8.3077646493911725 8.4324282407760638 13.20508152246475 7.5706849992275265 8.9464752376079577 51.823716163635254 7.8639276623725882 5.2071288228034955 6.7480055540800086 5.7885378897190094 5.4449577480554572 8.6429480016231519 6.1018572598695746 7.268005684018136 4.9420194327831268 4.4393825978040695 8.0610473006963819 6.0249700099229795 5.2470438480377197 4.5497740656137458 7.6309467554092398 4.6459566652774837 6.579251691699028 4.2850992977619162 5.4568261206150046 6.0694429427385321 7.2803357392549506 14.923204421997069 21.64963972568512
leaf_count=20 55 36 38 53 34 36 208 34 22 28 25 25 39 28 34 22 20 38 28 21 21 35 22 31 19 25 28 34 70 102
internal_value=-0.000227808 0.0267078 0.0352224 -0.0423485 0.0449002 -0.00102452 -0.0771994 -0.0458799 -0.0349827 0.0557016 0.00834887 0.0583645 0.0454818 0.0610274 0.0534674 0.0290842 -0.00451362 0.064842 0.0664469 -0.0815148 0.0698553 0.0687645 0.0706399 0.0644673 0.0731454 0.0723067 0.0725388 0.0722431 0.0720788 0.0719693
internal_weight=281.832 208.773 195.07 21.6375 173.433 33.024 73.0587 16.8104 21.235 140.408 10.9957 133.66 16.2136 125.353 52.3401 16.6494 9.3814 35.6907 73.0127 10.2394 30.2457 66.9108 59.2798 12.6042 25.6959 46.6756 21.4108 15.3414 41.2188 26.2956
internal_count=1231 935 880 91 789 143 296 70 88 646 47 618 73 582 241 76 42 165 341 41 140 313 278 59 119 219 100 72 194 124
is_linear=0
shrinkage=0.05


Tree=6
num_leaves=31
num_cat=0
split_feature=10 16 16 1 19 24 22 0 25 24 3 23 3 17 21 21 24 1 18 24 15 1 0 22 27 23 25 15 21 1
split_gain=213.001 78.8291 53.8929 33.5353 32.0881 26.6011 21.9299 19.6243 17.1756 16.1009 10.0863 7.46555 5.47615 5.22443 1.97888 1.8812 0.766276 1.2063 1.36959 2.80974 0.852046 0.684141 0.457855 0.35748 0.796868 0.178963 0.00942506 0.00426385 0.000763533 0.000462194
threshold=2.5000000000000004 1.0000000180025095e-35 1.5000000000000002 6.5000000000000009 1.0000000180025095e-35 3.5000000000000004 2.5000000000000004 2.5000000000000004 5.5000000000000009 1.5000000000000002 1.0000000180025095e-35 0.97140452079103179 1.0000000180025095e-35 1.0000000180025095e-35 2.5833333333333335 3.2916666666666674 7.5000000000000009 14.500000000000002 1.0000000180025095e-35 4.5000000000000009 1.5000000000000002 10.500000000000002 3.5000000000000004 2.5000000000000004 2.5000000000000004 0.45220861134162554 2.5000000000000004 1.0000000180025095e-35 1.5833333333333337 19.500000000000004
decision_type=2 2 2 2 2 2 2 2 2 2 2 2 2 2 2 2 2 2 2 2 2 2 2 2 2 2 2 2 2 2
left_child=7 -2 4 -4 11 -6 21 9 -8 -1 -11 12 -3 -12 16 -16 17 18 20 22 23 -7 -20 25 -25 -14 28 -19 -27 -29
right_child=1 2 3 -5 5 6 8 -9 -10 10 13 -13 14 -15 15 -17 -18 27 19 -21 -22 -23 -24 24 -26 26 -28 29 -30 -31
leaf_value=-0.099162598006752076 -0.090485538511313052 0.017366538591841854 0.037872718913768338 -0.090485538511313052 -0.098922764248026207 0.073365040328046055 -0.089860895919714356 -0.090485538511313052 0.02628858221200784 -0.065186151854645477 -0.013759043805633604 0.002810141107958377 0.060267488257275348 0.058350089093124682 0.026304493613901428 0.063604234603099552 0.046476313964150751 0.072170116261261893 0.039524106928940879 0.07079084315603397 0.048195707137092085 0.051436931959284928 0.017445613497487775 0.05048420232296072 0.071094045722348995 0.070275728747381347 0.07275088288224435 0.070362256971336232 0.071075467176691512 0.070778449763217788
leaf_weight=6.4536626040935543 13.597975820302961 8.2654912173747999 8.3191765844821948 13.103503972291945 5.7204187661409369 7.1625312119722366 5.9509121477603912 51.425072193145752 6.8426530957221985 4.6699990034103402 4.8321686685085261 6.7442980855703345 4.2372451275587109 5.2311627864837646 8.1955459862947446 5.7534556686878195 7.6839222460985175 5.1076283752918235 4.7781001329422015 6.8449052274227133 8.1553053110837919 7.0660986453294754 4.6173219829797745 9.6018304377794266 9.1683620512485504 6.979322075843811 9.000176876783371 11.926750391721727 5.2142017930746078 15.13710145652294
leaf_count=26 55 36 38 53 23 33 24 208 30 19 20 28 20 23 37 27 36 24 23 33 38 33 22 46 44 34 42 58 25 73
internal_value=-0.000203678 0.0258428 0.0340997 -0.0406395 0.0435095 -0.000971592 0.019764 -0.0738011 -0.0277382 -0.0333048 -0.004457 0.0541086 0.0567563 0.023725 0.0594163 0.0416893 0.0616963 0.0628569 0.0591104 0.0464251 0.0630453 0.0624753 0.0286738 0.0657851 0.0605511 0.0696481 0.0715236 0.0708451 0.0706177 0.070595
internal_weight=277.786 205.174 191.576 21.4227 170.154 32.7426 27.0222 72.6121 12.7936 21.187 14.7333 137.411 130.667 10.0633 122.401 13.949 108.452 100.768 68.5968 16.2403 52.3564 14.2286 9.39542 44.2011 18.7702 25.4309 21.1937 32.1715 12.1935 27.0639
internal_count=1231 935 880 91 789 143 120 296 54 88 62 646 618 43 582 64 518 482 327 78 249 66 45 211 90 121 101 155 59 131
is_linear=0
shrinkage=0.05


Tree=7
num_leaves=31
num_cat=0
split_feature=10 16 16 15 1 5 0 24 3 1 1 27 17 19 26 17 5 5 27 25 23 18 24 22 23 1 17 26 23 25
split_gain=194.705 72.3093 49.6638 30.8299 30.6339 30.4604 18.17 14.6409 10.7099 9.02622 8.71869 4.68121 3.31853 2.98505 2.56713 11.0782 4.79312 2.22625 1.16752 0.987951 0.735054 0.535971 1.81542 0.185924 0.0956062 0.0536877 0.0733384 0.0118877 0.000781387 0.000735246
threshold=2.5000000000000004 1.0000000180025095e-35 1.5000000000000002 1.0000000180025095e-35 6.5000000000000009 1.0000000180025095e-35 2.5000000000000004 3.5000000000000004 1.0000000180025095e-35 9.5000000000000018 25.000000000000004 1.5000000000000002 1.0000000180025095e-35 1.0000000180025095e-35 3.5000000000000004 1.0000000180025095e-35 1.0000000180025095e-35 1.0000000180025095e-35 2.5000000000000004 1.5000000000000002 0.84759080068664439 1.0000000180025095e-35 5.5000000000000009 3.5000000000000004 0.48570226039551589 10.500000000000002 1.0000000180025095e-35 2.5000000000000004 0.60355339059327384 2.5000000000000004
decision_type=2 2 2 2 2 2 2 2 2 2 2 2 2 2 2 2 2 2 2 2 2 2 2 2 2 2 2 2 2 2
left_child=6 -2 3 5 -4 9 7 19 10 -3 -5 -10 -9 14 15 18 -17 -15 -13 -1 27 23 -23 25 -24 26 -16 -20 29 -27
right_child=1 2 4 8 -6 -7 -8 12 11 -11 -12 13 -14 17 21 16 -18 -19 20 -21 -22 22 24 -25 -26 28 -28 -29 -30 -31
leaf_value=-0.060235529917516489 -0.086983030993950494 0.066337892757403635 0.036487067938714222 -0.046420210975260126 -0.086983030993950494 -0.10004419909049195 -0.086983030993950494 -0.022594433014846042 0.020275561873975865 -0.0080087376347409717 0.047232658272568853 0.041035782840198196 0.032182562913370953 0.051793185634111533 0.061203468170751299 -0.035842993450619448 0.038029299790705885 0.01157829127276069 0.072210479721079177 -0.091790201267912208 0.048351469173834316 0.032233210268745698 0.069467006990687571 0.079142628061270162 0.061757987419891885 0.069395114056843898 0.069120036283101871 0.069834291397995768 0.069218657250135388 0.070263065295600613
leaf_weight=4.9724837392568606 13.442069366574286 7.4571953415870729 8.206268638372423 4.9267730265855771 12.953266844153402 6.8147918581962577 50.835462331771851 5.0347472131252271 9.2380319982767087 9.0211219340562803 5.0145178288221359 4.9997135847806922 6.1331495493650436 8.6067630201578122 5.5369335711002332 4.4820971190929395 4.3047270178794861 5.7343175560235968 7.649974048137671 4.9497703611850739 4.3860379457473746 4.7204907387495068 12.496668800711634 4.3234031945466986 5.9305164217948905 5.6383185386657733 6.2027557194232941 16.872759267687798 18.048229441046715 4.3013381361961365
leaf_count=20 55 35 38 21 53 28 208 21 44 41 22 24 27 40 27 20 20 25 36 20 21 22 62 19 29 28 31 83 90 21
internal_value=-0.000183835 0.0250452 0.0330609 0.0422198 -0.0390978 -0.0111335 -0.0707962 -0.0317796 0.0508853 0.0256365 0.000819528 0.0546143 0.00748782 0.0571677 0.0599675 0.0503802 0.000347563 0.0357132 0.0633453 -0.0759767 0.0672037 0.0660589 0.0598989 0.0692959 0.066986 0.0682243 0.0653862 0.0705756 0.0694147 0.0697707
internal_weight=273.235 201.309 187.867 166.707 21.1595 23.2931 71.9256 21.0902 143.414 16.4783 9.94129 133.473 11.1679 124.235 109.894 42.6953 8.78682 14.3411 33.9085 9.92225 28.9088 67.1987 23.1477 44.051 18.4272 39.7276 11.7397 24.5227 27.9879 9.93966
internal_count=1231 935 880 789 91 104 296 88 685 76 43 642 48 598 533 204 40 65 164 40 140 329 113 216 91 197 58 119 139 49
is_linear=0
shrinkage=0.05


Tree=8
num_leaves=31
num_cat=0
split_feature=10 16 16 15 1 5 0 16 26 12 21 1 27 17 19 26 17 0 5 27 21 23 1 17 21 4 21 23 21 22
split_gain=178.317 66.4495 45.7647 28.6501 28.0823 27.6654 16.9911 13.8421 12.0326 10.0966 9.19705 8.42426 4.48919 3.91179 2.92033 2.50745 10.4998 2.69913 2.087 1.13896 0.773765 0.723177 0.26287 0.321665 0.212842 0.186267 0.124547 0.0160376 0.0143974 0.00121148
threshold=2.5000000000000004 1.0000000180025095e-35 1.5000000000000002 1.0000000180025095e-35 6.5000000000000009 1.0000000180025095e-35 2.5000000000000004 1.0000000180025095e-35 2.5000000000000004 1.0000000180025095e-35 1.7083333333333337 9.5000000000000018 1.5000000000000002 1.0000000180025095e-35 1.0000000180025095e-35 3.5000000000000004 1.0000000180025095e-35 3.5000000000000004 1.0000000180025095e-35 2.5000000000000004 3.1250000000000004 0.84759080068664439 10.500000000000002 1.0000000180025095e-35 1.8750000000000002 1.0000000180025095e-35 2.4166666666666674 0.90441722268325109 2.5833333333333335 2.5000000000000004
decision_type=2 2 2 2 2 2 2 2 2 2 2 2 2 2 2 2 2 2 2 2 2 2 2 2 2 2 2 2 2 2
left_child=6 -2 3 5 -4 11 7 -1 -9 10 -5 -3 -11 -10 15 16 19 -18 -16 -14 22 28 23 -17 -13 -24 27 -27 29 -21
right_child=1 2 4 9 -6 -7 -8 8 13 12 -12 24 14 -15 18 20 17 -19 -20 21 -22 -23 25 -25 -26 26 -28 -29 -30 -31
leaf_value=-0.097702293178721589 -0.083902076572906548 0.064709843374521819 0.035155221473951184 0.053676447406241445 -0.083902076572906548 -0.095552287592625074 -0.083902076572906548 -0.063924001954529561 -0.005769888932490929 0.019410306851600403 -0.04307575811687743 -0.015056713484743073 0.039673379883467391 0.05765319723803021 0.050148444655054636 0.051182034815790027 -0.027918176920009714 0.027551150964376311 0.011032251300266079 0.068372785212970064 0.049090966609893927 0.046890561290366548 0.059414773483942085 0.067843156243211508 0.00029243205613820375 0.067951375760927454 0.077932992063159442 0.070516255951539292 0.071900765921619911 0.069240664296369367
leaf_weight=5.592419609427453 13.243829160928724 7.2673994749784532 8.0941970348358172 4.4938605427741987 12.762235373258589 6.7791932970285407 50.085753917694092 5.6513009220361718 4.5986387729644758 9.1691404879093152 5.4169866293668747 4.6436020284891111 4.9150172919034949 5.1582644134759903 8.4486452639102918 5.5939876884222013 4.3045579642057401 4.4709858149290085 5.7176661491394034 14.145424544811258 7.1290003508329383 4.2987925112247458 5.3179187923669806 6.0084496736526489 4.3973072022199631 29.736560076475143 3.8397967815399161 7.6657192558050147 4.0236376971006385 5.6180138736963263
leaf_count=23 55 35 38 20 53 28 208 23 19 44 23 21 24 23 40 28 19 21 25 72 35 21 27 31 20 153 17 38 19 28
internal_value=-0.000166258 0.0242754 0.0320508 0.0409533 -0.037697 -0.0106606 -0.0680734 -0.0303224 -0.00586681 0.049446 0.000794449 0.024628 0.0531436 0.0277605 0.0556949 0.0585176 0.0489518 0.000342474 0.0343608 0.061878 0.0646382 0.0657638 0.0665438 0.0598102 -0.00759121 0.0682218 0.0693574 0.0684771 0.0691745 0.0686195
internal_weight=268.588 197.502 184.258 163.402 20.8564 23.0875 71.0864 21.0006 15.4082 140.314 9.91085 16.3083 130.403 9.7569 121.234 107.068 41.7764 8.77554 14.1663 33.0009 65.2914 28.0859 58.1624 11.6024 9.04091 46.56 41.2421 37.4023 23.7871 19.7634
internal_count=1231 935 880 789 91 104 296 88 65 685 43 76 642 42 598 533 204 40 65 164 329 140 294 59 41 235 208 191 119 100
is_linear=0
shrinkage=0.05


Tree=9
num_leaves=31
num_cat=0
split_feature=10 16 16 19 1 24 22 0 25 24 26 23 3 21 21 26 15 25 24 24 25 1 21 24 15 21 21 21 26 1
split_gain=163.707 61.1882 42.2101 27.4434 25.8231 21.4023 18.7198 15.9418 14.4165 12.9225 9.20498 6.99991 4.75643 2.08542 3.04555 1.49702 1.59752 13.4358 1.83059 1.56602 0.990675 0.591518 0.107188 0.0322964 0.0296536 0.00511885 0.000857463 0.000734521 0.00030339 0.000130758
threshold=2.5000000000000004 1.0000000180025095e-35 1.5000000000000002 1.0000000180025095e-35 6.5000000000000009 3.5000000000000004 2.5000000000000004 2.5000000000000004 5.5000000000000009 1.5000000000000002 2.5000000000000004 0.97140452079103179 1.0000000180025095e-35 2.5833333333333335 2.8750000000000004 3.5000000000000004 1.5000000000000002 4.5000000000000009 3.5000000000000004 3.5000000000000004 4.5000000000000009 10.500000000000002 3.4166666666666674 2.5000000000000004 1.0000000180025095e-35 1.8750000000000002 1.5833333333333337 2.1250000000000004 5.5000000000000009 20.500000000000004
decision_type=2 2 2 2 2 2 2 2 2 2 2 2 2 2 2 2 2 2 2 2 2 2 2 2 2 2 2 2 2 2
left_child=7 -2 3 11 -4 -5 21 9 -8 -1 -11 12 -3 15 -15 16 17 18 26 23 -18 -7 -16 -17 -21 -22 -14 28 -26 -30
right_child=1 2 4 5 -6 6 8 -9 -10 10 -12 -13 13 14 22 19 20 -19 -20 24 25 -23 -24 -25 27 -27 -28 -29 29 -31
leaf_value=-0.088759192266610484 -0.081173682368477496 0.015839396603943349 0.033873202855133705 -0.090778536304827434 -0.081173682368477496 0.069045489592033979 -0.084042442443950871 -0.081173682368477496 0.023392969309652296 -0.058633713207101937 0.025403738886188323 -4.8192040060041292e-05 0.068114318169294183 0.00089703988907153089 0.047123870047005904 0.044589489988048764 0.045734596434137964 -0.036037794482416521 0.029948937783945917 0.070947021451057149 0.070029203580423152 0.04795336686475437 0.058031013448687267 0.049807023632661727 0.066596203874216789 0.068051170428451283 0.068876558823118619 0.067377748427701376 0.066816137480070523 0.067092451449720314
leaf_weight=6.3106216490268734 13.010389506816862 8.1620213985443097 7.9833790957927731 5.5958156734704998 12.537284433841704 6.5917258411645889 5.8539583534002304 49.202927589416504 6.6921114176511765 4.9292749911546698 9.6134816557168943 6.6289581060409537 7.217306345701223 4.1034976392984381 4.295057609677313 6.4869682937860471 6.898283556103709 4.4713053554296485 3.8897404968738547 4.9935887306928626 7.1384241282939893 6.7054398208856583 4.736500009894371 5.4643188267946243 14.032290622591971 6.0366454422473907 7.5482431799173355 5.9296707957983008 14.500919923186304 6.0754277706146231
leaf_count=26 55 36 38 23 53 33 24 208 30 20 42 28 37 19 21 34 36 20 20 24 35 33 24 28 75 31 38 31 77 32
internal_value=-0.000151127 0.0235514 0.0310971 0.0397533 -0.0364157 -0.00212269 0.0170739 -0.0656459 -0.0267361 -0.0290087 -0.0030808 0.0499901 0.0527094 0.0553534 0.0366153 0.0577979 0.050765 0.0418071 0.060465 0.0630833 0.0610854 0.0584092 0.052844 0.046975 0.0673114 0.0691229 0.068504 0.0668636 0.0667755 0.0668977
internal_weight=263.636 193.579 180.569 160.048 20.5207 31.4391 25.8432 70.0563 12.5461 20.8534 14.5428 128.609 121.98 113.818 13.1351 100.683 43.1999 23.1266 18.6553 57.4832 20.0734 13.2972 9.03156 11.9513 45.5319 13.1751 14.7655 40.5383 34.6086 20.5763
internal_count=1231 935 880 789 91 143 120 296 54 88 62 646 618 582 64 518 217 115 95 301 102 66 45 62 239 66 75 215 184 109
is_linear=0
shrinkage=0.05


Tree=10
num_leaves=31
num_cat=0
split_feature=24 16 12 25 16 1 19 23 21 15 24 15 23 26 23 25 27 26 21 26 0 25 23 21 15 1 25 26 16 17
split_gain=142.448 86.3995 61.6581 47.203 21.9442 18.9656 14.1936 17.3768 4.22804 13.3264 2.91513 2.65335 1.42799 5.76451 1.02492 0.825389 2.05692 1.52728 0.441695 0.312821 0.252285 0.248827 0.63728 0.163631 0.106409 0.102084 0.0790432 0.0343619 0.0453556 0.078752
threshold=1.5000000000000002 1.0000000180025095e-35 1.0000000180025095e-35 9.5000000000000018 1.5000000000000002 7.5000000000000009 1.0000000180025095e-35 0.48570226039551589 2.4166666666666674 1.5000000000000002 7.5000000000000009 1.0000000180025095e-35 0.8228263892582881 5.5000000000000009 0.48570226039551589 1.5000000000000002 2.5000000000000004 3.5000000000000004 1.8750000000000002 3.5000000000000004 2.5000000000000004 5.5000000000000009 0.48570226039551589 3.4166666666666674 1.0000000180025095e-35 10.500000000000002 4.5000000000000009 4.5000000000000009 1.0000000180025095e-35 1.0000000180025095e-35
decision_type=2 2 2 2 2 2 2 2 2 2 2 2 2 2 2 2 2 2 2 2 2 2 2 2 2 2 2 2 2 2
left_child=27 25 3 14 6 -6 8 11 10 -10 12 -8 15 -14 -3 20 17 -17 -19 -13 -4 26 -23 -11 -16 -2 -18 -1 -29 -30
right_child=1 2 4 -5 5 -7 7 -9 9 23 -12 19 13 -15 24 16 21 18 -20 -21 -22 22 -24 -25 -26 -27 -28 28 29 -31
leaf_value=-0.079633252910273108 -0.086314943036009964 -0.10909051966042543 0.079392199319530454 0.050986207868914959 0.036266062959824007 -0.080268826096647886 0.019837338600587787 -0.042447420324220934 -0.029728001406771162 0.06917906352246711 0.027372860476154476 0.067971448418378877 0.0010471639595941815 0.067563936950367831 -0.078809710494123386 0.023181669651347443 0.066138851804686857 0.048643077882453173 0.0676613215775103 0.04988318863978089 0.066760717671549105 0.065867449620382532 0.04366125611965499 0.056550080924820639 -0.088383088114370623 -0.078743179347997294 0.072281985466607843 -0.079332176030203996 -0.080500228751105449 -0.089351715073758387
leaf_weight=27.274807006120682 6.7750122547149685 5.1892917305231121 5.8042237907648095 8.9256253689527529 7.2525238245725614 6.7322852909564972 7.3395456671714827 9.3315526545047742 6.0517664849758157 5.8003587871789932 7.9405484199523917 5.2508198618888855 5.0112321972846976 9.3054860532283765 7.4160364270210248 5.5069631636142757 21.204547688364986 11.053479567170141 4.2179591059684745 4.3874804377555847 12.393693849444389 12.062490627169611 4.4128581732511512 4.5981945842504501 4.7692870497703552 12.979768037796019 6.9533813595771781 6.7497927397489574 5.3907092213630659 4.7070391923189163
leaf_count=117 29 22 26 39 35 29 36 40 27 29 40 27 25 49 32 28 115 59 22 21 66 66 24 24 20 56 33 29 23 20
internal_value=0.000893814 0.0181531 0.0285572 -0.042471 0.0400451 -0.0198338 0.0456793 0.012363 0.0528454 0.0292629 0.0565098 0.0424886 0.0588724 0.0442813 -0.0904816 0.0613709 0.0587506 0.0457556 0.0538959 0.0597374 0.0707895 0.0648002 0.0599196 0.0635946 -0.0825567 -0.08134 0.0676559 -0.0807299 -0.0825053 -0.0846263
internal_weight=252.789 208.666 188.912 26.3002 162.611 13.9848 148.627 26.3094 122.317 16.4503 105.867 16.9778 97.9263 14.3167 17.3746 83.6096 65.4117 20.7784 15.2714 9.6383 18.1979 44.6333 16.4753 10.3986 12.1853 19.7548 28.1579 44.1223 16.8475 10.0977
internal_count=1208 1019 934 113 821 64 757 124 633 80 553 84 513 74 74 439 347 109 81 48 92 238 90 53 52 85 148 189 72 43
is_linear=0
shrinkage=0.05


Tree=11
num_leaves=31
num_cat=0
split_feature=24 16 3 25 16 1 19 23 21 15 24 15 23 26 23 27 25 26 21 26 25 23 21 0 15 1 10 26 25 0
split_gain=131.487 79.7547 56.8964 43.2119 20.3283 17.4962 13.446 15.8613 4.06345 12.4055 2.83707 2.53955 1.39407 5.51103 0.803793 0.797383 2.01685 1.47153 0.432526 0.316522 0.260456 0.632138 0.158489 0.141911 0.0856613 0.0854012 0.0643205 0.0623904 0.0593229 0.0416285
threshold=1.5000000000000002 1.0000000180025095e-35 1.0000000180025095e-35 9.5000000000000018 1.5000000000000002 7.5000000000000009 1.0000000180025095e-35 0.48570226039551589 2.4166666666666674 1.5000000000000002 7.5000000000000009 1.0000000180025095e-35 0.8228263892582881 5.5000000000000009 0.48570226039551589 2.5000000000000004 1.5000000000000002 3.5000000000000004 1.8750000000000002 3.5000000000000004 5.5000000000000009 0.48570226039551589 3.4166666666666674 2.5000000000000004 1.0000000180025095e-35 10.500000000000002 2.5000000000000004 3.5000000000000004 4.5000000000000009 2.5000000000000004
decision_type=2 2 2 2 2 2 2 2 2 2 2 2 2 2 2 2 2 2 2 2 2 2 2 2 2 2 2 2 2 2
left_child=26 25 3 14 6 -6 8 11 10 -10 12 -8 15 -14 -3 16 23 -18 -19 -13 28 -22 -11 -4 -16 -2 29 -28 -17 -1
right_child=1 2 4 -5 5 -7 7 -9 9 22 -12 19 13 -15 24 20 17 18 -20 -21 21 -23 -24 -25 -26 -27 27 -29 -30 -31
leaf_value=-0.081608960312107431 -0.083561303423173847 -0.1036013520931032 0.077718381321043847 0.049029796567233191 0.034996939172044952 -0.077983225620661664 0.018992322782177787 -0.040184277558479115 -0.027993294503385037 0.067898830959477519 0.026319427610257629 0.06679056094185469 0.00099525300528421901 0.066428866823755123 -0.076628314116280294 0.06550400696478173 0.022266879018051067 0.047397456214323008 0.066510499640776002 0.04835961844260251 0.064856329795357645 0.042451420825752123 0.055284266277912886 0.066264324198801502 -0.085296415618492133 -0.076566666909995876 -0.077625883895435566 -0.085224176511848035 0.07074497659677903 -0.076519962815398024
leaf_weight=4.7025016397237769 6.6514655947685268 5.1908720433712032 4.5511825531721133 8.820390313863756 7.1425898373126966 6.5867950171232224 7.2842367440462157 9.3633723556995374 6.1040502637624749 5.6188406348228455 7.8478543609380713 5.0807850658893585 5.0090276151895514 8.9990342110395414 7.2499890029430372 26.914792373776436 5.4480750858783749 10.783680424094198 4.0798951536416999 4.3016254454851151 11.648513182997702 4.3142232894897452 4.4715341776609421 6.6633801013231277 4.6965980231761932 12.688655734062193 5.0302889645099622 5.8359586298465729 6.7542760968208304 27.62815859913826
leaf_count=20 29 22 21 39 35 29 36 40 27 29 40 27 25 49 32 150 28 59 22 21 66 24 24 36 20 56 22 25 33 122
internal_value=0.000876662 0.0176371 0.0277408 -0.0408923 0.038948 -0.0192063 0.0444453 0.0118885 0.0515543 0.0282718 0.0552144 0.0411431 0.0575973 0.043031 -0.0871739 0.0601114 0.053893 0.044496 0.0526438 0.0583404 0.0640614 0.058801 0.0623087 0.0709127 -0.080036 -0.0789723 -0.0783787 -0.0817067 0.0665554 -0.0772602
internal_weight=247.463 204.266 184.926 25.9578 158.968 13.7294 145.238 26.03 119.208 16.1944 103.014 16.6666 95.1661 14.0081 17.1375 81.158 31.5262 20.3117 14.8636 9.38241 49.6318 15.9627 10.0904 11.2146 11.9466 19.3401 43.1969 10.8662 33.6691 32.3307
internal_count=1208 1019 934 113 821 64 757 124 633 80 553 84 513 74 74 439 166 109 81 48 273 90 53 57 52 85 189 47 183 142
is_linear=0
shrinkage=0.05


Tree=12
num_leaves=31
num_cat=0
split_feature=24 16 12 25 16 1 19 22 25 21 15 24 23 26 15 27 25 26 23 21 25 23 23 0 1 15 10 26 25 0
split_gain=121.615 73.7457 52.5557 39.6745 18.8413 16.1717 12.7492 14.8586 11.9442 3.9074 11.563 2.76757 1.3639 5.2769 0.998279 0.814942 1.93655 1.4194 0.636766 0.425423 0.251922 0.629173 0.157301 0.117158 0.0719719 0.0694726 0.0528854 0.05119 0.0485504 0.0332726
threshold=1.5000000000000002 1.0000000180025095e-35 1.0000000180025095e-35 9.5000000000000018 1.5000000000000002 7.5000000000000009 1.0000000180025095e-35 2.5000000000000004 5.5000000000000009 2.4166666666666674 1.5000000000000002 7.5000000000000009 0.8228263892582881 5.5000000000000009 1.0000000180025095e-35 2.5000000000000004 1.5000000000000002 3.5000000000000004 0.48570226039551589 1.8750000000000002 5.5000000000000009 0.48570226039551589 0.48570226039551589 2.5000000000000004 10.500000000000002 1.0000000180025095e-35 2.5000000000000004 3.5000000000000004 4.5000000000000009 2.5000000000000004
decision_type=2 2 2 2 2 2 2 2 2 2 2 2 2 2 2 2 2 2 2 2 2 2 2 2 2 2 2 2 2 2
left_child=26 24 3 18 6 -6 9 14 -9 11 -11 12 15 -14 -8 16 23 -18 -3 -19 28 -22 -12 -4 -2 -20 29 -28 -17 -1
right_child=1 2 4 -5 5 -7 7 8 -10 10 22 -13 13 -15 -16 20 17 19 25 -21 21 -23 -24 -25 -26 -27 27 -29 -30 -31
leaf_value=-0.079164068367461607 -0.081101359052360905 -0.098855845388352404 0.075781842904412797 0.04717618191904642 0.033771360044526605 -0.075929187729153025 0.03315331469560933 -0.087857895238529105 0.012898636166007081 -0.026383100778651594 0.066412469152864501 0.025301662525739066 0.00094589626829144158 0.065384186767525596 0.060248773165897496 0.06452649628313599 0.021383198642756736 0.046193158880864574 -0.07466575204948793 0.065452224203241163 0.06392369707599746 0.041276307052714442 0.053530548640049504 0.065221892507231927 -0.074608470353036319 -0.082553270972370141 -0.075568625647768853 -0.082525318458821148 0.069342978190419305 -0.074566361781051305
leaf_weight=4.6077356487512615 6.5140235424041775 5.1685377359390285 4.4370027631521243 8.7114066928625125 7.0345010608434659 6.4306820780038834 6.524206295609476 5.0205944180488569 7.1023645401000977 6.1514926403760883 5.7524789571762085 7.7576995790004721 5.0069312155246726 8.6934237331151945 7.097412958741188 25.980090662837029 5.3910446017980602 10.518376827239988 7.073003798723219 3.9420628845691672 11.237945035099981 4.2176745384931555 4.0299921184778214 6.4371214509010315 12.378452539443968 4.6121503859758377 4.9118659049272519 5.7281855344772339 6.5514375269412986 26.951527625322342
leaf_count=20 29 22 21 39 35 29 33 21 32 27 31 40 25 49 38 150 28 59 32 22 66 24 22 36 56 20 22 25 33 122
internal_value=0.00085968 0.0171514 0.0269693 -0.0394612 0.0379039 -0.0186193 0.0432694 0.0114363 -0.0288286 0.050328 0.0273296 0.0539863 0.0563942 0.0418346 0.0472711 0.0589284 0.0525704 0.04328 -0.0842426 0.0514434 0.0629994 0.0577435 0.0611056 0.0695307 -0.0768472 -0.077779 -0.0762654 -0.0793138 0.0654965 -0.0752376
internal_weight=241.971 199.772 180.88 25.5651 155.315 13.4652 141.849 25.7446 12.123 116.105 15.934 100.171 92.4131 13.7004 13.6216 78.7128 30.7256 19.8515 16.8537 14.4604 47.9871 15.4556 9.78247 10.8741 18.8925 11.6852 42.1993 10.6401 32.5315 31.5593
internal_count=1208 1019 934 113 821 64 757 124 53 633 80 553 513 74 71 439 166 109 74 81 273 90 53 57 85 52 189 47 183 142
is_linear=0
shrinkage=0.05


Tree=13
num_leaves=31
num_cat=0
split_feature=24 16 3 25 16 1 19 22 25 21 15 24 23 26 15 27 25 26 23 1 25 23 23 1 27 15 10 26 25 20
split_gain=112.701 68.3102 48.6185 36.5212 17.4896 14.9734 12.0216 13.6889 10.976 3.7585 10.7908 2.70479 1.33665 5.05968 0.976015 0.833313 1.86849 1.37028 0.508787 0.420245 0.245297 0.62805 0.155683 0.0970854 0.0624647 0.0567086 0.0437504 0.0422765 0.0398692 0.0267668
threshold=1.5000000000000002 1.0000000180025095e-35 1.0000000180025095e-35 9.5000000000000018 1.5000000000000002 7.5000000000000009 1.0000000180025095e-35 2.5000000000000004 5.5000000000000009 2.4166666666666674 1.5000000000000002 7.5000000000000009 0.8228263892582881 5.5000000000000009 1.0000000180025095e-35 2.5000000000000004 1.5000000000000002 3.5000000000000004 0.48570226039551589 11.500000000000002 5.5000000000000009 0.48570226039551589 0.48570226039551589 4.5000000000000009 1.5000000000000002 1.0000000180025095e-35 2.5000000000000004 3.5000000000000004 4.5000000000000009 2.5000000000000004
decision_type=2 2 2 2 2 2 2 2 2 2 2 2 2 2 2 2 2 2 2 2 2 2 2 2 2 2 2 2 2 2
left_child=26 24 3 18 6 -6 9 14 -9 11 -11 12 15 -14 -8 16 23 -18 -3 -19 28 -22 -12 -4 -2 -20 29 -28 -17 -1
right_child=1 2 4 -5 5 -7 7 8 -10 10 22 -13 13 -15 -16 20 17 19 25 -21 21 -23 -24 -25 -26 -27 27 -29 -30 -31
leaf_value=-0.076973144748078925 -0.079977229110239134 -0.09471302936819459 0.064261117696533421 0.045414482933206123 0.032586449712550751 -0.074075031496455918 0.031957194430327684 -0.084805637312645912 0.012305690668532453 -0.02488507615154064 0.065359662192267479 0.024318125814577284 0.00089896890126224972 0.06442061589807814 0.059044314279959702 0.063623754063053581 0.020529565660477755 0.045024177779435764 -0.072892647734913413 0.064479230696166762 0.063061773106626126 0.04013285058874385 0.052345555105683256 0.074021961330283478 -0.073250843476491773 -0.080101169046789336 -0.073713061085360784 -0.080110166071735739 0.068060392870557165 -0.072801172477264905
leaf_weight=4.5045513063669231 4.600699350237849 5.1259056031703976 6.2123913615942019 8.5997410565614718 6.9285135716199857 6.2662293761968613 6.4323563128709811 4.943161875009535 7.0731257200241089 6.1945593804120991 5.5578171014785767 7.6701572090387335 5.0049377977848044 8.3899746239185315 6.8854796439409256 25.054731622338299 5.3358820378780392 10.257784724235533 6.8875000774860364 3.8054877370595923 10.832247674465178 4.1233747452497473 3.918020099401474 4.3183758407831192 13.818094089627264 4.5180475413799286 4.7869001775979978 5.6088472008705139 6.3463533371686927 26.242718249559402
leaf_count=20 21 22 36 39 35 29 33 21 32 27 31 40 25 49 38 150 28 59 32 22 66 24 22 21 64 20 22 25 33 122
internal_value=0.00084254 0.0167014 0.0262539 -0.0381552 0.0369347 -0.0180675 0.0421801 0.0110499 -0.0276432 0.049158 0.0264317 0.0528161 0.0552535 0.0406861 0.0459616 0.0578113 0.0513077 0.0421032 -0.0816286 0.0502887 0.0620103 0.0567401 0.0599787 0.0682638 -0.074931 -0.0757481 -0.0743604 -0.0771645 0.0645204 -0.0734124
internal_weight=236.244 195.101 176.682 25.1312 151.551 13.1947 138.356 25.3341 12.0163 113.022 15.6704 97.3517 89.6815 13.3949 13.3178 76.2866 29.9299 19.3992 16.5315 14.0633 46.3567 14.9556 9.47584 10.5308 18.4188 11.4055 41.143 10.3957 31.4011 30.7473
internal_count=1208 1019 934 113 821 64 757 124 53 633 80 553 513 74 71 439 166 109 74 81 273 90 53 57 85 52 189 47 183 142
is_linear=0
shrinkage=0.05


Tree=14
num_leaves=31
num_cat=0
split_feature=24 16 3 25 16 1 19 23 21 15 24 15 23 26 27 25 26 21 23 25 1 23 21 1 1 15 21 10 26 17
split_gain=104.614 63.3617 45.0113 33.6964 16.242 13.8857 11.3389 12.5535 3.61653 10.0808 2.64745 2.36286 1.31188 4.85732 0.852393 1.81062 1.32366 0.416986 0.409525 0.363912 0.248037 0.227723 0.156819 0.0807214 0.0540477 0.0465518 0.0458904 0.0363867 0.0351135 0.0231203
threshold=1.5000000000000002 1.0000000180025095e-35 1.0000000180025095e-35 9.5000000000000018 1.5000000000000002 7.5000000000000009 1.0000000180025095e-35 0.48570226039551589 2.4166666666666674 1.5000000000000002 7.5000000000000009 1.0000000180025095e-35 0.8228263892582881 5.5000000000000009 2.5000000000000004 1.5000000000000002 3.5000000000000004 1.8750000000000002 0.48570226039551589 5.5000000000000009 10.500000000000002 0.76180168105713697 3.4166666666666674 4.5000000000000009 10.500000000000002 1.0000000180025095e-35 2.1250000000000004 2.5000000000000004 3.5000000000000004 1.0000000180025095e-35
decision_type=2 2 2 2 2 2 2 2 2 2 2 2 2 2 2 2 2 2 2 2 2 2 2 2 2 2 2 2 2 2
left_child=27 24 3 18 6 -6 8 11 10 -10 12 -8 14 -14 15 23 -17 29 -3 -13 -16 -22 -11 -4 -2 -20 -9 -1 -29 -18
right_child=1 2 4 -5 5 -7 7 26 9 22 -12 19 13 -15 20 16 17 -19 25 -21 21 -23 -24 -25 -26 -27 -28 28 -30 -31
leaf_value=-0.071758703373628371 -0.076964153820937672 -0.091066050519771374 0.06337381049879337 0.043735446230404429 0.031439755754838046 -0.072394637698338912 0.016248396488386371 -0.032240260899412315 -0.023488570792361507 0.064765956215870321 0.023367528060839096 0.046600053594934063 0.00085435469866148922 0.063530076334400359 0.047783878633672144 0.019705016531196946 0.041126871516708401 0.063586362669193083 -0.071284651730718671 0.067359749928885201 0.06337315047149604 0.051107378576602261 0.051609323022327507 0.07241697047800788 -0.071195668196014666 -0.077897881935910837 -0.039313493558880891 -0.07203279226990543 -0.077937749861448274 0.045980091096017896
leaf_weight=29.904385298490524 6.2166622281074551 5.066102713346484 5.9900383651256579 8.4863169789314288 6.8248365074396116 6.0954236537218094 7.0446506589651117 4.5414820760488492 6.233669996261594 5.0941107720136642 7.5852780491113654 5.0927863717079163 5.003042370080947 8.0898099690675718 3.2496284395456305 5.2825884521007547 4.3193146139383298 3.6713393926620492 6.6955851316452009 3.6056037247180939 37.28506438434124 4.2114814519882193 4.0780514180660248 4.1964723765850067 11.708368003368376 4.41612309217453 4.6318643093109131 4.6569271683692914 5.4801824688911438 5.6824586242437363
leaf_count=142 29 22 36 39 35 29 36 20 27 29 40 29 25 49 20 28 25 22 32 19 227 26 24 21 56 20 20 22 25 34
internal_value=0.000825529 0.0162748 0.0255735 -0.0369564 0.0360076 -0.0175465 0.0411372 0.0106816 0.0480375 0.0255728 0.0516972 0.0377729 0.0541678 0.0395804 0.0567526 0.050098 0.0409618 0.0491744 -0.0792845 0.0552052 0.0610866 0.0621283 0.0589164 0.0670993 -0.0731963 -0.0739129 -0.0358117 -0.0726363 -0.075225 0.0438842
internal_weight=230.44 190.398 172.473 24.6641 147.809 12.9203 134.889 24.9164 109.972 15.4058 94.5665 15.743 86.9812 13.0929 73.8884 29.1422 18.9557 13.6731 16.1778 8.69839 44.7462 41.4965 9.17216 10.1865 17.925 11.1117 9.17335 40.0415 10.1371 10.0018
internal_count=1208 1019 934 113 821 64 757 124 633 80 553 84 513 74 439 166 109 81 74 48 273 253 53 57 85 52 40 189 47 59
is_linear=0
shrinkage=0.05


Tree=15
num_leaves=31
num_cat=0
split_feature=10 16 16 15 5 1 0 3 24 1 4 21 17 25 24 5 21 21 26 27 21 17 24 21 21 18 1 21 26 0
split_gain=97.2043 35.4446 27.8241 15.8171 15.8638 13.6819 11.5381 9.19539 8.71914 6.05127 5.49326 3.15384 2.46333 51.0096 2.94649 2.00251 1.86909 1.31604 0.970627 0.833194 0.627295 0.613174 0.493812 0.492865 0.315128 0.176429 0.161362 0.156509 0.0456145 0.0379998
threshold=2.5000000000000004 1.0000000180025095e-35 1.5000000000000002 1.0000000180025095e-35 1.0000000180025095e-35 6.5000000000000009 2.5000000000000004 1.0000000180025095e-35 3.5000000000000004 9.5000000000000018 1.0000000180025095e-35 1.8750000000000002 1.0000000180025095e-35 5.5000000000000009 3.5000000000000004 1.0000000180025095e-35 1.4166666666666667 2.8750000000000004 3.5000000000000004 2.5000000000000004 1.8750000000000002 1.0000000180025095e-35 4.5000000000000009 3.4166666666666674 2.4166666666666674 1.0000000180025095e-35 9.5000000000000018 1.8750000000000002 5.5000000000000009 3.5000000000000004
decision_type=2 2 2 2 2 2 2 2 2 2 2 2 2 2 2 2 2 2 2 2 2 2 2 2 2 2 2 2 2 2
left_child=6 -2 3 4 9 -4 8 11 -1 -3 -9 -5 14 15 16 22 18 19 -12 -16 -11 -10 26 -19 25 -21 -14 -27 -28 -24
right_child=1 2 5 7 -6 -7 -8 10 21 20 12 -13 13 -15 17 -17 -18 23 -20 24 -22 -23 29 -25 -26 27 28 -29 -30 -31
leaf_value=-0.058848419366251327 -0.069618759266257754 0.059697219537099749 0.021580353331992517 0.018413784769648282 -0.078554612048477412 -0.070168631536507639 -0.069810510704505238 -0.0053808562653782643 -0.00087970421936965019 -0.020834532564092928 0.064050088062169844 -0.03849716095052446 0.054620682428653589 -0.13583838024864675 0.041536635748064772 0.021865283667734704 0.015457545998451741 0.025929129577545854 0.031627482462290843 0.066632995403718434 0.0064621053817988557 0.024676738632720581 0.050493066135501224 0.051244630063176623 0.07584239427979339 0.061587194263461334 0.066996509608472227 0.04999421185256564 0.062001258555682816 0.043208099389197147
leaf_weight=8.4386832118034381 10.725902333855627 5.5910411924123791 6.5315343737602261 5.2925960719585401 5.8674915432929984 10.752868190407751 42.592986702919006 5.6153827309608451 4.9961031526327115 4.2769949138164503 4.9039027541875857 4.507764145731926 5.9909240752458599 3.9122134149074546 4.5273641496896735 4.2346410453319541 7.7030185312032691 3.6977186650037757 4.3611769378185272 13.285905689001085 4.1439667940139771 4.4265356361865997 3.6040862500667563 4.0050428956747055 5.0856138765811911 12.357068791985514 7.7106865644454965 3.8086068332195273 11.220569297671318 3.5564475953578949
leaf_count=38 53 30 34 25 27 53 210 33 22 22 29 20 37 17 27 24 44 21 25 74 22 23 22 24 24 81 44 24 72 19
internal_value=-0.00132726 0.0183114 0.0243361 0.0317624 -0.0095314 -0.035498 -0.0556652 0.0386387 -0.0219338 0.0193719 0.0427887 -0.00776292 0.0453904 0.0357031 0.051505 0.054182 0.0336572 0.0579806 0.0487884 0.0617051 -0.00740182 0.0111261 0.0584475 0.0390919 0.0643489 0.0623642 0.0617726 0.0588559 0.0640358 0.0468748
internal_weight=227.725 167.271 156.545 139.26 19.8795 17.2844 60.4543 119.381 17.8613 14.012 109.58 9.80036 103.965 40.2296 63.7354 36.3174 16.9681 46.7673 9.26508 39.0646 8.42096 9.42264 32.0827 7.70276 34.5372 29.4516 24.9222 16.1657 18.9313 7.16053
internal_count=1220 927 874 787 101 87 293 686 83 74 641 45 608 235 373 218 98 275 54 230 44 45 194 45 203 179 153 105 116 41
is_linear=0
shrinkage=0.05


Tree=16
num_leaves=31
num_cat=0
split_feature=10 16 16 19 26 26 1 0 1 23 22 3 21 22 26 17 1 27 1 17 23 23 25 21 6 1 15 23 22 1
split_gain=90.0407 32.93 25.7287 15.6699 16.0987 18.9494 12.7945 11.1455 7.98067 5.84917 5.3335 5.25601 4.59939 2.69931 1.50259 1.8469 4.81231 1.48896 0.869242 0.758274 0.594078 0.460452 0.172586 0.148952 0.133975 0.0973962 0.0138607 0.00389709 0.00292047 0.00274692
threshold=2.5000000000000004 1.0000000180025095e-35 1.5000000000000002 1.0000000180025095e-35 4.5000000000000009 2.5000000000000004 6.5000000000000009 2.5000000000000004 9.5000000000000018 0.97140452079103179 2.5000000000000004 1.0000000180025095e-35 2.5833333333333335 3.5000000000000004 3.5000000000000004 1.0000000180025095e-35 8.5000000000000018 2.5000000000000004 10.500000000000002 1.0000000180025095e-35 0.84759080068664439 0.48570226039551589 7.5000000000000009 1.5833333333333337 1.0000000180025095e-35 11.500000000000002 1.0000000180025095e-35 0.8228263892582881 2.5000000000000004 20.500000000000004
decision_type=2 2 2 2 2 2 2 2 2 2 2 2 2 2 2 2 2 2 2 2 2 2 2 2 2 2 2 2 2 2
left_child=7 -2 3 9 5 -5 -4 8 -1 11 25 -3 14 -14 15 17 -17 -13 23 -10 28 -15 24 -16 26 -7 -20 -8 -19 -28
right_child=1 2 6 4 -6 10 27 -9 19 -11 -12 12 13 21 18 16 -18 20 22 -21 -22 -23 -24 -25 -26 -27 29 -29 -30 -31
leaf_value=-0.056125395513840243 -0.068299452912520237 0.0034483441619307951 0.020722874147137593 -0.07470657739000959 -0.090563526342375147 0.064853038480942801 -0.068022336482013543 -0.068477654171830618 -0.0020023383080969141 -0.004828109911967856 0.0032706324470267931 0.026529215638301646 -0.0198987164912992 0.047383756299292312 0.047016488362221505 0.061890640294146898 0.00030551294722723553 0.061365655244643103 0.064208542810143557 0.026771214733101536 0.03983173570915105 0.022505693407908974 0.050076534581156011 0.034166900658247221 0.052542819949489776 0.055310916203450647 0.06092235689347604 -0.069993577400766768 0.063012494566886568 0.062154821108770179
leaf_weight=8.4601914286613482 10.394828721880911 8.0204776525497419 6.4634779989719418 4.7575363069772783 4.4215760380029669 4.9439520984888095 6.2271126508712751 41.284105241298676 5.0279885679483396 7.034177139401435 6.854848399758338 5.0936857908964184 3.6141508519649488 3.0912028551101685 6.3156101554632169 5.5842129141092283 7.3434590250253677 10.850679591298105 4.8226894736290005 4.2043070048093796 3.9233067929744712 4.6693459451198578 4.5697274208068839 3.5080548524856567 4.5833591669797888 5.824856773018837 16.591410636901859 4.1972250938415527 3.5804002881050101 6.2143924683332434
leaf_count=39 53 37 34 23 19 28 32 210 22 30 31 28 18 19 39 36 39 72 28 22 22 27 31 22 28 35 113 21 22 40
internal_value=-0.00128631 0.0178183 0.0236653 0.0308825 -0.00338117 0.0138424 -0.0345468 -0.0542484 -0.0210454 0.0392762 0.0377463 0.0423066 0.0456096 0.0157932 0.0496967 0.042081 0.0269077 0.0504465 0.0556409 0.0111009 0.057084 0.0324152 0.0591698 0.0424279 0.0604598 0.0596917 0.0617732 -0.068816 0.0617742 0.0612582
internal_weight=222.472 163.496 153.101 136.213 26.8028 22.3812 16.8878 58.9766 17.6925 109.41 17.6237 102.376 94.3557 11.3747 82.981 36.3757 12.9277 23.4481 46.6052 9.2323 18.3544 7.76055 36.7816 9.82367 32.2119 10.7688 27.6285 10.4243 14.4311 22.8058
internal_count=1220 927 874 787 136 117 87 293 83 651 94 621 584 64 520 219 75 144 301 44 116 46 240 61 209 63 181 53 94 153
is_linear=0
shrinkage=0.05


Tree=17
num_leaves=31
num_cat=0
split_feature=10 16 16 19 26 26 1 0 16 1 23 22 3 21 22 26 17 1 27 1 23 1 25 21 6 1 21 15 23 22
split_gain=83.5029 30.6347 23.8225 14.537 14.7747 17.5692 11.9838 10.7737 7.50497 5.72023 5.53425 5.10868 5.03373 4.44694 2.478 1.49397 1.79126 4.60042 1.47102 0.873065 0.602984 0.378773 0.171467 0.144942 0.1389 0.0957249 0.0803024 0.0114694 0.00326328 0.0024299
threshold=2.5000000000000004 1.0000000180025095e-35 1.5000000000000002 1.0000000180025095e-35 4.5000000000000009 2.5000000000000004 6.5000000000000009 2.5000000000000004 1.0000000180025095e-35 9.5000000000000018 0.97140452079103179 2.5000000000000004 1.0000000180025095e-35 2.5833333333333335 3.5000000000000004 3.5000000000000004 1.0000000180025095e-35 8.5000000000000018 2.5000000000000004 10.500000000000002 0.84759080068664439 10.500000000000002 7.5000000000000009 1.5833333333333337 1.0000000180025095e-35 11.500000000000002 3.4166666666666674 1.0000000180025095e-35 0.8228263892582881 2.5000000000000004
decision_type=2 2 2 2 2 2 2 2 2 2 2 2 2 2 2 2 2 2 2 2 2 2 2 2 2 2 2 2 2 2
left_child=7 -2 3 10 5 -5 -4 8 -1 -10 12 25 -3 15 -15 16 18 -18 -14 23 29 -11 24 -17 27 -7 -16 -21 -8 -20
right_child=1 2 6 4 -6 11 28 -9 9 21 -12 -13 13 14 26 19 17 -19 20 22 -22 -23 -24 -25 -26 -27 -28 -29 -30 -31
leaf_value=-0.078182048599127196 -0.067091399746780411 0.0032794831277457564 0.019894379376471334 -0.073136813530251338 -0.087377703693458569 0.063920349419443148 -0.066837781605584276 -0.06725738532510811 -0.043663532623297779 0.035211401413337812 -0.0045827955825689295 0.0031090789422985763 0.025565626385317987 -0.018773755809898263 0.037007812125256383 0.045975378772481312 0.061177230339037103 0.00029027871810310621 0.060689588083546957 0.06332513233388673 0.038683122522502514 0.01373299062779691 0.049179388198404637 0.033151388714923305 0.051519603219048693 0.054297818541976919 0.02669863661393676 0.060591222068080847 -0.06867070875679003 0.062220613544420857
leaf_weight=4.2336719185113916 10.061354354023932 8.0120023339986783 6.3977268338203457 4.6201498955488267 4.3553050607442847 4.7697028964757937 6.0257075577974302 39.964925035834312 5.0417702943086633 3.9219992309808713 7.0400208532810202 6.8505982458591452 5.0232142508029964 3.6385342329740507 3.461919903755188 6.1401827633380872 5.3722345829009992 7.3424014747142792 10.433539465069773 4.6498494297266069 3.8399549424648276 4.306561678647995 4.4241476058959952 3.4365821331739426 4.4442172944545737 5.6415303945541382 4.1573593616485596 21.926270991563797 4.0674667209386826 3.4480233192443839
leaf_count=20 53 37 34 23 19 28 32 210 23 21 30 31 28 18 20 39 36 39 72 28 22 19 31 22 28 35 26 153 21 22
internal_value=-0.00125101 0.01736 0.0230428 0.0300698 -0.00327613 0.0134631 -0.0336417 -0.0529301 -0.0202181 -0.00172569 0.0382625 0.0366417 0.0412864 0.0446057 0.0151721 0.048723 0.0410469 0.0260165 0.0494492 0.0547688 0.056219 0.0239703 0.058388 0.0413735 0.0597014 0.0587062 0.0313827 0.0610696 -0.0675764 0.0610699
internal_weight=217.049 159.58 149.519 133.028 26.2373 21.882 16.4909 57.4689 17.504 13.2703 106.79 17.2618 99.7504 91.7384 11.2578 80.4806 35.4594 12.7146 22.7447 45.0213 17.7215 8.22856 35.4445 9.57676 31.0203 10.4112 7.61928 26.5761 10.0932 13.8816
internal_count=1220 927 874 787 136 117 87 293 83 63 651 94 621 584 64 520 219 75 144 301 116 40 240 61 209 63 46 181 53 94
is_linear=0
shrinkage=0.05


Tree=18
num_leaves=31
num_cat=0
split_feature=10 16 16 15 24 1 20 3 24 21 4 1 17 25 24 21 5 21 26 27 17 24 21 21 1 18 21 19 25 1
split_gain=77.5407 28.5216 22.0626 13.8124 13.7962 11.2413 10.3936 7.73605 7.01646 6.26685 5.16645 5.15928 2.3238 44.9107 2.97008 1.91483 1.77372 1.30828 0.955608 0.899899 0.536435 0.508069 0.494551 0.313512 0.187023 0.169489 0.17283 0.0674656 0.0451576 0.0312229
threshold=2.5000000000000004 1.0000000180025095e-35 1.5000000000000002 1.0000000180025095e-35 3.5000000000000004 6.5000000000000009 2.5000000000000004 1.0000000180025095e-35 3.5000000000000004 1.7083333333333337 1.0000000180025095e-35 25.000000000000004 1.0000000180025095e-35 5.5000000000000009 3.5000000000000004 1.4166666666666667 1.0000000180025095e-35 2.8750000000000004 3.5000000000000004 2.5000000000000004 1.0000000180025095e-35 4.5000000000000009 3.4166666666666674 2.4166666666666674 9.5000000000000018 1.0000000180025095e-35 1.8750000000000002 1.0000000180025095e-35 2.5000000000000004 14.500000000000002
decision_type=2 2 2 2 2 2 2 2 2 2 2 2 2 2 2 2 2 2 2 2 2 2 2 2 2 2 2 2 2 2
left_child=6 -2 3 4 -3 -4 8 11 -1 -6 -9 -5 14 16 15 18 21 19 -12 -16 -10 24 -19 25 -14 27 -27 -21 -26 -23
right_child=1 2 5 7 9 -7 -8 10 20 -11 12 -13 13 -15 17 -17 -18 22 -20 23 -22 29 -24 -25 28 26 -28 -29 -30 -31
leaf_value=-0.05361884347815548 -0.065982391062893817 -0.088420251690043639 0.019093970304539562 -0.039039207841172222 0.042389189032820768 -0.066438542540710369 -0.06613731340821899 -0.0080580798493141044 -0.00089199639608710229 -0.024568251032812658 0.062253946086114946 0.034515611174619314 0.051694906785889727 -0.12492683448065252 0.037694622822505262 0.011455705921911285 0.021433905756022158 0.022929845863508703 0.028861446585023695 0.061957337921048232 0.023289114169573452 0.047542385766255087 0.048992460758687219 0.074022113151660837 0.060226031239488879 0.059712462304011497 0.046877416856081509 0.069773676314254809 0.06542260294691267 0.04067281375945668
leaf_weight=8.0421510338783282 9.7274051308631879 4.3614659309387234 6.334270745515826 5.4333157241344434 8.0264318138360959 9.7611542195081693 38.643175080418587 5.2985300570726386 4.9681440591812116 6.1892263442277899 4.4923235625028592 4.2478591799736023 5.3788022398948732 4.0224193930625907 4.1478004157543173 7.2674675881862631 4.1760237365961066 3.5353901535272589 4.0959911048412323 7.9907407611608541 4.260270431637764 3.2843124717473975 3.7517725080251694 4.9491583406925193 10.113226771354677 11.018249094486235 3.4421682059764871 4.2178975045681 7.1265279650688163 3.3323231786489487
leaf_count=38 53 21 34 24 47 53 210 33 22 33 29 21 37 17 27 44 24 21 25 52 23 22 24 24 72 81 24 22 44 19
internal_value=-0.00121821 0.0169171 0.0224405 0.0292824 -0.0106295 -0.0327777 -0.0517258 0.0359428 -0.0194796 0.0132372 0.0400107 -0.00676518 0.0426543 0.032913 0.0488445 0.0303445 0.0519155 0.0556577 0.0463282 0.059592 0.0102711 0.0562696 0.0363481 0.0624645 0.0598346 0.0603197 0.0566572 0.0646578 0.0623742 0.0440827
internal_weight=211.636 155.722 145.995 129.899 18.5771 16.0954 55.9137 111.322 17.2706 14.2157 101.641 9.68117 96.3426 37.4336 58.909 15.8558 33.4112 43.0532 8.58831 35.766 9.22841 29.2352 7.28716 31.6182 22.6186 26.6691 14.4604 12.2086 17.2398 6.61664
internal_count=1220 927 874 787 101 87 293 686 83 80 641 45 608 235 373 98 218 275 54 230 45 194 45 203 153 179 105 74 116 41
is_linear=0
shrinkage=0.05


Tree=19
num_leaves=31
num_cat=0
split_feature=24 16 3 25 16 17 19 26 21 15 18 21 23 24 25 26 27 26 15 23 1 23 25 0 23 5 1 23 0 23
split_gain=70.5846 43.97 32.1309 27.631 15.3071 11.2934 10.8696 15.6949 5.31273 4.97981 8.44472 4.9523 4.45743 2.30271 1.12634 1.8961 1.50579 4.18079 0.761079 0.629991 0.464644 0.287333 0.203164 0.141199 0.12498 0.130683 0.0625505 0.0354403 0.0289556 0.013052
threshold=1.5000000000000002 1.0000000180025095e-35 1.0000000180025095e-35 9.5000000000000018 1.5000000000000002 1.0000000180025095e-35 1.0000000180025095e-35 4.5000000000000009 2.1250000000000004 1.5000000000000002 1.0000000180025095e-35 1.7083333333333337 0.76180168105713697 7.5000000000000009 1.5000000000000002 2.5000000000000004 2.5000000000000004 5.5000000000000009 1.0000000180025095e-35 0.48570226039551589 11.500000000000002 0.60355339059327384 7.5000000000000009 2.5000000000000004 0.45220861134162554 1.0000000180025095e-35 10.500000000000002 0.8228263892582881 2.5000000000000004 1.0448623679425844
decision_type=2 2 2 2 2 2 2 2 2 2 2 2 2 2 2 2 2 2 2 2 2 2 2 2 2 2 2 2 2 2
left_child=28 26 3 21 6 -6 8 11 13 10 12 18 -10 14 23 -16 17 -17 -8 -11 -19 -3 24 -4 25 -18 -2 -26 -1 -30
right_child=1 2 4 -5 5 -7 7 -9 9 19 -12 -13 -14 -15 15 16 22 20 -20 -21 -22 -23 -24 -25 27 -27 -28 -29 29 -31
leaf_value=-0.070240983204996138 -0.071716377498275308 -0.079512483675758278 0.070704434327947943 0.041216891000361244 -0.082628852037326797 0.015113487347589841 0.033934464526914031 -0.085110527267218933 -0.0014938014461306731 0.061514827171125545 -0.049731272106504923 -0.0063849066349745721 0.070487224863662309 0.019937501261324129 0.020530583377820866 -0.0011138186639608385 0.061046060434958575 0.041704470050754013 0.061267911183464689 0.034204484039323517 0.060561169577875884 -0.065863569031472988 0.047468148936086987 0.060137562352949175 0.060321739351504193 0.046886384212735173 -0.065051771696522126 0.065789306748891122 -0.065376006537784054 -0.0678385639639245
leaf_weight=4.5400806665420523 5.2542031258344641 8.1064028441905958 5.0677238404750797 8.0490518510341644 4.8805796056985837 7.4915838688611984 5.6796386241912895 4.0854391157627097 4.6465267986059171 5.1265794634819031 5.0137258172035226 7.9273764938116065 4.0041459798812866 6.4658969193696967 5.6448802053928366 4.6691962033510235 2.9990422725677552 5.2072169929742804 4.6169228851795197 3.5906173139810562 8.7669653892517072 7.353961482644082 4.1369551718235007 8.4041501581668854 17.06516154110432 3.5682388246059418 10.670597225427626 3.5867315977811804 22.865308448672298 7.0366836637258521
leaf_count=23 28 39 27 38 27 41 33 18 27 34 25 38 22 38 33 29 21 36 31 23 62 41 31 60 123 25 60 21 128 38
internal_value=-0.00118297 0.0118945 0.0199657 -0.0339082 0.0295141 -0.023444 0.0349618 0.0034638 0.0421348 0.0207374 0.00189991 0.0233204 0.0318241 0.0484711 0.0511404 0.0479998 0.051101 0.039848 0.0461906 0.0502657 0.0535346 -0.0730202 0.0577917 0.0641125 0.0593607 0.0533526 -0.0672507 0.0612713 -0.0665204 -0.0659555
internal_weight=206.522 172.08 156.155 23.5094 132.645 12.3722 120.273 22.3094 97.9638 22.3816 13.6644 18.2239 8.65067 75.5822 69.1163 55.6444 49.9995 18.6434 10.2966 8.7172 13.9742 15.4604 31.3561 13.4719 27.2192 6.56728 15.9248 20.6519 34.4421 29.902
internal_count=1220 1031 943 118 825 68 757 120 637 131 74 102 49 506 468 381 348 127 64 57 98 80 221 87 190 46 88 144 189 166
is_linear=0
shrinkage=0.05


Tree=20
num_leaves=31
num_cat=0
split_feature=24 3 25 18 16 16 19 25 17 14 21 27 23 21 26 17 25 24 1 2 17 25 23 27 22 10 0 24 10 26
split_gain=72.5277 41.8039 29.4684 28.2316 28.2456 15.0193 13.858 18.6896 11.6599 5.70533 1.83926 3.78375 3.59319 1.63615 1.09067 1.05981 0.534913 1.15502 0.738682 0.285403 0.213896 0.153646 0.244546 0.19083 0.410161 0.150687 0.115554 0.0393889 0.0331675 0.041543
threshold=1.5000000000000002 1.0000000180025095e-35 9.5000000000000018 1.5000000000000002 1.0000000180025095e-35 1.5000000000000002 1.0000000180025095e-35 1.5000000000000002 1.0000000180025095e-35 3.5000000000000004 2.1250000000000004 3.5000000000000004 0.48570226039551589 1.5833333333333337 3.5000000000000004 1.0000000180025095e-35 1.5000000000000002 2.5000000000000004 9.5000000000000018 1.5000000000000002 1.0000000180025095e-35 7.5000000000000009 0.90441722268325109 2.5000000000000004 2.5000000000000004 2.5000000000000004 2.5000000000000004 7.5000000000000009 2.5000000000000004 3.5000000000000004
decision_type=2 2 2 2 2 2 2 2 2 2 2 2 2 2 2 2 2 2 2 2 2 2 2 2 2 2 2 2 2 2
left_child=28 2 19 4 -3 6 10 -8 -7 14 16 12 15 -10 20 -12 26 -18 -19 25 -9 23 -23 24 -20 -2 -6 -13 -1 -30
right_child=1 3 -4 -5 5 8 7 9 13 -11 11 27 -14 -15 -16 -17 17 18 21 -21 -22 22 -24 -25 -26 -27 -28 -29 29 -31
leaf_value=-0.064834767871888938 -0.070042607906390081 -0.065964264811778181 0.04446940659733431 -0.12046904625082933 0.068845944531421024 -0.083325238319104919 -0.091743395604814093 0.048652849524206468 0.038906120458324644 -0.012954543184440892 0.061086901182696079 0.068075148216448431 -0.014995793140818751 -0.0060844642132201849 0.024081465342590768 0.021006493530261055 0.028005484362289047 0.03689414965000614 0.041570319871998412 -0.064204573680385055 0.064377374222754649 0.045352374619409302 0.062501983528333707 0.060312771367309739 0.060117721419894236 -0.081872310724753317 0.059570137481923635 0.060809351824165109 -0.06463670114685309 -0.071898869830647028
leaf_weight=24.7131687104702 5.3851616680622154 7.1111919730901709 7.6604160070419303 3.1508480012416831 5.6132938265800449 4.2138581275939915 3.9631073176860836 4.0505310595035571 4.5725449025630951 5.7256730496883383 3.5060164928436297 2.9893707856535903 4.6830954849720001 3.6210933476686478 3.5270557254552832 3.1144142299890518 4.478274777531623 5.3866790384054175 4.9352400898933393 9.9325121492147428 4.6400931477546692 6.5723027884960157 3.0402892827987671 25.686312802135944 7.5267626941204071 5.3826805353164673 8.3550296425819397 4.9605617225170135 3.652687892317771 4.2729203402996063
leaf_count=142 28 41 37 15 31 24 18 28 25 26 24 18 25 20 19 20 31 31 32 58 29 48 19 188 55 26 62 34 21 22
internal_value=0.00232307 0.0158861 -0.0393128 0.027446 0.0309694 0.0364768 0.0422224 0.00652598 -0.0157367 0.0282305 0.0508301 0.0371112 0.0185224 0.019023 0.0475314 0.0422321 0.0545194 0.0523916 0.0544464 -0.0703174 0.0570485 0.056426 0.0507765 0.0578496 0.0527725 -0.0759561 0.0632977 0.0635415 -0.0657374 -0.0685519
internal_weight=196.423 163.784 28.3608 135.424 132.273 125.162 112.754 21.9065 12.4075 17.9434 90.8476 19.2535 11.3035 8.19364 12.2177 6.62043 71.5942 57.6259 53.1476 20.7004 8.69062 47.7609 9.61259 38.1483 12.462 10.7678 13.9683 7.94993 32.6388 7.92561
internal_count=1197 1012 149 863 848 807 738 120 69 102 618 121 69 45 76 44 497 404 373 112 57 342 67 275 87 54 93 52 185 43
is_linear=0
shrinkage=0.05


Tree=21
num_leaves=31
num_cat=0
split_feature=24 2 16 26 1 27 19 25 16 1 14 21 18 24 26 23 21 1 1 18 21 26 21 25 23 17 27 1 1 10
split_gain=67.8331 39.1161 27.2222 19.1651 15.2154 11.9852 9.78528 16.1935 8.66358 11.6278 6.12773 2.8709 2.64167 3.37437 1.08114 0.996783 1.17474 0.724892 0.563568 1.28921 1.31909 2.43507 0.22594 0.215929 0.240364 0.209305 0.120914 0.178358 0.0691409 0.0279538
threshold=1.5000000000000002 1.5000000000000002 1.0000000180025095e-35 1.5000000000000002 17.500000000000004 1.5000000000000002 1.0000000180025095e-35 1.5000000000000002 1.5000000000000002 7.5000000000000009 3.5000000000000004 2.1250000000000004 1.0000000180025095e-35 7.5000000000000009 3.5000000000000004 0.76180168105713697 2.4166666666666674 15.500000000000002 10.500000000000002 1.0000000180025095e-35 1.5833333333333337 5.5000000000000009 1.8750000000000002 7.5000000000000009 0.90441722268325109 1.0000000180025095e-35 2.5000000000000004 15.500000000000002 9.5000000000000018 2.5000000000000004
decision_type=2 2 2 2 2 2 2 2 2 2 2 2 2 2 2 2 2 2 2 2 2 2 2 2 2 2 2 2 2 2
left_child=29 2 -2 4 5 -4 8 -8 11 -10 14 18 15 -14 25 16 -13 -3 19 20 28 -22 -7 26 -25 -9 27 -20 -5 -1
right_child=1 17 3 6 -6 22 7 10 9 -11 -12 12 13 -15 -16 -17 -18 -19 23 -21 21 -23 -24 24 -26 -27 -28 -29 -30 -31
leaf_value=-0.063915252221461119 -0.0649101829408434 -0.063596821885687299 0.010915527855866136 0.069397559304226211 0.042939975341700139 -0.090317020725358077 -0.088251850724758829 0.047742392819431462 0.042348291366965066 -0.065448880845929855 -0.015254243002779012 0.059048476199734246 -0.030514298379172595 0.037757379295962179 0.02307832052821087 0.066765908615511974 0.020940851053622193 -0.09125427709680406 0.045571302999658614 0.01961992987160769 0.0033949337244549363 0.061632889112375938 -0.074189490169846314 0.044436877742622012 0.061744504584233299 0.063567265601206374 0.060068567777000328 0.06101269204603961 0.060731838657453754 -0.067386232610870012
leaf_weight=23.837463989853863 8.3752659857273084 8.8244240731000883 5.8448066264390972 3.3725683689117485 7.5397097468376151 3.9934019446372968 3.7839139550924328 3.9246003180742282 6.3821884542703611 4.1143199354410172 6.0857331454753867 3.355018153786661 3.2246834486722937 4.125200018286705 3.4971273094415656 3.8531848341226569 5.0913264751434326 3.2386123836040488 3.9528824985027304 3.6434418708086005 3.2210840582847586 4.0538247376680374 4.760575994849205 6.3773063197731954 2.92658831179142 4.4686110615730286 26.441649757325649 3.5491556078195572 7.24982750415802 7.6661301702260962
leaf_count=142 50 53 42 19 37 19 18 28 35 24 28 26 17 28 19 23 30 19 33 27 18 27 24 48 19 29 198 24 50 43
internal_value=0.00227779 0.0155378 0.022631 0.027912 -0.0147392 -0.0445282 0.0360035 0.00576123 0.0429354 9.49974e-05 0.0255507 0.0482609 0.0315198 0.0078039 0.0464356 0.0456917 0.0360778 -0.0710221 0.0533382 0.0467306 0.0522496 0.0358471 -0.0815466 0.0566293 0.0498811 0.0561677 0.058479 0.0528765 0.0634832 -0.0647599
internal_weight=190.775 159.271 147.208 138.833 22.1385 14.5988 116.694 21.76 94.9343 10.4965 17.9761 84.4377 19.6494 7.34988 11.8903 12.2995 8.44634 12.063 64.7883 21.5407 17.8973 7.27491 8.75398 43.2476 9.30389 8.39321 33.9437 7.50204 10.6224 31.5036
internal_count=1197 1012 940 890 122 85 768 122 646 59 104 587 124 45 76 79 56 72 463 141 114 45 43 322 67 57 255 57 69 185
is_linear=0
shrinkage=0.05


Tree=22
num_leaves=31
num_cat=0
split_feature=24 2 16 26 1 27 19 25 16 1 14 21 15 18 1 26 1 24 1 25 15 15 1 17 5 10 0 14 0 1
split_gain=63.4873 36.5299 25.3967 17.8854 13.9789 11.1785 9.25649 14.9252 8.1126 10.8383 5.71794 2.84029 5.55065 5.57273 2.94399 1.07146 0.660257 0.606874 0.834758 0.206847 0.496585 0.363815 0.85507 0.205655 0.191366 0.023813 0.0410136 0.0250434 0.0176774 0.0132031
threshold=1.5000000000000002 1.5000000000000002 1.0000000180025095e-35 1.5000000000000002 17.500000000000004 1.5000000000000002 1.0000000180025095e-35 1.5000000000000002 1.5000000000000002 7.5000000000000009 3.5000000000000004 2.1250000000000004 1.5000000000000002 1.0000000180025095e-35 12.500000000000002 3.5000000000000004 15.500000000000002 2.5000000000000004 9.5000000000000018 7.5000000000000009 1.5000000000000002 1.5000000000000002 13.500000000000002 1.0000000180025095e-35 1.0000000180025095e-35 2.5000000000000004 3.5000000000000004 2.5000000000000004 2.5000000000000004 11.500000000000002
decision_type=2 2 2 2 2 2 2 2 2 2 2 2 2 2 2 2 2 2 2 2 2 2 2 2 2 2 2 2 2 2
left_child=25 2 29 4 5 -4 8 -8 11 -10 15 17 13 14 -13 23 -3 -5 -19 21 -21 28 -23 -9 -7 27 -27 -1 -20 -2
right_child=1 16 3 6 -6 24 7 10 9 -11 -12 12 -14 -15 -16 -17 -18 18 19 20 -22 22 -24 -25 -26 26 -28 -29 -30 -31
leaf_value=-0.067017410824693036 -0.06646318591777034 -0.062764286719899198 0.010429573784922213 0.036168637895554703 0.041469149112210946 -0.086589633046894973 -0.085638332274593429 0.046851463767335594 0.041162027721080928 -0.064521294064065968 -0.014463178251426973 -0.0023295692753539632 0.06009631131032931 -0.043238360078100474 0.063401199200409639 0.022112313647209964 -0.089606593802667528 0.034846323480973412 0.062802935716964353 0.037252663140619591 0.060737419031406475 0.027531885566621658 0.059176506186252587 0.062812984034755534 -0.071601864980833985 -0.062934572042451717 -0.070408528051649252 -0.062375037865420625 0.059368000598137675 -0.062351444074921769
leaf_weight=3.4117267131805482 3.3074993044137937 8.5025573372840864 5.8121370524168041 5.2018542289733878 7.4198609888553611 4.4794168323278409 3.7063842266798046 3.8023887425661105 6.2414294481277448 3.9684921950101852 6.0973550379276267 3.1788185760378838 8.7152953594923019 3.7031272649765015 3.6704261302947998 3.4681633561849585 3.1358685344457617 5.173185020685195 4.2967214733362189 4.4964040890336019 4.507325291633606 3.1750440746545774 6.515164315700531 4.3004195392131805 4.0601886808872223 4.0465547442436209 3.3594142943620682 19.561270743608475 29.201546758413315 4.7652787715196609
leaf_count=19 20 53 42 35 37 21 18 28 35 24 28 17 63 19 25 19 19 31 27 36 31 25 51 29 22 25 18 123 227 30
internal_value=0.00223137 0.0151929 0.0221135 0.0272578 -0.0142513 -0.0430589 0.0352257 0.00558431 0.0421091 8.40007e-05 0.0247206 0.0473522 0.0305664 0.00617747 0.0328947 0.0453686 -0.0699967 0.0525214 0.0540043 0.0559032 0.0490093 0.0573404 0.048808 0.0553228 -0.0794636 -0.0638593 -0.0663248 -0.0630645 0.0598086 -0.0640361
internal_weight=185.281 154.902 143.264 135.191 21.7716 14.3517 113.42 21.3747 92.0448 10.2099 17.6683 81.8349 19.2677 10.5524 6.84924 11.571 11.6384 62.5672 57.3654 52.1922 9.00373 43.1885 9.69021 8.10281 8.53961 30.379 7.40597 22.973 33.4983 8.07278
internal_count=1197 1012 940 890 122 85 768 122 646 59 104 587 124 61 42 76 72 463 428 397 67 330 76 57 43 185 43 142 254 50
is_linear=0
shrinkage=0.05


Tree=23
num_leaves=31
num_cat=0
split_feature=24 2 16 4 3 1 16 19 25 1 14 21 15 18 1 1 1 25 25 1 15 1 25 0 21 10 0 14 18 1
split_gain=59.4653 34.1405 23.7116 15.8347 11.1979 19.3161 9.77245 11.2341 14.6767 6.80811 4.54841 3.72015 6.01654 6.05075 2.81563 0.82679 0.600914 0.464806 1.11716 1.42952 0.243523 2.1002 0.826558 0.0683563 0.0404457 0.0201414 0.0345369 0.0210677 0.0186655 0.0116777
threshold=1.5000000000000002 1.5000000000000002 1.0000000180025095e-35 1.5000000000000002 1.0000000180025095e-35 17.500000000000004 1.5000000000000002 1.0000000180025095e-35 1.5000000000000002 7.5000000000000009 3.5000000000000004 2.1250000000000004 1.5000000000000002 1.0000000180025095e-35 12.500000000000002 9.5000000000000018 15.500000000000002 1.5000000000000002 2.5000000000000004 11.500000000000002 1.5000000000000002 13.500000000000002 7.5000000000000009 2.5000000000000004 1.5833333333333337 2.5000000000000004 3.5000000000000004 2.5000000000000004 1.0000000180025095e-35 11.500000000000002
decision_type=2 2 2 2 2 2 2 2 2 2 2 2 2 2 2 2 2 2 2 2 2 2 2 2 2 2 2 2 2 2
left_child=25 2 29 4 5 -4 7 11 -9 -8 15 17 13 14 -13 -10 -3 23 19 -19 22 -22 28 -6 -17 27 -27 -1 -20 -2
right_child=1 16 3 -5 6 -7 9 8 10 -11 -12 12 -14 -15 -16 24 -18 18 20 -21 21 -23 -24 -25 -26 26 -28 -29 -30 -31
leaf_value=-0.065959979230454865 -0.065544340848949612 -0.061992515950948505 -0.074370314295150175 -0.090319157187080931 0.065924552041583206 0.04421881386606813 0.01945372348327035 -0.083567112752504918 0.062109440331266669 -0.063456374807247959 -0.0099955815436673992 -0.0022112184482642834 0.059509658879956344 -0.045816656812439432 0.06263365888694207 0.037889170700977512 -0.088041924644180578 0.014127802266046785 0.060666000006337345 0.057132996071970421 0.013509817309740824 0.059247827941988268 0.036341591767934563 0.058450340921629873 0.030350823831053687 -0.06214967936356202 -0.069128133971201988 -0.061626726867296359 0.057635428644248476 -0.061604851291937636
leaf_weight=3.2960340082645478 3.1891725659370413 8.1860079616308195 6.6834574043750745 2.8317726999521247 5.0933578759431821 7.0619800090789795 6.6401479393243772 3.7425349205732372 4.1358445286750811 3.9482440948486328 5.8579662293195716 3.1814428046345711 8.3698945045471191 3.9928565919399261 3.533114418387413 3.4525535255670547 3.0345952510833731 4.3205097168683997 18.655365720391281 3.495931014418602 3.2901430130004874 10.582699373364447 4.3816190361976615 7.6590922698378563 3.6715598106384277 3.8965756446123114 3.253249004483223 18.827444985508919 6.9824547022581092 4.5864089131355286
leaf_count=19 20 53 34 15 31 36 38 18 29 25 27 17 63 20 25 25 19 32 134 32 26 82 36 62 22 25 18 123 61 30
internal_value=0.00218786 0.0148657 0.0216222 0.0266365 0.0292092 -0.0134429 0.0343077 0.0389498 0.00612727 -0.0114621 0.0257374 0.047146 0.0277506 0.00292486 0.0319093 0.0443274 -0.0690375 0.052886 0.0507775 0.033362 0.0538789 0.0484004 0.0564107 0.0614356 0.0340041 -0.0630179 -0.065325 -0.0622723 0.0598406 -0.0632206
internal_weight=179.834 150.561 139.34 131.565 128.733 13.7454 114.987 104.399 20.8605 10.5884 17.1179 83.5385 19.0773 10.7074 6.71456 11.26 11.2206 64.4612 51.7087 7.81644 43.8923 13.8728 30.0194 12.7525 7.12411 29.2733 7.14982 22.1235 25.6378 7.77558
internal_count=1197 1012 940 890 875 70 805 742 121 63 103 621 125 62 42 76 72 496 403 64 339 108 231 93 47 185 43 142 195 50
is_linear=0
shrinkage=0.05


Tree=24
num_leaves=31
num_cat=0
split_feature=24 2 16 26 1 27 19 25 16 1 14 21 15 18 1 26 1 18 21 26 5 25 15 17 21 27 1 1 26 3
split_gain=55.7485 31.9354 22.1604 15.7855 12.08 9.40988 8.3449 12.7334 6.97612 9.57606 4.97707 2.70415 5.12116 4.53997 2.69471 1.08166 0.640546 1.30531 1.35555 2.48814 0.453288 0.234384 0.489028 0.19689 0.144656 0.131391 0.177737 0.0487407 0.0172077 0.0327959
threshold=1.5000000000000002 1.5000000000000002 1.0000000180025095e-35 1.5000000000000002 17.500000000000004 1.5000000000000002 1.0000000180025095e-35 1.5000000000000002 1.5000000000000002 7.5000000000000009 3.5000000000000004 2.1250000000000004 1.5000000000000002 1.0000000180025095e-35 12.500000000000002 3.5000000000000004 10.500000000000002 1.0000000180025095e-35 1.5833333333333337 5.5000000000000009 1.0000000180025095e-35 7.5000000000000009 1.5000000000000002 1.0000000180025095e-35 1.8750000000000002 2.5000000000000004 15.500000000000002 9.5000000000000018 5.5000000000000009 2.5000000000000004
decision_type=2 2 2 2 2 2 2 2 2 2 2 2 2 2 2 2 2 2 2 2 2 2 2 2 2 2 2 2 2 2
left_child=28 2 -2 4 5 -4 8 -8 11 -10 15 16 13 14 -13 23 17 18 27 -20 -3 25 -23 -9 -7 26 -18 -5 -1 -30
right_child=1 20 3 6 -6 24 7 10 9 -11 -12 12 -14 -15 -16 -17 21 -19 19 -21 -22 22 -24 -25 -26 -27 -28 -29 29 -31
leaf_value=-0.061402578473784331 -0.062462450057796604 -0.061082424770139844 0.0086108971069366515 0.066679804329503142 0.038803093548122641 -0.082998200253380616 -0.081081068276752377 0.04530186177156964 0.039462616238499539 -0.062851302376784782 -0.013036768828597623 -0.0020989707695705019 0.058962247351217661 -0.037617007208761502 0.061916829775710253 0.019840423084713288 0.042829954533718281 0.015176158947358033 -0.00098750146268481668 0.059948344065460339 -0.082995928967242866 0.035441442753149373 0.059523804187996611 0.061452138222615076 -0.069587803448324631 0.058512091355668497 0.05918912808987175 0.059061662292886168 -0.067008457660619608 -0.060912028804584864
leaf_weight=19.351264804601673 7.4838518649339667 7.33045546710491 5.5752156376838711 3.1047340035438591 7.1652570068836203 3.7617316246032697 3.540031090378764 3.5927165821194667 6.0386376380920392 3.681038573384285 6.1146956235170355 3.1839301586151123 8.03372972458601 3.8116732239723206 3.3987221047282219 3.4017773121595383 3.5149722546339062 3.3486622273921958 3.0674685239791861 3.690886378288269 3.4802844226360321 4.2710986062884313 4.1624071896076202 3.9751479476690292 4.3205436021089554 23.514423035085201 3.1467000544071198 6.4852831065654755 4.5702116638421995 4.2644390910863876
leaf_count=129 50 50 42 19 37 19 18 28 35 24 28 17 63 19 25 19 33 27 18 27 22 36 31 29 24 198 24 50 27 29
internal_value=0.00214807 0.0145613 0.0211649 0.0260581 -0.013775 -0.0413595 0.0338041 0.00522612 0.0406217 0.00071426 0.0231098 0.0456766 0.0289807 0.00580811 0.0309533 0.0432585 0.0509534 0.0436161 0.0494415 0.0322909 -0.068137 0.0546965 0.0473274 0.0537851 -0.0758294 0.056756 0.0505574 0.061528 -0.0622373 -0.0640657
internal_weight=174.382 146.196 135.385 127.901 20.8227 13.6575 107.079 20.6244 86.4544 9.71968 17.0843 76.7347 18.4281 10.3943 6.58265 10.9696 58.3066 19.697 16.3484 6.75835 10.8107 38.6096 8.43351 7.56786 8.08228 30.1761 6.66167 9.59002 28.1859 8.83465
internal_count=1197 1012 940 890 122 85 768 122 646 59 104 587 124 61 42 76 463 141 114 45 72 322 67 57 43 255 57 69 185 56
is_linear=0
shrinkage=0.05


Tree=25
num_leaves=31
num_cat=0
split_feature=10 18 19 24 16 25 15 21 26 25 22 19 26 17 25 27 21 0 15 17 26 27 17 22 15 24 18 27 21 19
split_gain=50.0559 20.3975 19.1239 15.1549 11.7538 12.413 12.9039 11.8962 9.29 15.2966 5.38852 5.10743 5.00781 3.77983 34.6607 2.99834 5.35569 1.3998 2.00813 0.743576 0.699364 1.01344 0.964286 0.784113 0.999389 0.656505 0.28673 0.545482 1.54676 0.343742
threshold=2.5000000000000004 1.5000000000000002 1.5000000000000002 1.5000000000000002 1.0000000180025095e-35 1.5000000000000002 1.0000000180025095e-35 1.7083333333333337 1.5000000000000002 9.5000000000000018 2.5000000000000004 1.0000000180025095e-35 5.5000000000000009 1.0000000180025095e-35 5.5000000000000009 2.5000000000000004 1.5833333333333337 3.5000000000000004 1.5000000000000002 1.0000000180025095e-35 2.5000000000000004 2.5000000000000004 1.5000000000000002 2.5000000000000004 1.0000000180025095e-35 4.5000000000000009 1.0000000180025095e-35 3.5000000000000004 1.8750000000000002 1.0000000180025095e-35
decision_type=2 2 2 2 2 2 2 2 2 2 2 2 2 2 2 2 2 2 2 2 2 2 2 2 2 2 2 2 2 2
left_child=10 2 3 -2 -5 6 -6 19 9 -7 11 12 -1 15 17 16 -10 20 25 -8 -15 22 23 24 -22 -19 29 28 -28 -17
right_child=1 -3 -4 4 5 8 7 -9 13 -11 -12 -13 -14 14 -16 26 -18 18 -20 -21 21 -23 -24 -25 -26 -27 27 -29 -30 -31
leaf_value=-0.028895264892998165 -0.063508897697419381 -0.097793864449055412 -0.08621262555280812 -0.060151708075430355 -0.10587093207605924 -0.073932317237595455 0.027462910662370357 -0.070864906748888692 0.048174891160345748 0.047343894591471536 -0.060482634393228964 -0.068012097187750545 0.046009858391279759 0.063485000941448003 -0.12442836949391839 0.054281912844902441 -0.021448846424887709 -0.0078820895566695161 0.059399183176838261 0.058224553202366115 0.023518390372097353 0.061036533406824613 0.059151365891965381 0.015373964349151515 0.058047638678482394 0.024691615771123526 0.054324271160467445 0.063075439245785556 0.015995018654254827 0.069163241545094581
leaf_weight=6.3849398717284185 5.0445152074098578 3.9249398261308661 4.2674063295125952 3.9270062297582617 3.1172105073928806 5.0057073682546598 3.9986387193202972 3.2735539451241493 9.1577605903148633 5.4102502018213272 28.172786071896553 4.3102919906377783 3.4300150275230408 5.1845923662185696 3.4383591562509528 10.469081997871401 3.9549899101257315 3.1046444401144964 2.796956941485405 3.8616490364074707 4.3367485553026253 5.9243235662579528 3.8531161397695533 5.1196036487817755 4.0549596026539803 3.0827671214938164 12.024331055581571 6.6444440335035315 3.3697260767221442 6.1660447865724555
leaf_count=37 33 20 27 28 19 27 33 19 71 30 192 27 24 31 15 84 25 22 21 32 32 46 30 43 34 21 112 49 27 33
internal_value=-0.000403866 0.0145145 0.01789 0.0214068 0.0249389 0.0277864 -0.0159529 0.00922206 0.0338323 -0.0109391 -0.0478461 -0.0226426 -0.0027183 0.0388639 0.0275014 0.047837 0.0271754 0.0414475 0.0242404 0.0425757 0.046877 0.0431796 0.0370873 0.0307951 0.0402033 0.00834718 0.0548425 0.0511021 0.0459341 0.0597979
internal_weight=176.811 134.513 130.588 126.321 121.276 117.349 14.2511 11.1338 103.098 10.416 42.298 14.1252 9.81495 92.6824 40.8961 51.7864 13.1128 37.4577 8.98437 7.86029 28.4733 23.2888 17.3644 13.5113 8.39171 6.18741 38.6736 22.0385 15.3941 16.6351
internal_count=1244 964 944 917 884 856 103 84 753 57 280 88 61 696 295 401 96 280 64 65 216 185 139 109 66 43 305 188 139 117
is_linear=0
shrinkage=0.05


Tree=26
num_leaves=31
num_cat=0
split_feature=10 18 19 24 16 25 15 21 3 1 22 19 4 17 25 27 21 21 1 23 17 23 1 21 27 18 1 22 1 21
split_gain=46.6885 18.7757 17.8394 14.1573 10.9798 11.5445 11.9796 10.9252 7.58817 13.5284 5.21343 4.82604 4.55708 3.90075 31.0074 2.91497 5.02371 1.21466 0.843574 0.826179 0.951833 2.02662 0.748664 0.605917 0.837618 0.26711 0.533016 2.85811 0.392035 0.23126
threshold=2.5000000000000004 1.5000000000000002 1.5000000000000002 1.5000000000000002 1.0000000180025095e-35 1.5000000000000002 1.0000000180025095e-35 1.7083333333333337 1.0000000180025095e-35 19.500000000000004 2.5000000000000004 1.0000000180025095e-35 1.0000000180025095e-35 1.0000000180025095e-35 5.5000000000000009 2.5000000000000004 1.5833333333333337 2.1250000000000004 8.5000000000000018 0.45220861134162554 1.5000000000000002 0.8228263892582881 8.5000000000000018 1.5833333333333337 2.5000000000000004 1.0000000180025095e-35 20.500000000000004 2.5000000000000004 15.500000000000002 1.2916666666666667
decision_type=2 2 2 2 2 2 2 2 2 2 2 2 2 2 2 2 2 2 2 2 2 2 2 2 2 2 2 2 2 2
left_child=10 2 3 -2 -5 6 -6 22 9 -7 11 12 -1 15 17 16 29 18 -15 -20 21 23 -8 -21 -25 28 27 -27 -17 -10
right_child=1 -3 -4 4 5 8 7 -9 13 -11 -12 -13 -14 14 -16 25 -18 -19 19 20 -22 -23 -24 24 -26 26 -28 -29 -30 -31
leaf_value=0.02735498520636765 -0.062731831828821541 -0.094351754898661072 -0.08473900788642362 -0.05955912671076781 -0.10333322474576066 -0.07110166947726064 0.057760351227393938 -0.06782383007697565 0.058243148109727451 0.046148657100756996 -0.059698389946767766 -0.067023267466208333 -0.04191415472672088 0.062643216006938715 -0.11640834069206736 0.044666617271480344 -0.020152847827448681 0.018327121725283436 0.015901701339670556 0.058354617121979716 0.059120689451004398 0.0046432911335162683 0.026454965138521826 0.021907468941548405 0.057520038097551775 0.054008159426319313 0.062384928787773887 -0.0088380316132179101 0.063142318899490832 0.041367144498863792
leaf_weight=5.4875967577099791 4.8564182370901099 3.8662036433815947 4.1280810907483092 3.7717052996158591 3.0361502990126583 4.6092735379934293 3.702086329460144 3.2499275058507919 3.152220740914343 5.2762873321771622 27.141902290284634 4.1590269207954398 4.1852120906114569 4.8314242064952877 3.4900061637163153 3.7425469905138042 3.9977259188890448 5.69636346399784 3.1532554104924229 5.731442175805574 6.6642667949199668 3.7881058156490317 3.944838210940361 4.0786639824509621 2.7741565257310867 12.794806435704233 6.3885716572403899 2.1070095747709265 12.332076542079447 5.7022643536329269
leaf_count=36 33 20 27 28 19 26 32 19 26 30 192 27 25 30 15 31 25 37 23 47 54 30 33 34 26 124 49 15 86 45
internal_value=-0.000389088 0.0141941 0.0174985 0.0209334 0.0243763 0.0271474 -0.0155001 0.00897248 0.0330711 -0.00852086 -0.0469663 -0.0219825 -0.00261625 0.037618 0.0260123 0.0469104 0.0263703 0.0395493 0.0434463 0.039905 0.0431905 0.0367062 0.0416108 0.0463578 0.0363241 0.0539755 0.0503022 0.0451222 0.0588407 0.047375
internal_weight=171.84 130.866 127 122.872 118.015 114.243 13.933 10.8969 100.31 9.88556 40.9737 13.8318 9.67281 90.4249 40.2077 50.2172 12.8522 36.7177 31.0213 26.1899 23.0366 16.3724 7.64692 12.5843 6.85282 37.365 21.2904 14.9018 16.0746 8.85449
internal_count=1244 964 944 917 884 856 103 84 753 56 280 88 61 697 296 401 96 281 244 214 191 137 65 107 60 305 188 139 117 71
is_linear=0
shrinkage=0.05


Tree=27
num_leaves=31
num_cat=0
split_feature=10 18 19 24 16 25 15 21 26 1 22 19 26 17 25 27 21 14 17 1 1 27 17 15 22 27 14 18 26 21
split_gain=43.5362 17.3112 16.648 13.2328 10.2621 10.7429 11.1239 10.0342 8.08821 13.2979 5.06695 4.56886 4.40212 3.43956 28.52 2.84384 4.71465 1.40542 1.45754 0.753427 0.65522 1.02487 0.949469 0.803862 0.975076 0.253718 0.58828 0.378055 1.04585 0.233713
threshold=2.5000000000000004 1.5000000000000002 1.5000000000000002 1.5000000000000002 1.0000000180025095e-35 1.5000000000000002 1.0000000180025095e-35 1.7083333333333337 1.5000000000000002 19.500000000000004 2.5000000000000004 1.0000000180025095e-35 5.5000000000000009 1.0000000180025095e-35 5.5000000000000009 2.5000000000000004 1.5833333333333337 3.5000000000000004 1.5000000000000002 8.5000000000000018 8.5000000000000018 2.5000000000000004 1.5000000000000002 1.0000000180025095e-35 2.5000000000000004 3.5000000000000004 3.5000000000000004 1.0000000180025095e-35 3.5000000000000004 1.2916666666666667
decision_type=2 2 2 2 2 2 2 2 2 2 2 2 2 2 2 2 2 2 2 2 2 2 2 2 2 2 2 2 2 2
left_child=10 2 3 -2 -5 6 -6 19 9 -7 11 12 -1 15 17 16 29 20 -19 -8 -15 22 23 -22 -25 26 -17 -28 -29 -10
right_child=1 -3 -4 4 5 8 7 -9 13 -11 -12 -13 -14 14 -16 25 -18 18 -20 -21 21 -23 -24 24 -26 -27 27 28 -30 -31
leaf_value=-0.027150589416810807 -0.06200712279986656 -0.091216008833905876 -0.083325288950516996 -0.059006469269383799 -0.10087495486876721 -0.071255283821755985 0.057325708545901466 -0.064921964156638506 0.057777071446610068 0.044989350523563537 -0.058950844990729293 -0.066098273083471701 0.044185958763121543 0.061906253488162789 -0.10968996015795843 0.056274132129259163 -0.018949587594898478 -0.00064647211407895238 0.040670803803466507 0.025471327099619065 0.013359081361125997 0.060156081671110022 0.05820957965560021 0.057324996064934186 0.022314661558158588 0.060852559860277378 0.054003307858563533 0.048213516034400751 0.0049205421874081749 0.040490351790767251
leaf_weight=6.2632586285471898 4.6721860840916625 3.8008115738630286 3.9916842803359023 3.6205066144466391 2.9566671997308704 4.7147010937333089 3.5475562959909439 3.2260507792234421 3.0220594555139524 5.1450012624263763 26.137272655963898 4.0101437568664542 3.3031321465969086 4.8135221451520946 3.5177505016326895 17.940348252654076 4.0379262566566458 3.8963446021079999 4.7205116003751755 3.893650621175766 5.013472177088266 5.5427143573760977 3.5551889836788169 3.7807987481355667 4.1959067806601524 8.2972273230552656 3.581702187657358 4.1400072127580643 2.103935070335865 5.5386452078819275
leaf_count=37 33 20 27 28 19 27 32 19 26 30 192 27 24 31 15 158 25 27 37 33 36 46 30 34 39 69 19 40 19 45
internal_value=-0.000375664 0.0138862 0.0171217 0.0204776 0.0238346 0.0265322 -0.0150583 0.00872774 0.0323403 -0.0105964 -0.0460791 -0.0212987 -0.00251914 0.0371676 0.0261118 0.0460364 0.0255861 0.0395617 0.0219881 0.0406577 0.0451907 0.0415479 0.0353142 0.0290481 0.0389089 0.0531807 0.0508881 0.0410539 0.0336257 0.0465928
internal_weight=166.981 127.267 123.466 119.474 114.802 111.182 13.6239 10.6673 97.5578 9.8597 39.7138 13.5765 9.56639 87.6981 39.0362 48.6619 12.5986 35.5185 8.61686 7.44121 26.9016 22.0881 16.5454 12.9902 7.97671 36.0632 27.766 9.82564 6.24394 8.5607
internal_count=1244 964 944 917 884 856 103 84 753 57 280 88 61 696 295 401 96 280 64 65 216 185 139 109 73 305 236 78 59 71
is_linear=0
shrinkage=0.05


Tree=28
num_leaves=31
num_cat=0
split_feature=10 18 19 24 16 16 25 17 25 5 25 0 21 1 1 15 0 23 21 17 24 15 1 18 26 18 23 23 14 1
split_gain=40.6228 15.9837 15.5397 12.373 9.59404 10.0106 7.87024 7.12432 26.4008 6.40515 5.10728 4.89752 3.54064 3.91391 1.98406 3.34178 5.07206 1.79304 1.72714 1.21632 4.80851 1.07694 0.635018 0.632478 1.98065 0.492896 0.155434 0.0758872 0.0620935 0.02298
threshold=2.5000000000000004 1.5000000000000002 1.5000000000000002 1.5000000000000002 1.0000000180025095e-35 1.5000000000000002 1.5000000000000002 1.0000000180025095e-35 5.5000000000000009 1.0000000180025095e-35 2.5000000000000004 2.5000000000000004 2.4166666666666674 9.5000000000000018 15.500000000000002 1.5000000000000002 3.5000000000000004 0.45220861134162554 1.4166666666666667 1.5000000000000002 4.5000000000000009 1.0000000180025095e-35 9.5000000000000018 1.0000000180025095e-35 5.5000000000000009 1.0000000180025095e-35 0.45220861134162554 0.8228263892582881 3.5000000000000004 19.500000000000004
decision_type=2 2 2 2 2 2 2 2 2 2 2 2 2 2 2 2 2 2 2 2 2 2 2 2 2 2 2 2 2 2
left_child=11 2 3 -2 -5 7 -7 10 9 17 -6 12 13 -1 15 25 -17 -9 -8 20 21 -19 -23 28 -25 26 -12 -26 29 -16
right_child=1 -3 -4 4 5 6 18 8 -10 -11 14 -13 -14 -15 23 16 -18 19 -20 -21 -22 22 -24 24 27 -27 -28 -29 -30 -31
leaf_value=-0.036606521491313854 -0.061330313995607899 -0.088351912394292118 -0.08196404613525804 -0.058490446754207663 -0.0072123789181879755 -0.092767493405098489 0.030536038043558707 0.0018707569516987676 -0.10722768058003287 -0.021421732929429112 0.046744287837374783 -0.058715084935370046 -0.061670209727794981 0.025954429137233066 0.059128269247141568 -0.020692915164670377 0.056267060587252032 0.020523464165211211 -0.016710888994722752 0.058880734781348754 -0.02190237616070588 0.034749696983266853 0.057796067742278481 0.014441213675161407 0.056459779915766929 0.034501129269267898 0.059846920716458897 0.066433615691555273 0.06784078864638296 0.063799571442648792
leaf_weight=5.0726019442081434 4.4921194314956656 3.7296251356601706 3.8584686592221251 3.473544366657733 4.7458943575620642 2.76798567175865 3.6389430612325668 3.2732125893235233 3.9843858033418647 5.5311223417520514 3.1822285279631597 24.501833915710449 3.9525317549705496 4.9295377880334854 8.3852928057312983 5.0717067420482635 3.704759381711483 3.6140613481402477 4.1291262209415436 7.094015344977378 3.1630056276917449 4.2273685932159433 10.203023023903368 3.3441502749919918 6.3501463681459409 3.4892863631248483 7.8394170850515366 2.7257864102721214 3.9001410454511634 3.8377403169870368
leaf_count=31 33 20 27 28 36 20 25 23 17 39 28 196 22 31 70 38 38 26 29 60 23 37 95 33 63 34 60 18 21 23
internal_value=-0.000363216 0.0135848 0.0167523 0.0200311 0.0233038 0.0259296 -0.020374 0.0309247 0.0150788 0.028212 0.0424332 -0.0452492 -0.0216057 -0.00577346 0.0469791 0.0361486 0.0117938 0.0369066 0.00542188 0.0409587 0.0349636 0.0449317 0.0510447 0.0558152 0.0473351 0.0508789 0.0560639 0.0594552 0.0623477 0.0605949
internal_weight=162.213 123.757 120.027 116.168 111.676 108.203 10.5361 97.6667 41.0902 37.1058 56.5765 38.4565 13.9547 10.0021 51.8307 23.2874 8.77647 31.5747 7.76807 28.3015 21.2075 18.0445 14.4304 28.5433 12.4201 14.5109 11.0216 9.07593 16.1232 12.223
internal_count=1244 964 944 917 884 856 74 782 320 303 462 280 84 62 426 198 76 264 54 241 181 158 132 228 114 122 88 81 114 93
is_linear=0
shrinkage=0.05


Tree=29
