tree
version=v4
num_class=1
num_tree_per_iteration=1
label_index=0
max_feature_idx=18
objective=binary sigmoid:1
feature_names=Column_0 Column_1 Column_2 Column_3 Column_4 Column_5 Column_6 Column_7 Column_8 Column_9 Column_10 Column_11 Column_12 Column_13 Column_14 Column_15 Column_16 Column_17 Column_18
feature_infos=[1:3] [0:8] [1:8] [0:20] [0:8] [0:20] [1:9] [0:3] [0:3] [0:2] [0:3] [0:3] [1:3] [1:4] [1:4] [0:4] [0:4] [0:3] [1:4]
tree_sizes=2484 2137 2758 2442 2862

Tree=0
num_leaves=23
num_cat=0
split_feature=6 8 11 13 18 18 10 13 13 18 13 13 13 1 18 18 13 13 18 18 18 18
split_gain=246.986 161.885 47.6749 58.8465 4.12431 2.81767 2.01396 1.54843 1.40372 1.24147 2.42095 0.513851 0.991962 0.291605 0.278208 0.20119 0.195305 0.140346 0.10001 0.0959515 0.0298712 0.00731602
threshold=2.5000000000000004 1.0000000180025095e-35 1.0000000180025095e-35 1.8333333333333337 2.5000000000000004 2.5000000000000004 1.0000000180025095e-35 2.4166666666666674 1.8333333333333337 1.5000000000000002 1.8333333333333337 3.4166666666666674 2.1666666666666674 1.0000000180025095e-35 3.5000000000000004 3.5000000000000004 1.8333333333333337 1.8333333333333337 1.5000000000000002 2.5000000000000004 3.5000000000000004 2.5000000000000004
decision_type=2 2 2 2 2 2 2 2 2 2 2 2 2 2 2 2 2 2 2 2 2 2
left_child=1 2 3 4 18 7 -5 8 -4 10 -3 12 13 14 17 -6 -16 21 -1 -19 -14 -11
right_child=-2 9 5 6 15 -7 -8 -9 -10 11 -12 -13 20 -15 16 -17 -18 19 -20 -21 -22 -23
leaf_value=0.46748207651075152 0.3400036260978655 0.54013520840020091 0.50355201593633314 0.3400036260978655 0.43657505628819876 0.474968906138175 0.37201120239201002 0.48696015030054657 0.53560548122874885 0.5391822008654279 0.49844112875388102 0.55125362963921953 0.52841579141853257 0.55125362963921953 0.54042029612427822 0.42450362751440707 0.55125362963921953 0.52940018099701047 0.46163241601561478 0.53762459715268052 0.52369928135121679 0.54119410566105985
leaf_weight=13.727810829877853 31.715976744890213 8.994082957506178 7.3372782021760994 13.254438042640688 8.284023776650427 8.5207101702690107 7.8106509894132605 5.4437870532274237 6.3905326277017593 8.2840237766504288 5.6804734468460074 8.7573965638875944 8.7573965638875944 6.6272190213203421 9.2307693511247653 5.9171598404645911 7.5739645957946768 6.8639054149389249 15.621301978826523 7.3372782021760941 5.4437870532274237 9.9408285319805145
leaf_count=58 134 38 31 56 35 36 33 23 27 35 24 37 37 28 39 25 32 29 66 31 23 42
internal_value=0.46896 0.490973 0.444004 0.42048 0.453665 0.498893 0.351872 0.509525 0.518473 0.537349 0.523996 0.539835 0.538407 0.541407 0.540082 0.431545 0.545303 0.537376 0.464369 0.533649 0.526608 0.54028
internal_weight=217.515 185.799 92.3077 64.6154 43.5503 27.6923 21.0651 19.1716 13.7278 93.4911 14.6746 78.8166 70.0592 55.858 49.2308 14.2012 16.8047 32.426 29.3491 14.2012 14.2012 18.2249
internal_count=919 785 390 273 184 117 89 81 58 395 62 333 296 236 208 60 71 137 124 60 60 77
is_linear=0
shrinkage=1


Tree=1
num_leaves=19
num_cat=0
split_feature=6 8 9 7 10 2 2 2 3 13 13 2 13 13 13 13 2 13
split_gain=217.922 148.41 55.9752 56.0567 46.1165 20.2181 9.32657 7.42514 6.51633 3.58012 0.651691 0.485641 0.194106 0.195172 0.100198 0.0949314 0.000123006 1.06063e-06
threshold=2.5000000000000004 1.0000000180025095e-35 1.0000000180025095e-35 1.0000000180025095e-35 1.0000000180025095e-35 1.5000000000000002 3.5000000000000004 3.5000000000000004 1.0000000180025095e-35 1.8333333333333337 2.8333333333333335 3.5000000000000004 2.1666666666666674 3.4166666666666674 1.8333333333333337 2.8333333333333335 3.5000000000000004 1.8333333333333337
decision_type=2 2 2 2 2 2 2 2 2 2 2 2 2 2 2 2 2 2
left_child=1 2 3 4 5 9 8 -6 14 -1 -11 -7 17 -14 -3 -16 -4 -8
right_child=-2 6 16 -5 7 11 12 -9 -10 10 -12 -13 13 -15 15 -17 -18 -19
leaf_value=0.034406793667486363 -0.12024763312166616 0.035040364098945738 -0.12262422587688847 -0.12406990134598848 -0.043577444038977821 -0.00063027077085432649 0.079128040516706022 -0.1238933575910445 0.079101390009585881 0.079337126464186253 0.057996004787237036 -0.016042665216891235 0.067311164403067211 0.078811352326263934 0.024715935412725491 0.032514039506969107 -0.12294111743574419 0.07914415798861385
leaf_weight=20.333034336566925 32.550181299448013 9.0719677954912203 7.241231292486189 9.3784593343734723 5.515957757830618 7.3334372043609646 25.586626514792442 6.0164600014686584 9.7658985555171949 6.0587662905454627 8.7339577227830869 16.86609522998333 8.1716359108686429 6.725956678390502 8.1821232289075834 7.4620556533336631 5.3063148558139801 16.98185296356678
leaf_count=86 134 39 30 39 23 31 110 25 42 26 37 71 35 29 35 32 22 73
internal_value=-0.000957959 0.0200612 -0.0245523 -0.00919461 0.00600985 0.0237945 0.0650801 -0.0854782 0.0445226 0.0480221 0.0667368 -0.0113721 0.0774154 0.0725033 0.0308598 0.0284355 -0.122758 0.0791345
internal_weight=217.282 184.732 92.7837 80.2362 70.8577 59.3253 91.9481 11.5324 34.482 35.1258 14.7927 24.1995 57.4661 14.8976 24.7161 15.6442 12.5475 42.5685
internal_count=919 785 390 338 299 251 395 48 148 149 63 102 247 64 106 67 52 183
is_linear=0
shrinkage=0.05


Tree=2
num_leaves=25
num_cat=0
split_feature=6 8 2 11 13 13 2 18 3 2 18 13 13 18 18 13 13 18 18 18 18 13 13 18
split_gain=193.996 136.28 40.4442 41.7722 25.2867 17.9107 8.89236 6.73676 6.15623 3.49565 1.71371 1.30463 1.72752 0.773748 0.418726 1.38144 0.187862 0.2487 0.0164439 0.00362416 0.000164395 0.000119123 0.000106318 4.05301e-06
threshold=2.5000000000000004 1.0000000180025095e-35 2.5000000000000004 1.0000000180025095e-35 1.8333333333333337 1.8333333333333337 3.5000000000000004 2.5000000000000004 1.0000000180025095e-35 1.5000000000000002 2.5000000000000004 1.8333333333333337 2.8333333333333335 3.5000000000000004 1.5000000000000002 2.8333333333333335 2.1666666666666674 3.5000000000000004 1.5000000000000002 2.5000000000000004 3.5000000000000004 1.8333333333333337 1.8333333333333337 2.5000000000000004
decision_type=2 2 2 2 2 2 2 2 2 2 2 2 2 2 2 2 2 2 2 2 2 2 2 2
left_child=1 2 3 5 7 9 8 -4 14 18 11 -5 -13 -9 -3 -16 20 -18 -1 -6 22 -22 23 -8
right_child=-2 6 4 10 19 -7 16 13 -10 -11 -12 12 -14 -15 15 -17 17 -19 -20 -21 21 -23 -24 -25
leaf_value=-0.02432484369937141 -0.11228863699885397 0.037620330743170526 0.010469094537175717 0.03088005702094709 -0.11688293251628518 -0.089232235714930344 0.076937305639153894 -0.061498443673815961 0.076888423052131491 0.017972577270541509 0.079469378544382852 0.077033593456174873 0.035949362054791552 -0.036950908967507218 0.010351054243377466 0.041056259806668632 0.064190091735963475 0.077267108309821808 -0.021063917272317004 -0.11523576034115175 0.076909372814844806 0.076618995148500957 0.077116949768956514 0.076888560449227872
leaf_weight=5.6766212433576646 33.098781913518906 9.730866879224779 6.9265555590391186 7.2236033678054872 5.1300840377807608 9.8312536776065809 8.6463695764541626 7.2178218066692335 9.5500795692205411 7.8370991498231879 5.3659669458866111 5.6944724172353727 4.6464082598686218 5.7814400047063828 8.0842773765325529 6.6980851739644995 7.7487823367118818 6.8497480452060699 12.120578333735464 9.5669829249382001 7.961283475160597 6.3481447100639343 10.25913490355015 8.4142577946186066
leaf_count=24 134 42 29 31 21 40 38 30 42 33 23 25 20 24 35 29 34 30 51 39 35 28 45 37
internal_value=-0.000880597 0.0192354 -0.0232392 0.00214732 -0.0660568 -0.0318563 0.0629933 -0.0293589 0.0428334 -0.00985152 0.0547393 0.0471842 0.0585735 -0.0505809 0.029566 0.024264 0.0752064 0.0703259 -0.022104 -0.115811 0.0769178 0.0767806 0.0769898 0.0769133
internal_weight=216.409 183.31 93.0189 58.396 34.6229 35.4656 90.291 19.9258 34.0633 25.6343 22.9305 17.5645 10.3409 12.9993 24.5132 14.7824 56.2277 14.5985 17.7972 14.6971 41.6292 14.3094 27.3198 17.0606
internal_count=919 785 390 247 143 148 395 83 148 108 99 76 45 54 106 64 247 64 75 60 183 63 120 75
is_linear=0
shrinkage=0.05


Tree=3
num_leaves=22
num_cat=0
split_feature=6 8 9 7 10 2 11 2 2 3 11 13 13 13 13 13 13 2 2 13 5
split_gain=173.926 125.368 45.6224 46.7092 37.7666 17.196 33.8279 8.52905 6.04709 5.84408 5.77007 0.271505 0.383366 0.183895 0.198243 0.0974288 0.0705025 0.0223347 0.00454206 6.76515e-07 2.84217e-14
threshold=2.5000000000000004 1.0000000180025095e-35 1.0000000180025095e-35 1.0000000180025095e-35 1.0000000180025095e-35 1.5000000000000002 1.0000000180025095e-35 3.5000000000000004 3.5000000000000004 1.0000000180025095e-35 1.0000000180025095e-35 2.8333333333333335 1.8333333333333337 2.1666666666666674 3.4166666666666674 1.8333333333333337 2.8333333333333335 3.5000000000000004 1.5000000000000002 1.8333333333333337 3.8750000000000004
decision_type=2 2 2 2 2 2 2 2 2 2 2 2 2 2 2 2 2 2 2 2 2
left_child=1 2 3 4 5 10 17 9 -6 15 -1 12 -12 19 -15 -3 -17 -7 -4 -9 -2
right_child=20 7 18 -5 8 6 -8 13 -10 -11 11 -13 -14 14 -16 16 -18 -19 -20 -21 -22
leaf_value=0.018580367821428422 -0.105672720951591 0.03248929342049741 -0.11026813515092782 -0.11130970496993492 -0.037920232936371742 0.017979969109088979 -0.12510687457212119 0.074919764233809819 -0.1095931319663557 0.074898757880674655 0.057895969596968445 0.053976540379214955 0.07508802684985566 0.062998025388339221 0.07483841684779162 0.022702736388485481 0.029478261684838081 0.021596412153515831 -0.10838953218487053 0.074932940723135597 -0.105672720951591
leaf_weight=12.775764897465704 25.177235424518585 8.9143605530262011 6.6813754886388761 9.6296375542879087 5.6063015460968 6.3683822751045289 5.0349848419427863 24.418203189969063 6.1946540027856827 9.3194222301244718 7.3797268718481082 8.4759556055068952 5.78420789539814 7.851656645536421 6.4303508698940277 8.0834271311759931 7.3125949651002875 12.952656790614126 6.2062616050243378 16.206809669733047 8.2262254357337934
leaf_count=54 101 39 27 39 23 27 21 110 25 42 32 37 26 35 29 35 32 54 25 73 33
internal_value=-0.000815805 0.0184687 -0.0220433 -0.00801187 0.00608312 0.0224732 -0.00967633 0.0610641 -0.0755434 0.0412346 0.0452254 0.0609561 0.0654501 0.0732093 0.0683291 0.0283295 0.0259209 0.0204044 -0.109363 0.074925 -0.105673
internal_weight=215.03 181.627 93.0899 80.2023 70.5726 58.7717 24.356 88.5368 11.801 33.6298 34.4157 21.6399 13.1639 54.907 14.282 24.3104 15.396 19.321 12.8876 40.625 33.4035
internal_count=919 785 390 338 299 251 102 395 48 148 149 95 58 247 64 106 67 81 52 183 134
is_linear=0
shrinkage=0.05


Tree=4
num_leaves=26
num_cat=0
split_feature=6 8 2 11 13 13 2 18 3 2 18 13 13 18 18 13 18 13 18 18 13 13 18 13 13
split_gain=156.88 115.494 32.2772 34.7416 19.8373 14.2574 8.22421 5.58394 5.57108 3.0085 1.63485 1.15185 1.64884 0.555397 0.388387 1.27565 0.181693 0.282546 0.0181352 0.00201948 0.00118462 0.00138969 4.05638e-05 7.9354e-05 7.75745e-06
threshold=2.5000000000000004 1.0000000180025095e-35 2.5000000000000004 1.0000000180025095e-35 1.8333333333333337 1.8333333333333337 3.5000000000000004 2.5000000000000004 1.0000000180025095e-35 1.5000000000000002 2.5000000000000004 1.8333333333333337 2.8333333333333335 3.5000000000000004 1.5000000000000002 2.8333333333333335 2.5000000000000004 1.8333333333333337 1.5000000000000002 2.5000000000000004 2.8333333333333335 3.4166666666666674 3.5000000000000004 1.8333333333333337 1.8333333333333337
decision_type=2 2 2 2 2 2 2 2 2 2 2 2 2 2 2 2 2 2 2 2 2 2 2 2 2
left_child=1 2 3 5 7 9 8 -4 14 18 11 -5 -13 -9 -3 -16 17 -8 -1 -6 22 -22 24 -24 -18
right_child=-2 6 4 10 19 -7 16 13 -10 -11 -12 12 -14 -15 15 -17 20 -19 -20 -21 21 -23 23 -25 -26
leaf_value=-0.02252826590034842 -0.10008981235369284 0.034982456164338267 0.010068350769983922 0.028215954034702763 -0.10320857980164477 -0.079369780350734734 0.073142139015745775 -0.054596408937797929 0.073102238679059031 0.017020219731688973 0.07574319920802336 0.073218715773117032 0.032331925037032687 -0.03392254207289299 0.0086029876041526909 0.038346745189255162 0.073101387578191165 0.059563833936673784 -0.019112590589863629 -0.10199052468940462 0.074145688964063247 0.072991372700554294 0.073118788315446034 0.072875654465476267 0.073178014040485448
leaf_weight=5.7056225985288682 33.4999720454216 9.5469824373722094 6.9026851356029537 7.0876304656267228 5.2325292974710456 9.9642759859561902 8.2190524637699109 7.3437343537807447 9.0771651566028577 7.7932846993207923 5.1599275469779959 5.4138224571943265 4.5281675457954407 5.8257550597190857 7.9996191114187223 6.561527356505394 7.9975786954164505 7.1764834076166144 12.185525566339491 9.7317135035991651 6.5880325734615308 4.315324604511261 7.5673726946115494 6.0302681922912598 5.6267598569393158
leaf_count=24 134 42 29 31 21 40 38 30 42 33 23 25 20 24 35 29 37 33 51 39 30 20 35 28 26
internal_value=-0.000757875 0.017772 -0.0209712 0.00197028 -0.0588431 -0.0286028 0.0592716 -0.0263582 0.0397155 -0.00890778 0.0510876 0.043617 0.0545965 -0.045451 0.0271448 0.0220061 0.0713972 0.0668127 -0.0202019 -0.102416 0.0732484 0.0736888 0.0730721 0.073011 0.073133
internal_weight=213.081 179.581 92.8747 57.8383 35.0364 35.6487 86.7062 20.0722 33.1853 25.6844 22.1895 17.0296 9.94199 13.1695 24.1081 14.5611 53.5209 15.3955 17.8911 14.9642 38.1253 10.9034 27.222 13.5976 13.6243
internal_count=919 785 390 247 143 148 395 83 148 108 99 76 45 54 106 64 247 71 75 60 176 50 126 63 63
is_linear=0
shrinkage=0.05


end of trees

feature_importances:
Column_13=40
Column_18=26
Column_2=16
Column_6=5
Column_8=5
Column_11=5
Column_3=4
Column_10=3
Column_7=2
Column_9=2
Column_1=1
Column_5=1

parameters:
[boosting: gbdt]
[objective: binary]
[metric: binary_logloss]
[tree_learner: serial]
[device_type: cpu]
[data_sample_strategy: bagging]
[data: ]
[valid: ]
[num_iterations: 5]
[learning_rate: 0.05]
[num_leaves: 31]
[num_threads: 0]
[seed: 0]
[deterministic: 0]
[force_col_wise: 0]
[force_row_wise: 0]
[histogram_pool_size: -1]
[max_depth: -1]
[min_data_in_leaf: 20]
[min_sum_hessian_in_leaf: 0.001]
[bagging_fraction: 0.8]
[pos_bagging_fraction: 1]
[neg_bagging_fraction: 1]
[bagging_freq: 5]
[bagging_seed: 3]
[bagging_by_query: 0]
[feature_fraction: 0.9]
[feature_fraction_bynode: 1]
[feature_fraction_seed: 2]
[extra_trees: 0]
[extra_seed: 6]
[early_stopping_round: 0]
[early_stopping_min_delta: 0]
[first_metric_only: 0]
[max_delta_step: 0]
[lambda_l1: 0]
[lambda_l2: 0]
[linear_lambda: 0]
[min_gain_to_split: 0]
[drop_rate: 0.1]
[max_drop: 50]
[skip_drop: 0.5]
[xgboost_dart_mode: 0]
[uniform_drop: 0]
[drop_seed: 4]
[top_rate: 0.2]
[other_rate: 0.1]
[min_data_per_group: 100]
[max_cat_threshold: 32]
[cat_l2: 10]
[cat_smooth: 10]
[max_cat_to_onehot: 4]
[top_k: 20]
[monotone_constraints: ]
[monotone_constraints_method: basic]
[monotone_penalty: 0]
[feature_contri: ]
[forcedsplits_filename: ]
[refit_decay_rate: 0.9]
[cegb_tradeoff: 1]
[cegb_penalty_split: 0]
[cegb_penalty_feature_lazy: ]
[cegb_penalty_feature_coupled: ]
[path_smooth: 0]
[interaction_constraints: ]
[verbosity: -1]
[saved_feature_importance_type: 0]
[use_quantized_grad: 0]
[num_grad_quant_bins: 4]
[quant_train_renew_leaf: 0]
[stochastic_rounding: 1]
[linear_tree: 0]
[max_bin: 255]
[max_bin_by_feature: ]
[min_data_in_bin: 3]
[bin_construct_sample_cnt: 200000]
[data_random_seed: 1]
[is_enable_sparse: 1]
[enable_bundle: 1]
[use_missing: 1]
[zero_as_missing: 0]
[feature_pre_filter: 1]
[pre_partition: 0]
[two_round: 0]
[header: 0]
[label_column: ]
[weight_column: ]
[group_column: ]
[ignore_column: ]
[categorical_feature: ]
[forcedbins_filename: ]
[precise_float_parser: 0]
[parser_config_file: ]
[objective_seed: 5]
[num_class: 1]
[is_unbalance: 0]
[scale_pos_weight: 1]
[sigmoid: 1]
[boost_from_average: 1]
[reg_sqrt: 0]
[alpha: 0.9]
[fair_c: 1]
[poisson_max_delta_step: 0.7]
[tweedie_variance_power: 1.5]
[lambdarank_truncation_level: 30]
[lambdarank_norm: 1]
[label_gain: ]
[lambdarank_position_bias_regularization: 0]
[eval_at: ]
[multi_error_top_k: 1]
[auc_mu_weights: ]
[num_machines: 1]
[local_listen_port: 12400]
[time_out: 120]
[machine_list_filename: ]
[machines: ]
[gpu_platform_id: -1]
[gpu_device_id: -1]
[gpu_use_dp: 0]
[num_gpu: 1]

end of parameters

pandas_categorical:null
