tree
version=v4
num_class=1
num_tree_per_iteration=1
label_index=0
max_feature_idx=33
objective=binary sigmoid:1
feature_names=Column_0 Column_1 Column_2 Column_3 Column_4 Column_5 Column_6 Column_7 Column_8 Column_9 Column_10 Column_11 Column_12 Column_13 Column_14 Column_15 Column_16 Column_17 Column_18 Column_19 Column_20 Column_21 Column_22 Column_23 Column_24 Column_25 Column_26 Column_27 Column_28 Column_29 Column_30 Column_31 Column_32 Column_33
feature_infos=[2:6] [2:24] [1:4] [1:4] [1:7] [0:4] [1:4] [1:6] [0:4] [0:4] [0:5] [0:4] [0:4] [0:5] [0:4] [0:4] [0:5] none [0:4] [0:5] none [1:6] [0:4] [0:2] [0:3] [0:2] [0:2] [2:6] [1:3.5] [1:4] [0:1.5] [0:3] [0:3] [1:4]
tree_sizes=3273 3382 3375 3387 3394 3384 3395 3395 3399 3389 3391 3402 3377 3392 3386 3396 3392 3407 3397 3392 3399 3394 3405 3412 3387 3397 3398 3394 3420 3402 3395 3389 3387 3359 3386 3396 3401 3395 3369 3405 3389 3411 3387 3399 3397 3378 3403 3400 3391 3407 3394 3403 3400 3397 3405 3372 3413 3396 3400 3401 3391 3405 3391 3388 3402 3397 3400 3413 3408 3400 3385 3379 3399 3393 3388 3399 3389 3385 3398 3382 3406 3400 3400 3416 3405 3392 3398 3378 3411 3414 3400 3404 3430 3420 3414 3387 3391 3396 3380 3375 3404 3400 3394 3403 3422 3382 3418 3392 3397 3409 3410 3396 3406 3422 3399 3400 3406 3417 3419 3410 3396 3417 3406 3412 3423 3411 3417 3401 3378 3435 3416 3417 3423 3426 3419 3416 3424 3383 3413 3420 3412 3382 3412 3417 3384 3403 3421 3414 3407 3423 3439 3429 3436 3415 3438 3411 3408 3442 3430 3433 3423 3431 3423 3421 3427 3410 3414 3431 3415 3412 3421 3413 3409 3408 3427 3450 3430 3421 3423 3434 3436 3438 3437 3446 3433 3407 3420 3436 3428 3437 3413 3404 3428 3425 3427 3411 3417 3400 3401 3435 3392 3412 3392 3429 3416 3440 3434 3425 3412 3443 3457 3442 3462 3458 3417 3415 3422 3413 3436 3435 3440 3435 3429 3430 3445 3441 3437 3430 3449 3451 3408 3380 3410 3427 3425 3432 3424 3431 3427 3440 3421 3414 3412 3422 3427 3410 3416 3438 3442 3433 3396 3438 3438 3444 3433 3417 3426 3429 3428 3432 3448 3453 3443 3434 3450 3443 3427 3423 3451 3443 3416 3423 3444 3421 3450 3446 3442 3445 3458 3422 3447 3423 3430 3423 3436 3441 3436 3436 3454 3438 3441 3446 3445 3455 3442 3420 3449 3445

Tree=0
num_leaves=31
num_cat=0
split_feature=26 23 8 24 10 6 4 2 28 5 7 4 28 2 8 24 4 30 1 9 1 3 33 28 5 30 6 7 2 4
split_gain=122.519 92.2429 70.5854 52.6777 39.9551 58.7874 34.4878 43.1772 28.1001 23.701 22.5756 29.906 20.2652 22.5476 18.1166 15.0813 13.9859 15.2181 11.0128 13.0429 10.6238 10.6655 9.14388 9.11558 9.05573 25.6997 8.89819 8.79716 9.97054 7.79611
threshold=1.0000000180025095e-35 1.0000000180025095e-35 1.5000000000000002 1.0000000180025095e-35 1.5000000000000002 2.5000000000000004 2.5000000000000004 2.4166666666666674 1.5833333333333337 1.0000000180025095e-35 2.5000000000000004 3.5000000000000004 2.5833333333333335 1.8750000000000002 2.5000000000000004 1.0000000180025095e-35 1.5000000000000002 0.45220861134162554 6.5000000000000009 1.5000000000000002 5.5000000000000009 1.5000000000000002 2.5000000000000004 2.7083333333333335 2.5000000000000004 0.45220861134162554 1.5000000000000002 1.5000000000000002 2.8750000000000004 4.5000000000000009
decision_type=2 2 2 2 2 2 2 2 2 2 2 2 2 2 2 2 2 2 2 2 2 2 2 2 2 2 2 2 2 2
left_child=1 2 6 8 5 14 12 -8 9 -3 22 -12 13 16 -4 26 -1 -18 19 -7 -11 -22 24 -24 25 -9 -16 28 -26 -13
right_child=-2 3 4 -5 -6 18 7 10 -10 20 11 29 -14 -15 15 -17 17 -19 -20 -21 21 -23 23 -25 27 -27 -28 -29 -30 -31
leaf_value=0.4815130629272289 0.31826185532411355 0.52810839522533093 0.51024217728237475 0.31826320257897955 0.51549230240556032 0.38353669847035227 0.3780319330588503 0.48220941502486642 0.3345869265505329 0.46297924626609094 0.49062318900071866 0.40085444172126161 0.36269442906159161 0.49189999236249538 0.52796159104447571 0.34862321380035194 0.48607343533657199 0.38203578663362964 0.34236120815126092 0.51037712899072296 0.33756756461903081 0.46496099720060924 0.51629807076738932 0.41398788420589688 0.48807959504717735 0.34363371174404722 0.4283635041403886 0.52804635106235454 0.37113165571109163 0.32540564482600254
leaf_weight=10.707912147045137 17.846520245075226 7.3765617012977645 33.313504457473755 17.608566641807556 70.434266567230225 6.9006544947624224 35.930994093418121 7.6145153045654297 6.1867936849594107 6.9006544947624207 6.6627008914947536 6.6627008914947492 4.521118462085723 49.494349479675293 4.0452112555503827 3.3313504457473746 4.7590720653533962 13.3254017829895 8.3283761143684369 2.8554432392120361 5.2349792718887329 2.3795360326766968 12.611540973186491 2.6174896359443656 4.9970256686210632 5.9488400816917419 4.9970256686210632 5.4729328751564026 2.8554432392120361 7.1386080980300903
leaf_count=45 75 31 140 74 296 29 151 32 26 29 28 28 19 208 17 14 20 56 35 12 22 10 53 11 21 25 21 23 12 30
internal_value=0.446111 0.45243 0.462047 0.386039 0.489534 0.460849 0.441703 0.42171 0.428591 0.455173 0.446786 0.403723 0.465483 0.471435 0.491057 0.439434 0.43627 0.409449 0.384579 0.42074 0.418111 0.377416 0.467726 0.498671 0.450168 0.421437 0.472906 0.479446 0.445575 0.361734
internal_weight=379.06 361.214 315.526 45.6871 134.206 63.7716 181.321 98.5128 28.0785 21.8917 62.5818 20.464 82.8079 78.2867 45.6871 12.3736 28.7924 18.0845 18.0845 9.7561 14.5152 7.61452 42.1178 15.229 26.8888 13.5634 9.04224 13.3254 7.85247 13.8013
internal_count=1593 1518 1326 192 564 268 762 414 118 92 263 86 348 329 192 52 121 76 76 41 61 32 177 64 113 57 38 56 33 58
is_linear=0
shrinkage=1


Tree=1
num_leaves=31
num_cat=0
split_feature=10 4 23 11 33 21 33 12 24 6 7 8 19 4 3 25 6 4 7 11 3 1 1 28 29 24 3 25 24 22
split_gain=90.9452 82.415 53.13 35.3189 33.5753 29.5425 32.6774 23.8742 22.2792 27.4904 20.9474 20.443 29.4308 20.0446 19.7649 19.177 20.6754 18.163 15.9301 13.1991 19.4545 10.8509 15.3049 9.07388 8.94262 9.19819 15.6031 8.66369 8.29235 7.56649
threshold=2.5000000000000004 1.5000000000000002 1.0000000180025095e-35 1.5000000000000002 3.5000000000000004 3.5000000000000004 1.5000000000000002 2.5000000000000004 1.0000000180025095e-35 1.5000000000000002 2.5000000000000004 1.5000000000000002 2.5000000000000004 3.5000000000000004 2.5000000000000004 1.0000000180025095e-35 1.5000000000000002 2.5000000000000004 1.5000000000000002 2.5000000000000004 2.5000000000000004 7.5000000000000009 6.5000000000000009 1.4166666666666667 2.5000000000000004 1.5000000000000002 1.5000000000000002 1.0000000180025095e-35 1.5000000000000002 1.0000000180025095e-35
decision_type=2 2 2 2 2 2 2 2 2 2 2 2 2 2 2 2 2 2 2 2 2 2 2 2 2 2 2 2 2 2
left_child=1 15 3 5 19 6 18 14 9 -4 21 12 -6 -12 -7 -1 -17 -8 23 -2 -21 22 24 -3 25 -5 -27 -25 -23 -20
right_child=4 2 8 10 11 7 17 -9 -10 -11 13 -13 -14 -15 -16 16 -18 -19 29 20 -22 28 -24 27 -26 26 -28 -29 -30 -31
leaf_value=0.062605151887576857 0.066316422969359051 -0.010088042212111471 -0.0014484674622934864 -0.070699820766252683 -0.084907264171103322 -0.095718852207853256 0.067125454758454148 0.058139519443425783 -0.11864587603769504 -0.11052573146652643 0.045060076187035648 0.064407798982699063 0.060635710283297999 -0.075068587833858391 0.037818502114519384 0.079208379557012043 -0.062811619618260234 0.011987449451683882 -0.046776087964148963 0.064891165538797507 -0.065615048763226158 -0.049796606120825898 -0.11212092526051885 -0.10937121874626277 -0.075987281560912348 0.063011880024994957 -0.046256641228207149 -0.02987558772353606 0.063805976334792444 0.057483684882825584
leaf_weight=36.659854546189308 63.712444797158241 9.2512116134166735 14.293931722640993 7.7256591618061075 11.540765836834913 15.858183249831205 26.119275137782097 4.2694907486438742 18.526872634887695 9.6947650015354139 11.10412907600403 6.3400624096393576 4.9547542929649344 5.0394936501979819 3.3455540239810935 3.9685566723346692 7.1868060976266861 34.941044732928276 2.35070952773094 6.576773524284361 5.0296898484230042 3.3617429584264746 12.74678413569927 7.7264860868453962 16.861225813627243 5.4489306807517996 8.1256700754165649 6.2092712223529816 3.0568416565656662 6.5827632248401642
leaf_count=156 271 39 60 32 48 66 111 18 76 40 47 27 21 21 14 17 30 147 10 28 21 14 53 32 70 23 34 26 13 28
internal_value=-0.000137608 -0.0146363 -0.0269258 -0.0156212 0.0412815 0.00147783 0.0141117 -0.0486379 -0.0774515 -0.0455794 -0.0427737 -0.0118057 -0.04115 0.00750576 -0.0724212 0.0451397 -0.0122171 0.0355887 -0.0266983 0.0573829 0.00828513 -0.0569403 -0.0646637 -0.0485572 -0.0487736 -0.0271823 -0.00234466 -0.0740335 0.00424378 0.0299718
internal_weight=378.61 280.455 232.64 190.124 98.1545 116.654 93.1808 23.4732 42.5156 23.9887 73.4705 22.8356 16.4955 16.1436 19.2037 47.8152 11.1554 61.0603 32.1204 75.3189 11.6065 57.3269 50.9083 23.187 38.1615 21.3003 13.5746 13.9358 6.41858 8.93347
internal_count=1593 1177 974 798 416 491 393 98 176 100 307 96 69 68 80 203 47 258 135 320 49 239 212 97 159 89 57 58 27 38
is_linear=0
shrinkage=0.05


Tree=2
num_leaves=31
num_cat=0
split_feature=10 4 23 11 33 21 9 12 28 29 4 24 7 8 32 4 25 6 3 2 5 1 11 9 1 1 1 2 3 29
split_gain=82.8018 74.6608 47.1341 31.5771 30.9552 26.5261 33.6161 21.3293 19.6903 19.1946 19.4245 19.0348 18.6015 18.5526 29.2003 18.0394 17.7148 18.7485 17.4361 13.2261 12.5081 12.7196 12.2989 19.4195 10.3971 9.58744 13.2854 8.78072 13.7925 7.85006
threshold=2.5000000000000004 1.5000000000000002 1.0000000180025095e-35 1.5000000000000002 3.5000000000000004 3.5000000000000004 1.5000000000000002 2.5000000000000004 1.5833333333333337 3.5000000000000004 2.5000000000000004 1.0000000180025095e-35 2.5000000000000004 1.5000000000000002 1.5000000000000002 3.5000000000000004 1.0000000180025095e-35 1.5000000000000002 2.5000000000000004 2.1250000000000004 1.0000000180025095e-35 5.5000000000000009 2.5000000000000004 2.5000000000000004 3.5000000000000004 7.5000000000000009 6.5000000000000009 2.8750000000000004 1.5000000000000002 2.5000000000000004
decision_type=2 2 2 2 2 2 2 2 2 2 2 2 2 2 2 2 2 2 2 2 2 2 2 2 2 2 2 2 2 2
left_child=1 16 3 5 22 6 9 18 11 10 24 20 25 14 -6 -14 -1 -18 -7 -12 -4 -22 -2 -24 -3 26 29 -21 -29 -5
right_child=4 2 8 12 13 7 -8 -9 -10 -11 19 -13 15 -15 -16 -17 17 -19 -20 27 21 -23 23 -25 -26 -27 -28 28 -30 -31
leaf_value=0.060473269149795873 0.064119166321353699 -0.016944175097620043 0.079371192515265254 -0.025705499706748985 -0.076003388538222666 -0.08942981591027481 0.071357506765488604 0.056023544083288572 -0.10946744419405259 -0.10671531874711254 -0.055059262861008068 -0.1108147454345261 0.043292645601024048 0.062250691995325791 0.079387767594495506 -0.07033648869795027 0.076957911069801932 -0.058956476111660966 0.03623460235928859 0.028916601930517701 0.012263025134591125 -0.086005194437701757 0.049545214715305902 -0.092863669856807801 0.056055815519561514 0.0040589934722514787 -0.10450663176270679 -0.086354276226815574 0.018695931401091642 -0.071230899060925515
leaf_weight=36.069998264312744 62.628858640789986 6.4616644680500057 3.0406347960233733 21.383980438113213 12.628695443272596 16.118169113993652 19.738363891839981 4.2110770493745795 19.76336881518364 4.131441041827201 14.699249938130377 6.9307281374931327 10.983101636171343 6.2347949743270865 3.9621254056692115 5.1083910167217246 3.8828353434801084 7.2722332626581192 3.3183445781469336 15.345739871263506 7.1455382108688354 6.082509309053421 8.1871264427900297 3.370674416422843 19.719860449433327 6.3995969146490088 12.985721424221991 5.547173395752905 7.1185677349567413 17.08233730494976
leaf_count=156 271 27 13 89 52 66 85 18 80 17 61 28 47 27 17 21 17 30 14 65 30 25 35 14 85 27 53 23 30 70
internal_value=-0.000107099 -0.013878 -0.0254841 -0.0148023 0.0397077 0.00142452 0.0134804 -0.0458313 -0.0727852 -0.00216467 0.00411251 -0.0414806 -0.040352 -0.0111888 -0.0388382 0.00716771 0.0434449 -0.0115763 -0.0679422 -0.0166653 -0.0118625 -0.0329156 0.0553736 0.00792601 0.0380206 -0.0535773 -0.0607552 0.00347681 -0.0273049 -0.0459489
internal_weight=377.553 280.541 233.316 190.353 97.0123 116.41 92.7621 23.6476 42.9628 73.0237 68.8923 23.1994 73.9431 22.8256 16.5908 16.0915 47.2251 11.1551 19.4365 42.7107 16.2687 13.228 74.1867 11.5578 26.1815 57.8516 51.452 28.0115 12.6657 38.4663
internal_count=1593 1177 974 798 416 491 393 98 176 308 291 96 307 96 69 68 203 47 80 179 68 55 320 49 112 239 212 118 53 159
is_linear=0
shrinkage=0.05


Tree=3
num_leaves=31
num_cat=0
split_feature=26 8 10 23 10 6 9 4 11 7 8 24 11 23 7 22 1 9 3 22 4 33 5 31 21 6 4 2 2 2
split_gain=95.3232 71.668 43.1866 36.1219 33.7127 47.2189 27.969 24.0839 23.3308 21.2491 15.7363 12.9687 12.5262 11.0162 17.7822 9.15454 8.14657 10.0274 7.86638 7.01553 10.3642 6.98174 6.94425 6.87764 16.7957 6.80236 6.02092 12.1641 11.2805 9.53921
threshold=1.0000000180025095e-35 1.5000000000000002 2.5000000000000004 1.0000000180025095e-35 1.5000000000000002 2.5000000000000004 2.5000000000000004 1.5000000000000002 1.0000000180025095e-35 2.5000000000000004 2.5000000000000004 1.0000000180025095e-35 1.5000000000000002 1.0000000180025095e-35 3.5000000000000004 1.0000000180025095e-35 6.5000000000000009 1.5000000000000002 1.5000000000000002 1.0000000180025095e-35 1.5000000000000002 3.5000000000000004 1.0000000180025095e-35 1.0000000180025095e-35 2.5000000000000004 1.5000000000000002 4.5000000000000009 2.4166666666666674 3.4166666666666674 2.2916666666666674
decision_type=2 2 2 2 2 2 2 2 2 2 2 2 2 2 2 2 2 2 2 2 2 2 2 2 2 2 2 2 2 2
left_child=1 2 7 4 5 10 -4 23 15 12 19 25 -8 14 -10 -9 17 -7 -11 20 -3 -20 -15 24 -1 -12 27 29 -28 -17
right_child=-2 3 6 -5 -6 16 9 8 13 18 11 -13 -14 22 -16 26 -18 -19 21 -21 -22 -23 -24 -25 -26 -27 28 -29 -30 -31
leaf_value=0.076476428229360557 -0.11059292393852878 0.076287889662785699 0.052586654834491681 -0.10481866854139364 0.063833319048104978 -0.054549405227744596 -0.051982592124397264 -0.10621592970399601 -0.047566400198842146 -0.11256019406612544 0.075012682049167001 -0.090326057600483178 0.0716884982131724 -0.028270544731253813 0.07757238567085456 -0.013736036091452717 -0.089905427891700695 0.058172448795987708 -0.077624820115876153 0.075144756618326619 -0.024487181661259655 0.022388435346992603 -0.10512509570974633 0.065152070211831878 -0.079605823296157896 -0.013346417308542564 -0.079968438450312804 0.02466331001102701 0.018853382918350887 -0.11569714173946755
leaf_weight=3.4089890569448444 18.539959132671356 4.9833715260028821 35.907348617911339 4.4889360070228568 67.367019012570381 7.0678283572196978 2.8939712345600146 2.4875465333461753 51.879109680652618 4.925189405679701 3.7945224195718747 3.3941415548324576 6.9150979965925217 3.858807951211932 2.991417944431304 36.481193706393242 8.6072973012924177 2.7227258682250977 3.6410387754440308 21.93223774433136 5.1991860866546631 3.3247863203287125 12.715626165270804 8.4354069232940674 3.4654420763254166 5.0726063549518585 7.3525417000055295 24.731849998235703 4.7346932888031006 2.4404792934656134
leaf_count=15 75 22 157 18 296 29 12 10 213 20 17 14 30 16 13 153 35 12 15 96 22 14 51 37 15 21 30 105 20 10
internal_value=-8.0726e-05 0.00565646 -0.0117591 0.034453 0.0392684 0.0128923 0.0255046 -0.0247744 -0.0308862 -0.0192888 0.0408189 -0.00732849 0.0351351 -0.0515431 -0.0407221 -0.01201 -0.0544259 -0.0231234 -0.0642178 0.0592134 0.0248098 -0.0298532 -0.08729 0.0349248 -0.00213429 0.0244508 -0.00889574 -0.00274163 -0.041234 -0.0201702
internal_weight=375.76 357.22 222.591 134.63 130.141 62.7739 57.6074 164.983 149.673 21.7001 44.3761 12.2613 9.80907 71.445 54.8705 78.2283 18.3979 9.79055 11.891 32.1148 10.1826 6.96583 16.5744 15.3098 6.87443 8.86713 75.7408 63.6535 12.0872 38.9217
internal_count=1593 1518 936 582 564 268 248 688 621 91 192 52 42 293 226 328 76 41 49 140 44 29 67 67 30 38 318 268 50 163
is_linear=0
shrinkage=0.05


Tree=4
num_leaves=31
num_cat=0
split_feature=26 8 10 14 22 13 9 30 4 7 23 24 6 7 6 33 28 24 32 28 4 4 30 2 4 21 7 32 30 8
split_gain=85.4531 65.5402 39.0814 33.0796 35.1729 31.2365 25.676 23.3335 21.7582 19.1271 15.5589 17.8412 17.2705 16.1792 13.9015 19.5735 13.1084 11.5038 13.1315 11.0695 10.7238 10.2568 9.78563 8.31728 18.3766 8.05021 7.61383 7.51594 9.55616 7.25562
threshold=1.0000000180025095e-35 1.5000000000000002 2.5000000000000004 1.0000000180025095e-35 1.0000000180025095e-35 2.5000000000000004 2.5000000000000004 0.45220861134162554 1.5000000000000002 2.5000000000000004 1.0000000180025095e-35 1.0000000180025095e-35 1.5000000000000002 3.5000000000000004 2.5000000000000004 2.5000000000000004 2.2916666666666674 1.0000000180025095e-35 1.0000000180025095e-35 2.7083333333333335 2.5000000000000004 1.5000000000000002 0.45220861134162554 2.4166666666666674 2.5000000000000004 2.5000000000000004 1.5000000000000002 1.0000000180025095e-35 0.48570226039551589 2.5000000000000004
decision_type=2 2 2 2 2 2 2 2 2 2 2 2 2 2 2 2 2 2 2 2 2 2 2 2 2 2 2 2 2 2
left_child=1 2 8 4 7 -5 -4 21 27 19 13 12 -12 17 29 16 20 18 -10 -8 -16 -3 23 24 -19 -24 -22 -1 -29 -6
right_child=-2 3 6 5 14 -7 9 -9 10 -11 11 -13 -14 -15 15 -17 -18 22 -20 -21 26 -23 25 -25 -26 -27 -28 28 -30 -31
leaf_value=0.063849030209599908 -0.10427356325112187 0.074323946322016568 0.050774357839582819 -0.097599771789910084 0.074336583430556699 0.066758951333750996 0.075404993503711243 -0.10381663290037065 0.024852277118104549 -0.060641124007342645 0.0042769870586411322 -0.099604788183908541 -0.092274935767255012 0.060197893498454114 0.057348192790021096 0.069354407414426472 -0.08125711930842909 0.030835369750989623 -0.046278758216838474 -0.034639787974621049 0.044423721016079984 -0.026567538652587055 -0.094513945580132708 0.028516660204382038 -0.090212861978361716 -0.03836457466541595 -0.056265073330571569 -0.063272426305638799 0.058988605257116571 0.033989394300174884
leaf_weight=8.709633603692053 18.6768549233675 4.6408513784408587 35.344327166676521 8.6290046423673612 52.583937019109726 4.3325277715921393 6.0326482206583041 6.1317476630210868 20.086764588952065 11.960334151983259 13.83554367721081 14.997524097561834 6.9446755796670905 5.9133895784616461 8.0481653660535848 15.824635520577429 4.369493141770362 5.9075814783573168 9.5711985677480715 3.6603077203035355 2.7835409790277481 5.478484719991684 7.3538993597030631 9.6041553169488889 6.6518723368644714 49.153389930725098 5.6993345767259598 3.4882509261369696 2.931149885058403 14.235856756567953
leaf_count=39 75 21 157 35 236 19 27 25 85 49 58 60 28 26 36 71 18 25 40 15 12 23 30 41 27 201 24 15 13 62
internal_value=-5.88621e-05 0.00542682 -0.0111818 0.0332209 0.041433 -0.0426135 0.0245091 -0.0269208 -0.0235035 -0.0183438 -0.0292688 -0.0580463 -0.0279951 -0.0202478 0.0521673 0.0274212 -0.00432224 -0.0246489 0.0018722 0.0338049 0.0160198 0.0196809 -0.0346523 -0.00646499 -0.0332565 -0.0456962 -0.0231531 0.0336145 -0.00736437 0.0657545
internal_weight=373.581 354.904 222.147 132.758 119.796 12.9615 56.9976 16.2511 165.149 21.6533 150.02 35.7777 20.7802 114.242 103.545 36.7252 20.9005 108.329 29.658 9.69296 16.531 10.1193 78.6709 22.1636 12.5595 56.5073 8.48288 15.129 6.4194 66.8198
internal_count=1593 1518 936 582 528 54 248 69 688 91 621 146 86 475 459 161 90 449 125 42 72 44 324 93 52 231 36 67 28 298
is_linear=0
shrinkage=0.05


Tree=5
num_leaves=31
num_cat=0
split_feature=26 10 4 11 4 22 7 4 8 6 10 10 2 2 4 22 21 14 5 3 25 6 2 1 23 24 2 11 3 4
split_gain=73.976 63.1806 47.413 31.3774 24.5856 17.8921 17.7499 16.0203 14.9384 22.9876 14.97 14.6542 13.8123 13.3409 12.7447 10.2203 14.3608 9.94912 10.8362 9.8549 9.57056 12.0469 9.27766 12.8432 9.22058 8.02541 7.50813 6.76615 15.5932 5.80173
threshold=1.0000000180025095e-35 2.5000000000000004 1.5000000000000002 1.0000000180025095e-35 4.5000000000000009 1.0000000180025095e-35 2.5000000000000004 4.5000000000000009 1.5000000000000002 2.5000000000000004 1.5000000000000002 3.5000000000000004 2.4166666666666674 3.4166666666666674 3.5000000000000004 3.5000000000000004 3.5000000000000004 1.5000000000000002 1.5000000000000002 1.5000000000000002 1.0000000180025095e-35 1.5000000000000002 2.4166666666666674 6.5000000000000009 1.0000000180025095e-35 1.5000000000000002 2.8750000000000004 2.5000000000000004 2.5000000000000004 2.5000000000000004
decision_type=2 2 2 2 2 2 2 2 2 2 2 2 2 2 2 2 2 2 2 2 2 2 2 2 2 2 2 2 2 2
left_child=1 2 20 4 5 -4 22 17 12 -10 19 -9 15 -6 24 29 -17 27 -19 -11 -1 -22 23 -5 -8 -24 -14 -3 -29 -7
right_child=-2 7 3 6 13 8 14 11 9 10 -12 -13 26 -15 -16 16 -18 18 -20 -21 21 -23 25 -25 -26 -27 -28 28 -30 -31
leaf_value=0.052762852139302041 -0.099577798897439784 0.063603032778900129 -0.063060655756075348 -0.041500076675210051 -0.08129862751199593 -0.0091439894836246264 0.04251884283089194 0.074545946664685281 0.070283344529625022 0.014562043515314153 0.065146527703853027 -0.074462345318732553 0.042863750797160129 0.021197078600700352 -0.06695097758871317 0.069455048526776392 -0.064534141642453385 0.058848371651617493 -0.044109135050631139 -0.077493505377237371 0.072299231549406914 -0.043698221682426444 -0.040366404313995248 -0.090721799441652928 -0.062764481571520217 0.077044156610378486 -0.0259288321177303 0.074320775477847184 -0.052566077059501295 -0.054409389239179422
leaf_weight=35.008118525147438 17.45424222946167 57.521341189742088 8.0458033233880979 44.851154610514641 12.795805409550669 12.689388871192934 12.760739758610727 2.4261933118104926 23.280778601765633 5.1453057974576968 5.100415810942649 5.0944216996431351 19.06198558211327 4.2071773856878272 4.9421226382255545 6.1840159296989423 2.9408949613571167 4.7993870526552183 5.4419723451137543 6.6428465843200684 3.4333605021238309 6.3839055746793747 3.4360002726316443 18.871906444430351 2.4716727435588828 2.5077932775020599 4.9909061938524237 5.5019867867231351 4.3051052093505859 16.10052952170372
leaf_count=160 70 263 33 183 52 53 56 11 106 22 23 21 82 18 20 27 12 21 23 27 16 26 14 76 10 11 21 25 18 66
internal_value=0.000830509 0.00588608 -0.00627567 -0.0159469 2.83537e-05 0.00866943 -0.0385656 0.0433142 0.0143304 0.0380768 -0.00630555 -0.0262899 -0.00105822 -0.0559104 0.00270934 -0.019866 0.0261932 0.0500715 0.00410119 -0.0372923 0.0405306 -0.00304764 -0.0505241 -0.0560971 0.0253724 0.00913344 0.0285639 0.057055 0.0185724 -0.0344858
internal_weight=364.397 346.943 261.853 217.027 127.186 110.183 89.8414 85.0904 102.137 40.1693 16.8886 7.52062 61.9677 17.003 20.1745 37.9148 9.12491 77.5698 10.2414 11.7882 44.8254 9.81727 69.6669 63.7231 15.2324 5.94379 24.0529 67.3284 9.80709 28.7899
internal_count=1566 1496 1114 912 542 472 370 382 439 178 72 32 261 70 86 158 39 350 44 49 202 42 284 259 66 25 103 306 43 119
is_linear=0
shrinkage=0.05


Tree=6
num_leaves=31
num_cat=0
split_feature=26 10 8 6 10 22 18 11 28 7 19 11 13 22 7 32 9 1 11 9 9 32 1 3 3 21 8 32 0 5
split_gain=67.0282 58.0814 39.6095 43.3366 20.8846 15.4921 14.6736 12.2008 12.125 12.0345 11.8099 10.952 17.1891 9.82306 9.23916 8.56655 8.76873 7.7626 7.75987 7.02137 8.99469 7.13731 6.87234 8.95604 7.2775 7.20334 6.59898 6.22131 6.23755 5.95879
threshold=1.0000000180025095e-35 2.5000000000000004 1.5000000000000002 2.5000000000000004 1.5000000000000002 1.0000000180025095e-35 2.5000000000000004 1.0000000180025095e-35 2.4166666666666674 3.5000000000000004 2.5000000000000004 2.5000000000000004 3.5000000000000004 1.0000000180025095e-35 2.5000000000000004 1.0000000180025095e-35 1.5000000000000002 3.5000000000000004 1.0000000180025095e-35 1.5000000000000002 2.5000000000000004 1.0000000180025095e-35 7.5000000000000009 2.5000000000000004 2.5000000000000004 3.5000000000000004 2.5000000000000004 1.5000000000000002 5.0000000000000009 1.0000000180025095e-35
decision_type=2 2 2 2 2 2 2 2 2 2 2 2 2 2 2 2 2 2 2 2 2 2 2 2 2 2 2 2 2 2
left_child=1 2 5 13 -5 -1 8 15 27 19 -8 12 -10 17 18 16 29 -4 -6 -9 -21 -22 24 25 -17 -24 -15 -3 -29 -7
right_child=-2 6 3 4 14 7 10 9 11 -11 -12 -13 -14 26 -16 22 -18 -19 -20 20 21 -23 23 -25 -26 -27 -28 28 -30 -31
leaf_value=-0.093794080245166125 -0.094897538233847223 0.063515624062713258 0.040947310365273028 -0.055982700606891513 0.051976349671792821 0.032076130007777752 -0.098006665883854774 -0.052986256694480885 0.064769430879631593 0.0345924851255692 0.042885985591179232 -0.077488204601066979 -0.056658758411028368 0.065026021557345839 0.066404989507096959 -0.025564873208855234 0.074698762563277829 -0.044375811446756813 -0.062749928456894186 0.004010500783586504 -0.067877359759421149 -0.0012572426627477404 0.022969724412844721 0.07854842434508047 -0.10285921625792636 -0.067343424291009563 0.024141996489399284 -0.029585218455669273 0.073353236315838247 -0.0082726430456286307
leaf_weight=6.9531510174274436 17.40083672106266 54.600177377462387 5.7293772101402265 21.201346218585968 2.3803155124187452 11.983442053198813 3.2394291311502448 36.121496126055717 9.7972252219915408 6.2939249724149695 2.7289531677961349 2.9300393909215918 4.1338980644941321 36.940094828605652 6.539711207151413 8.8886343985795992 4.4149368256330481 4.9670132398605347 3.8265929222106934 17.420528069138527 12.329083472490312 5.9867976009845725 4.1936897188425046 2.7674988508224478 4.6504023671150199 4.6302619874477386 13.549964264035223 3.7686410248279563 2.3980070054531097 38.576338961720467
leaf_count=28 70 255 26 87 11 53 13 147 45 28 12 12 17 172 30 37 20 21 16 73 50 25 18 12 19 19 60 17 11 162
internal_value=0.000812813 0.00565911 -0.00598255 0.0197142 -0.0255769 -0.020783 0.0419172 -0.0175664 0.0477285 -0.0316214 -0.033538 0.0101713 0.0286864 0.0448512 0.0249617 -0.00384563 0.00720254 0.00127523 -0.0186598 -0.0374319 -0.0216855 -0.0461415 -0.0280274 0.000192616 -0.0522072 -0.024387 0.0540709 0.058138 0.0104172 0.0012852
internal_weight=361.342 343.941 260.345 95.1344 33.948 165.21 83.5964 158.257 77.628 78.1518 5.96838 16.8612 13.9311 61.1864 12.7466 80.1052 54.9747 10.6964 6.20691 71.8579 35.7364 18.3159 25.1305 11.5915 13.539 8.82395 50.4901 60.7668 6.16665 50.5598
internal_count=1566 1496 1114 423 144 691 382 663 357 323 25 74 62 279 57 340 235 47 27 295 148 75 105 49 56 37 232 283 28 215
is_linear=0
shrinkage=0.05


Tree=7
num_leaves=31
num_cat=0
split_feature=26 10 4 11 4 22 7 4 2 7 10 28 2 4 21 33 4 5 11 13 25 6 23 2 1 24 2 2 6 33
split_gain=60.9948 53.4774 40.6959 26.0704 21.2934 15.1691 14.8326 13.9478 12.6408 14.0797 12.4804 11.933 11.8139 11.8006 13.1667 12.1323 10.9939 10.1323 9.91682 14.5452 8.62832 10.8415 8.40578 8.14789 11.5156 7.15297 5.92006 5.71701 6.06911 7.42769
threshold=1.0000000180025095e-35 2.5000000000000004 1.5000000000000002 1.0000000180025095e-35 4.5000000000000009 1.0000000180025095e-35 2.5000000000000004 4.5000000000000009 2.4166666666666674 3.5000000000000004 3.5000000000000004 2.4166666666666674 3.4166666666666674 2.5000000000000004 3.5000000000000004 1.5000000000000002 3.5000000000000004 1.0000000180025095e-35 2.5000000000000004 3.5000000000000004 1.0000000180025095e-35 1.5000000000000002 1.0000000180025095e-35 2.4166666666666674 6.5000000000000009 1.5000000000000002 2.2916666666666674 1.8750000000000002 1.5000000000000002 1.5000000000000002
decision_type=2 2 2 2 2 2 2 2 2 2 2 2 2 2 2 2 2 2 2 2 2 2 2 2 2 2 2 2 2 2
left_child=1 2 20 4 5 -4 23 11 9 13 -9 -3 -6 14 26 -15 22 -17 19 -13 -1 -22 -8 24 -5 -25 27 28 -7 -30
right_child=-2 7 3 6 12 8 16 10 -10 -11 -12 18 -14 15 -16 17 -18 -19 -20 -21 21 -23 -24 25 -26 -27 -28 -29 29 -31
leaf_value=0.050244199352961864 -0.090848227526750744 0.05785956103453356 -0.057706321404651775 -0.037499577015386386 -0.075758625259534196 0.058265221663402145 0.040775409709809196 0.071419496367069568 0.036834839949312609 -0.094051478962518087 -0.068431709610415808 0.062849291205241395 0.020812774224956459 -0.066724314318305653 -0.052841489103666477 0.073533408722342986 -0.061720236177932722 -0.015939917240055376 -0.073211958153641829 -0.047442049211253057 0.070208820622863696 -0.041153705396321155 -0.059819676949595335 -0.036149372204517034 -0.084102169404506627 0.075274075054955092 -0.034792343793655763 0.065248842395939449 -0.088183914210192893 0.025670109434677832
leaf_weight=33.895579129457474 17.2711121737957 57.911208093166351 8.0657739341258985 45.017662882804871 12.815358415246012 5.1572032272815758 12.533666983246805 2.3076793551444998 36.820704385638237 3.7320394515991202 5.0982891917228699 9.3715502172708529 4.1906157284975043 8.8599232733249682 4.6025313884019843 4.1172888576984432 4.9518751651048651 13.539126038551329 2.9462401866912833 4.3737867176532736 3.3044540137052518 6.4042081236839294 2.4760661572217932 3.4605010449886313 18.848253861069679 2.4501764625310898 2.5287489742040625 15.092407897114752 2.2193642407655716 3.9900154620409012
leaf_count=160 70 276 33 183 52 23 56 11 163 15 21 44 18 36 19 19 20 57 12 18 16 26 10 14 76 11 11 69 9 18
internal_value=0.000792988 0.00543734 -0.00570022 -0.0146168 7.29293e-05 0.00821607 -0.0352018 0.0406245 0.0135086 4.2998e-05 -0.0247495 0.0471234 -0.0519339 0.00590835 0.0255953 -0.019012 0.00277941 0.00492583 0.00983235 0.0277091 0.0383428 -0.00316551 0.0241188 -0.0460734 -0.0512719 0.0100041 0.0380802 0.0450742 0.0182089 -0.0150197
internal_weight=358.353 341.082 259.074 215.469 125.731 108.725 89.7382 82.0088 100.659 63.8386 7.40597 74.6028 17.006 60.1066 33.5903 26.5163 19.9616 17.6564 16.6916 13.7453 43.6042 9.70866 15.0097 69.7766 63.8659 5.91068 28.9877 26.459 11.3666 6.20938
internal_count=1566 1496 1114 912 542 472 370 382 439 276 32 350 70 261 149 112 86 76 74 62 202 42 66 284 259 25 130 119 50 27
is_linear=0
shrinkage=0.05


Tree=8
num_leaves=31
num_cat=0
split_feature=26 10 4 23 8 14 22 7 24 4 28 10 28 24 32 11 13 5 1 33 24 30 30 21 5 1 30 4 4 2
split_gain=55.7186 49.2662 37.216 24.0208 16.4807 19.5944 22.545 18.2068 13.1518 12.8958 11.393 11.3733 11.1948 9.1743 10.4688 8.99041 13.3856 8.98568 11.134 8.48915 14.1959 8.04996 6.46373 10.5003 10.1188 5.6553 5.62295 5.26433 5.75185 4.93132
threshold=1.0000000180025095e-35 2.5000000000000004 1.5000000000000002 1.0000000180025095e-35 1.5000000000000002 1.5000000000000002 1.0000000180025095e-35 3.5000000000000004 1.0000000180025095e-35 4.5000000000000009 1.5833333333333337 3.5000000000000004 2.4166666666666674 1.0000000180025095e-35 1.0000000180025095e-35 2.5000000000000004 3.5000000000000004 1.0000000180025095e-35 5.5000000000000009 1.5000000000000002 1.0000000180025095e-35 0.76180168105713697 0.45220861134162554 2.5000000000000004 1.5000000000000002 4.5000000000000009 0.76180168105713697 3.5000000000000004 2.5000000000000004 2.4166666666666674
decision_type=2 2 2 2 2 2 2 2 2 2 2 2 2 2 2 2 2 2 2 2 2 2 2 2 2 2 2 2 2 2
left_child=1 2 19 4 7 6 25 13 10 12 17 -11 -3 14 -4 16 -14 -5 -19 -1 -21 -8 24 -24 -15 -6 -16 28 -26 -23
right_child=-2 9 3 8 5 -7 21 -9 -10 11 -12 -13 15 22 26 -17 -18 18 -20 20 -22 29 23 -25 27 -27 -28 -29 -30 -31
leaf_value=0.068014207071725438 -0.087313440077476948 0.056316782942766569 0.023378155231846845 0.078185614588091923 -0.013430842448172255 -0.055662045181095167 0.057375600280608265 0.059932583413396183 -0.087625475632152505 0.069913017094745053 -0.084733773484129721 -0.064895945935610155 0.061187420952805917 -0.080771754815028421 -0.016971625375350446 -0.069379941811597651 -0.044826283260538814 0.023006369741237428 -0.071140508730326638 -0.03522301004765796 0.043348437135790674 0.0032489556105904033 -0.091898498026051142 -0.030925923351359352 0.022150645139018151 -0.10129162620115591 -0.10668856094490749 0.037031148082988352 -0.051154101762533537 0.073256933389402451
leaf_weight=14.618396699428557 17.076962843537331 56.557620704174042 18.927103027701378 2.7642244994640359 3.9174178689718238 8.4990435689687711 26.159853100776672 7.1429571807384482 14.681459933519362 2.241430088877677 5.9496537297964087 5.1075124144554138 9.1506815850734728 3.9446088671684292 5.9065859615802783 2.9538383930921546 4.3974975049495688 6.6683290898799896 5.9110477268695831 8.0138636976480502 20.23139700293541 15.808370500802996 8.1791100502014142 52.036208644509315 5.1204977482557315 3.4606311321258545 2.48355433344841 8.2890493571758253 5.5724916458129883 2.9857907295227042
leaf_count=71 70 276 82 12 16 35 124 33 60 11 24 21 44 16 25 12 18 28 24 35 96 70 33 211 22 14 10 36 23 14
internal_value=0.0007734 0.00523201 -0.00544354 -0.0139483 -0.00642928 0.0146931 0.0261371 -0.0173596 -0.0512164 0.0393917 -0.0260599 -0.0236721 0.0457443 -0.0223673 0.00275427 0.00946679 0.0267327 -0.00323558 -0.0212149 0.0370798 0.0210335 0.0394397 -0.0306266 -0.0392301 -0.00800121 -0.0547904 -0.0436835 0.00712929 -0.0160164 0.0144306
internal_weight=354.757 337.68 257.272 214.408 178.433 60.8311 52.3321 117.602 35.9747 80.4086 21.2933 7.34894 73.0596 110.459 27.3172 16.502 13.5482 15.3436 12.5794 42.8637 28.2453 44.954 83.142 60.2153 22.9266 7.37805 8.39014 18.982 10.693 18.7942
internal_count=1566 1496 1114 912 764 273 238 491 148 382 88 32 350 458 117 74 62 64 52 202 131 208 341 244 97 30 35 81 45 84
is_linear=0
shrinkage=0.05


Tree=9
num_leaves=31
num_cat=0
split_feature=26 4 2 4 29 21 3 2 4 28 23 5 7 1 28 11 9 5 1 2 28 24 5 28 13 32 11 7 11 1
split_gain=51.0676 41.625 35.5951 32.5507 23.2824 15.1744 19.8471 14.0572 15.3779 10.8838 10.2777 11.6383 10.1519 15.957 9.92759 7.95421 15.1143 6.67787 6.08131 14.6483 11.8476 8.19446 5.31642 5.22271 6.20679 4.97777 4.96135 4.90425 4.59721 4.12825
threshold=1.0000000180025095e-35 2.5000000000000004 2.4166666666666674 4.5000000000000009 3.5000000000000004 3.5000000000000004 2.5000000000000004 1.7083333333333337 1.5000000000000002 2.4166666666666674 1.0000000180025095e-35 1.0000000180025095e-35 2.5000000000000004 6.5000000000000009 1.7083333333333337 1.0000000180025095e-35 1.5000000000000002 1.0000000180025095e-35 9.5000000000000018 2.8750000000000004 1.7916666666666667 1.0000000180025095e-35 1.0000000180025095e-35 2.4166666666666674 3.5000000000000004 1.5000000000000002 1.5000000000000002 2.5000000000000004 1.0000000180025095e-35 5.5000000000000009
decision_type=2 2 2 2 2 2 2 2 2 2 2 2 2 2 2 2 2 2 2 2 2 2 2 2 2 2 2 2 2 2
left_child=1 4 15 18 5 7 -7 8 -1 10 25 -12 13 -5 -15 16 17 -3 19 21 -21 -4 -22 -20 -25 -9 29 -17 -10 -11
right_child=-2 2 3 12 -6 6 -8 9 28 26 11 -13 -14 14 -16 27 -18 -19 23 20 22 -23 -24 24 -26 -27 -28 -29 -30 -31
leaf_value=0.043942775488373303 -0.084203862098754398 0.03813859228148634 0.063624594829246373 -0.078588094847832871 -0.067293402210461276 -0.053462552317547984 0.051466662776609474 0.056526867383082019 0.01021010237510714 -0.017481668740214899 0.073552573180052191 -0.042191034630118224 -0.068437062153428374 -0.03919375062339496 0.062450023482161811 -0.057328510897894674 0.055599626423185125 -0.045851626748728641 0.071107900700135881 -0.1151827714483656 0.056114217353601739 0.011506440129135417 -0.029633939802237993 0.054805539642097181 -0.029162297926035963 -0.020736663427978582 -0.06114019284136793 0.016970156173174582 -0.029910007520120248 0.072721093145994661
leaf_weight=19.919394791126251 16.828770205378532 2.6493654251098695 13.533946648240091 5.4440387934446344 6.9346804320812216 12.371822252869608 7.072500765323638 74.707868665456772 12.312768623232843 3.1816924512386304 3.3664593845605832 6.0772596597671509 13.216421544551849 3.6874672621488553 6.8324693590402603 40.051035478711128 5.4642982035875312 21.217190906405449 12.132864698767664 3.1035601496696463 2.7410195469856244 17.096221596002579 5.2610153257846832 5.4403913766145688 3.6747113317251205 2.1300484091043463 3.1220073252916336 2.3363188207149497 16.9277673214674 2.0899311453104019
leaf_count=97 70 12 62 22 29 52 34 363 54 13 16 26 55 15 31 164 26 87 59 13 13 78 22 26 15 10 13 10 69 10
internal_value=0.000753692 0.00503698 -0.0129471 0.00760416 0.0223547 0.0261691 -0.015264 0.0317744 0.0100663 0.0430387 0.0483269 -0.000844166 -0.036036 -0.00915412 0.0267708 -0.0393615 -0.0193078 -0.0364951 0.0278331 0.0167227 -0.0324281 0.0345644 -0.000165956 0.0496148 0.0209046 0.0543761 -0.0112545 -0.0532185 -0.0130012 0.0182545
internal_weight=350.925 334.097 163.882 92.1641 170.214 163.28 19.4443 143.835 49.1599 94.6753 86.2816 9.44372 29.1804 15.964 10.5199 71.7182 29.3309 23.8666 62.9837 41.7358 11.1056 30.6302 8.00203 21.248 9.1151 76.8379 8.39363 42.3874 29.2405 5.27162
internal_count=1566 1496 710 411 786 757 86 671 220 451 415 42 123 68 46 299 125 99 288 188 48 140 35 100 41 373 36 174 123 23
is_linear=0
shrinkage=0.05


Tree=10
num_leaves=31
num_cat=0
split_feature=26 23 4 1 4 28 5 7 28 21 2 1 4 1 28 33 32 10 7 31 33 2 8 32 24 1 7 4 2 30
split_gain=46.9384 41.1281 34.5081 23.1364 27.126 17.96 16.3714 15.0227 13.3371 12.6258 16.1966 14.0382 10.6975 8.59122 7.88706 7.55681 6.32308 5.71522 5.71021 13.618 5.67036 4.16014 9.90641 9.38729 6.82572 6.48126 7.36659 3.67004 3.25164 3.0768
threshold=1.0000000180025095e-35 1.0000000180025095e-35 2.5000000000000004 7.5000000000000009 4.5000000000000009 1.5833333333333337 1.0000000180025095e-35 2.5000000000000004 2.4166666666666674 3.5000000000000004 1.7083333333333337 9.5000000000000018 1.5000000000000002 4.5000000000000009 1.7083333333333337 2.5000000000000004 1.0000000180025095e-35 2.5000000000000004 2.5000000000000004 1.0000000180025095e-35 1.5000000000000002 2.4166666666666674 1.5000000000000002 1.0000000180025095e-35 1.5000000000000002 5.5000000000000009 1.5000000000000002 4.5000000000000009 2.1250000000000004 0.45220861134162554
decision_type=2 2 2 2 2 2 2 2 2 2 2 2 2 2 2 2 2 2 2 2 2 2 2 2 2 2 2 2 2 2
left_child=1 2 8 21 15 6 -3 14 9 10 12 -11 -1 -10 -6 16 -5 -18 28 -20 -8 22 29 25 -24 -23 -27 -28 -15 -4
right_child=-2 5 3 4 7 -7 20 -9 13 11 -12 -13 -14 18 -16 -17 17 -19 19 -21 -22 23 24 -25 -26 26 27 -29 -30 -31
leaf_value=0.041994760367679539 -0.081322791539240324 0.048072810832834163 -0.080532480255844113 0.046814206788708346 -0.033173556161478511 -0.083436931815082188 -0.0066525733529995985 -0.066917044289426603 -0.070209601264723295 -0.064347094326015208 0.052878205088295584 0.050898595330354734 -0.0077461600937841768 0.074499947767416655 0.073130140768277771 0.048980935751204289 0.017154458088831828 -0.084769892674348687 0.048442241645700691 -0.063486928224509076 -0.064275393810942313 0.033773464214019999 0.057314685649539954 -0.092052755178687301 -0.019088216588667856 -0.069878141172279515 -0.019315708590321334 0.05717890496751106 0.0016261976893044889 -0.041550457446480324
leaf_weight=19.510744526982307 16.752540335059166 7.1579682677984264 6.1820562630891791 3.898857116699217 3.1873047500848779 16.125856459140778 7.1188653111457834 12.272345781326294 4.4634688943624523 6.4952681064605695 73.899658814072609 4.4369250386953354 24.186014637351036 3.793610721826556 3.8229825794696808 33.383217573165894 2.6037219762802124 2.8829726427793503 4.8328448534011823 6.176950678229332 10.743632882833481 9.5915997922420555 3.7948015928268441 2.9124246239662162 12.602867856621742 4.6904917657375318 3.758806511759758 2.6697264760732651 2.5862672924995422 29.202913239598274
leaf_count=97 71 34 25 19 13 67 30 51 18 27 366 21 102 18 18 159 12 14 22 26 45 43 19 12 54 19 16 12 12 118
internal_value=0.000291291 0.0044511 0.0111369 -0.00696797 0.0156388 -0.0422988 -0.0157422 -0.0335702 0.0276885 0.0338287 0.038608 -0.0175242 0.0144564 -0.00840144 0.0247484 0.0378394 -0.00174657 -0.0363673 0.00746558 -0.0143099 -0.0413551 -0.0255773 -0.0335117 -0.00815692 -0.00135218 0.0036555 -0.0222872 0.0124138 0.0450855 -0.0483959
internal_weight=345.738 328.985 287.839 137.457 62.0514 41.1463 25.0205 19.2826 150.382 128.529 117.596 10.9322 43.6968 21.8531 7.01029 42.7688 9.38555 5.48669 17.3897 11.0098 17.8625 75.4057 51.7826 23.623 16.3977 20.7106 11.119 6.42853 6.37988 35.385
internal_count=1560 1489 1313 604 286 176 109 82 709 613 565 48 199 96 31 204 45 26 78 48 75 318 216 102 73 90 47 28 30 143
is_linear=0
shrinkage=0.05


Tree=11
num_leaves=31
num_cat=0
split_feature=4 23 8 22 14 13 6 24 13 30 5 4 6 2 33 25 5 28 32 1 5 28 22 33 1 21 28 7 3 28
split_gain=39.6479 33.2076 15.5633 25.6266 24.2506 19.0241 14.419 13.2481 11.6228 9.79844 9.6654 10.7443 12.583 10.5723 9.79837 9.24467 14.4622 8.4305 8.19954 9.03938 7.54405 7.95189 6.88632 6.70896 6.49182 6.43672 13.1363 5.71706 5.66374 5.66319
threshold=1.5000000000000002 1.0000000180025095e-35 1.5000000000000002 1.0000000180025095e-35 1.5000000000000002 2.5000000000000004 1.5000000000000002 1.0000000180025095e-35 4.5000000000000009 0.76180168105713697 3.5000000000000004 2.5000000000000004 2.5000000000000004 1.7083333333333337 2.5000000000000004 1.0000000180025095e-35 1.5000000000000002 2.5833333333333335 1.0000000180025095e-35 5.5000000000000009 1.5000000000000002 1.4166666666666667 1.5000000000000002 3.5000000000000004 4.5000000000000009 3.5000000000000004 2.0833333333333335 2.5000000000000004 1.5000000000000002 2.2916666666666674
decision_type=2 2 2 2 2 2 2 2 2 2 2 2 2 2 2 2 2 2 2 2 2 2 2 2 2 2 2 2 2 2
left_child=15 2 8 -4 9 -6 7 -3 10 -5 11 13 20 29 18 -1 24 25 19 -14 21 -13 27 -16 -17 -15 -27 -11 -21 -2
right_child=1 6 3 4 5 -7 -8 -9 -10 22 -12 12 14 17 23 16 -18 -19 -20 28 -22 -23 -24 -25 -26 26 -28 -29 -30 -31
leaf_value=0.049443813625019567 -0.012248062486524694 0.005384521518608805 -0.058464749776797525 0.055408903666086841 -0.076620422264915181 0.077516204021017332 -0.078351073958706094 -0.081417428356680324 0.072564603621311383 -0.017696246587406182 -0.08039970007845916 -0.019815671909031652 0.05317966911693487 0.041228914313174686 0.070531039123656797 -0.023312243356246747 -0.1093193992451867 -0.063178264995921871 -0.062822094759216782 -0.077554986665328451 -0.021214463820971492 -0.086554147206143184 0.057043930590313069 -0.00099887147512006517 0.064448853233891573 -0.058106422111989332 0.073716888718404011 0.042413425118374759 0.018181168746514164 -0.093659149101217365
leaf_weight=43.954874485731125 14.974325358867647 15.247281193733217 9.8877920359373075 37.557996585965157 8.5895321369171125 2.5975305289030066 20.447805568575859 6.1606828570365897 4.2070151865482321 13.536084830760961 4.9276614040136328 7.6142613440752056 5.6263199001550728 27.120789512991905 7.4373609870672208 3.5496175587177259 2.4244019836187354 2.6222171634435645 6.4184933155775061 3.4011259824037552 45.437898844480515 10.879244044423102 7.2551331222057334 5.8306331038475037 5.1384000182151794 5.119714215397833 2.9809977561235428 5.5772338211536399 2.8054934591054916 2.4874028563499442
leaf_count=226 61 66 41 192 36 12 87 26 20 61 21 32 25 131 37 15 10 11 26 14 194 45 37 25 25 21 14 27 12 10
internal_value=0.000288726 -0.00717258 -0.000135387 0.0171489 0.0271156 -0.0407494 -0.0483244 -0.0195979 -0.00932767 0.0390042 -0.0115484 -0.00928936 -0.0194507 0.00823926 0.00638963 0.0391448 -0.00155556 0.0230939 -0.0173576 0.00729352 -0.0321973 -0.0591287 0.0156071 0.0390824 0.0285497 0.0295472 -0.00950376 -0.000117194 -0.0342406 -0.0239206
internal_weight=341.815 286.748 244.892 85.0013 75.1135 11.1871 41.8558 21.408 159.891 63.9264 155.684 150.756 95.4508 55.3054 31.5194 55.0673 11.1124 37.8437 18.2514 11.8329 63.9314 18.4935 26.3685 13.268 8.68802 35.2215 8.10071 19.1133 6.20662 17.4617
internal_count=1560 1284 1105 406 365 48 179 92 699 317 679 658 410 248 139 276 50 177 77 51 271 77 125 62 40 166 35 88 26 71
is_linear=0
shrinkage=0.05


Tree=12
num_leaves=31
num_cat=0
split_feature=26 23 4 1 4 28 5 7 28 21 2 11 1 11 10 22 28 11 9 11 9 9 33 1 7 1 28 2 2 7
split_gain=40.6992 34.3919 29.3938 19.7824 23.2292 15.7964 14.481 12.8974 11.7382 11.0477 14.699 17.5623 11.8558 7.24149 11.6657 6.96591 6.9319 6.90476 6.80696 8.71934 5.56498 5.38117 5.00285 4.81213 4.1741 4.06668 4.51727 3.93482 4.84879 7.13434
threshold=1.0000000180025095e-35 1.0000000180025095e-35 2.5000000000000004 7.5000000000000009 4.5000000000000009 1.5833333333333337 1.0000000180025095e-35 2.5000000000000004 2.4166666666666674 3.5000000000000004 1.7083333333333337 1.5000000000000002 9.5000000000000018 2.5000000000000004 1.5000000000000002 1.0000000180025095e-35 1.7083333333333337 1.5000000000000002 1.5000000000000002 1.5000000000000002 1.5000000000000002 1.5000000000000002 1.5000000000000002 4.5000000000000009 2.5000000000000004 6.5000000000000009 1.5833333333333337 2.2916666666666674 2.8750000000000004 1.5000000000000002
decision_type=2 2 2 2 2 2 2 2 2 2 2 2 2 2 2 2 2 2 2 2 2 2 2 2 2 2 2 2 2 2
left_child=1 2 8 17 18 6 -3 16 9 10 11 -1 -11 14 -10 -12 -6 21 19 -5 -13 27 -8 -22 25 26 -19 -4 -29 -30
right_child=-2 5 3 4 7 -7 22 -9 13 12 15 20 -14 -15 -16 -17 -18 24 -20 -21 23 -23 -24 -25 -26 -27 -28 28 29 -31
leaf_value=0.046073696997915317 -0.077189977603620827 0.046740506095941839 -0.038741284417967814 0.031690818309176187 -0.030010928754001433 -0.078376961342682322 -0.0056054706705362745 -0.062174245380946104 -0.029583691520451195 -0.05906911195615952 -0.021159873830124395 -0.050494451784087339 0.048156104910491743 -0.089396229598878538 0.050556477750996726 0.05382799066193257 0.070618646294614493 0.0074004283477211042 0.04652274934976016 -0.07134267652029895 0.034147308011427312 0.045440393779517606 -0.059933626766545546 -0.025188790770398546 0.020712917077420435 -0.067943903730160765 -0.047619163665135994 0.01653224971260352 -0.068775069960672494 0.006456147748906068
leaf_weight=20.923886403441429 16.130514442920685 6.9943717569112804 12.739078432321547 6.2722361385822278 3.1941678225994119 15.610101372003554 7.0981289148330697 12.073141828179359 11.449783653020864 6.4969065189361555 3.2307987660169593 8.1985237598419207 4.2561806291341782 2.4269225299358359 7.5104678422212592 67.578399240970612 3.6550510823726654 5.4030539393425014 32.371767282485962 3.040000781416893 6.2009718120098096 3.9129660725593558 10.59279465675354 7.5836949199438095 2.5108694285154334 12.525586053729059 11.92079623043537 13.12272383272648 5.626504719257353 7.1197441816329956
leaf_count=104 71 34 52 31 13 67 30 51 48 27 14 35 21 10 38 352 18 22 159 14 28 20 45 32 11 52 48 59 23 31
internal_value=0.000285401 0.00417469 0.010364 -0.00640126 0.0148291 -0.039019 -0.0140885 -0.0310896 0.0259403 0.0318204 0.0364023 0.0132891 -0.0165765 -0.00825651 0.00214471 0.050397 0.0236413 -0.0235907 0.0356882 -0.00193151 -0.0178998 -0.0103257 -0.0381793 0.00147245 -0.0409968 -0.0462096 -0.0304361 -0.0160009 -0.00477248 -0.0267414
internal_weight=337.77 321.64 281.344 135.488 60.6064 40.2954 24.6853 18.9224 145.857 124.469 113.716 42.9071 10.7531 21.3872 18.9603 70.8092 6.84922 74.8813 41.684 9.31224 21.9832 42.521 17.6909 13.7847 32.3603 29.8494 17.3239 38.6081 25.869 12.7462
internal_count=1560 1489 1313 604 286 176 109 82 709 613 565 199 48 96 86 366 31 318 204 45 95 185 75 60 133 122 70 165 113 54
is_linear=0
shrinkage=0.05


Tree=13
num_leaves=31
num_cat=0
split_feature=26 23 4 1 4 28 24 7 28 21 2 3 4 1 22 33 28 3 2 8 24 22 32 1 1 3 10 10 1 30
split_gain=37.6621 31.4557 27.0142 17.9789 21.2531 14.7178 12.1286 11.727 10.8318 10.1915 13.8888 11.6466 8.69188 6.87724 6.53139 6.48805 6.44482 6.16319 6.21552 5.90517 5.68984 5.67065 5.36818 4.90331 4.61314 12.1761 4.59472 3.97459 3.85714 3.37421
threshold=1.0000000180025095e-35 1.0000000180025095e-35 2.5000000000000004 7.5000000000000009 4.5000000000000009 1.5833333333333337 1.0000000180025095e-35 2.5000000000000004 2.4166666666666674 3.5000000000000004 1.7083333333333337 2.5000000000000004 1.5000000000000002 4.5000000000000009 1.0000000180025095e-35 2.5000000000000004 1.7083333333333337 2.5000000000000004 2.4166666666666674 1.5000000000000002 1.5000000000000002 1.5000000000000002 1.0000000180025095e-35 8.5000000000000018 5.5000000000000009 1.5000000000000002 2.5000000000000004 2.5000000000000004 5.5000000000000009 0.45220861134162554
decision_type=2 2 2 2 2 2 2 2 2 2 2 2 2 2 2 2 2 2 2 2 2 2 2 2 2 2 2 2 2 2
left_child=1 2 8 17 15 6 27 16 9 10 12 -11 -1 -10 -12 22 -6 18 19 29 -19 -21 -5 -15 -20 -26 -24 28 -3 -4
right_child=-2 5 3 4 7 -7 -8 -9 13 11 14 -13 -14 23 -16 -17 -18 20 24 21 -22 -23 26 -25 25 -27 -28 -29 -30 -31
leaf_value=0.038522376809426488 -0.075175128399124366 0.02457109668697334 -0.073636378390311563 0.043973667328918047 -0.028465963833593035 -0.076000122778439497 -0.078668168344597111 -0.059499488676530633 -0.063121778840919865 -0.048782583471083545 -0.02003057196098041 0.06691227189572907 -0.0070511463205945868 0.032671094453045328 0.052495159222905236 0.045172918251056154 0.069210153927690615 -0.092628993330437587 0.031412202335054727 -0.015940907645702232 -0.011075747556896984 0.06566863694775725 0.015588203163691545 -0.021435613327803617 -0.070780529229774389 0.033101965392641923 -0.075129501929886433 0.068962679417092221 -0.023705704670181238 -0.031841732211960211
leaf_weight=18.486022487282753 15.744732990860937 7.2939062714576819 6.0929841995239284 3.7486967444419843 3.1995470374822625 15.301490902900694 5.5174887478351584 11.987684175372124 4.4465670883655575 7.6390060633420926 3.242551162838935 3.0277735739946365 24.049116611480713 8.7334496229887026 65.873320743441582 31.765272378921509 3.545933872461319 5.5513141155242902 9.3866842389106768 12.286384120583532 3.5044671297073364 2.5638094097375861 2.5746669471263885 8.0174315273761732 5.3384962528943998 5.9528266489505768 3.0116941332817078 2.1720897108316413 9.527312904596327 23.890457436442375
leaf_count=97 71 33 25 19 13 67 24 51 18 32 14 16 102 41 352 159 18 23 43 53 15 14 12 37 22 26 14 11 41 97
internal_value=0.000281787 0.00402481 0.00998103 -0.00612441 0.0142843 -0.0375331 -0.0134775 -0.0298302 0.0250665 0.0307853 0.0352475 -0.0158638 0.012748 -0.0079086 0.049083 0.0344059 0.0228324 -0.022507 -0.0171462 -0.0276055 -0.0611712 -0.00178308 -0.00218772 0.00674697 0.00550959 -0.0159882 -0.0332766 0.00546531 -0.00274037 -0.0403733
internal_weight=333.473 317.728 277.916 134.401 59.8335 39.8123 24.5108 18.7332 143.515 122.318 111.651 10.6668 42.5351 21.1974 69.1159 41.1003 6.74548 74.5674 65.5116 44.8336 9.05578 14.8502 9.33506 16.7509 20.678 11.2913 5.58636 18.9933 16.8212 29.9834
internal_count=1560 1489 1313 604 286 176 109 82 709 613 565 48 199 96 366 204 31 318 280 189 38 67 45 78 91 48 26 85 74 122
is_linear=0
shrinkage=0.05


Tree=14
num_leaves=31
num_cat=0
split_feature=26 23 4 1 4 28 5 7 28 21 2 11 1 11 10 22 33 28 11 9 32 11 9 31 1 5 28 0 7 1
split_gain=34.917 28.8133 24.7937 16.3514 19.4511 13.7378 13.0914 10.6776 10.0196 9.39179 13.1557 15.9343 10.0894 6.65758 10.4675 6.12853 6.03005 6.0009 5.8596 4.96981 4.87017 5.14899 4.77652 4.75006 4.2976 4.19527 5.61288 4.60244 3.8058 3.75905
threshold=1.0000000180025095e-35 1.0000000180025095e-35 2.5000000000000004 7.5000000000000009 4.5000000000000009 1.5833333333333337 1.0000000180025095e-35 2.5000000000000004 2.4166666666666674 3.5000000000000004 1.7083333333333337 1.5000000000000002 9.5000000000000018 2.5000000000000004 1.5000000000000002 1.0000000180025095e-35 2.5000000000000004 1.7083333333333337 1.5000000000000002 1.5000000000000002 1.0000000180025095e-35 1.5000000000000002 1.5000000000000002 1.0000000180025095e-35 4.5000000000000009 1.5000000000000002 1.2916666666666667 2.5000000000000004 2.5000000000000004 6.5000000000000009
decision_type=2 2 2 2 2 2 2 2 2 2 2 2 2 2 2 2 2 2 2 2 2 2 2 2 2 2 2 2 2 2
left_child=1 2 8 18 16 6 -3 17 9 10 11 -1 -11 14 -10 -12 20 -6 22 -13 -5 -22 -4 25 -21 26 27 -8 29 -20
right_child=-2 5 3 4 7 -7 23 -9 13 12 15 19 -14 -15 -16 -17 -18 -19 28 24 21 -23 -24 -25 -26 -27 -28 -29 -30 -31
leaf_value=0.044098321033581238 -0.07335548060838043 0.04565393486029027 -0.014511009051814378 0.042607572689906587 -0.027013972436365309 -0.073847628501476331 0.0098506867649321705 -0.057012889070810202 -0.027423652620371761 -0.054044120308900073 -0.018968764086786438 -0.048048952719893678 0.04608877786506934 -0.085872029397734959 0.049116482837595801 0.051216087000982104 0.043713475310027589 0.067919129337127682 -0.027425361170699554 0.032323997769473686 0.017883871812278952 -0.077376626777832025 0.044208997573582681 -0.081028887117094314 -0.024013822042577092 -0.07616230799727533 0.048537372588928138 -0.070103926763279228 0.021284646935872557 -0.063657719838091098
leaf_weight=20.316982239484787 15.339053496718405 6.8358587920665768 38.295413762331009 3.6775934398174268 3.2033765614032754 14.968836665153502 3.5146483927965182 11.887960404157639 11.409382939338689 6.4748647809028608 3.2531335055828086 8.2238618433475512 4.09665846824646 2.394191548228263 7.325660601258277 64.185917720198631 31.199409902095795 3.4356559664011002 17.230391770601273 6.1005420833826047 2.7349696010351181 2.9153978526592255 3.7945207953453055 4.369687244296073 7.5775856375694275 2.7004560977220526 3.2124997526407242 3.6541786342859268 2.5139055252075186 12.367274120450022
leaf_count=104 71 34 165 19 13 67 15 51 48 27 14 35 21 10 38 352 159 18 70 28 13 13 20 19 32 12 14 15 11 52
internal_value=0.00027719 0.00387948 0.00960898 -0.00586168 0.0137648 -0.0361805 -0.0129239 -0.0286517 0.0241957 0.0297767 0.0341169 0.0122089 -0.0151867 -0.00753633 0.00248816 0.0478208 0.03317 0.0220664 -0.0214882 -0.0173566 -0.00205048 -0.0312288 -0.00919612 -0.0359109 0.00108198 -0.0207516 -0.00623033 -0.0308759 -0.0375764 -0.0425982
internal_weight=329.21 313.871 274.615 133.256 59.0544 39.2562 24.2873 18.527 141.359 120.23 109.658 42.219 10.5715 21.1292 18.735 67.4391 40.5274 6.63903 74.2015 21.902 9.32796 5.65037 42.0899 17.4515 13.6781 13.0818 10.3813 7.16883 32.1116 29.5977
internal_count=1560 1489 1313 604 286 176 109 82 709 613 565 199 48 96 86 366 204 31 318 95 45 26 185 75 60 56 44 30 133 122
is_linear=0
shrinkage=0.05


Tree=15
num_leaves=31
num_cat=0
split_feature=26 8 30 6 29 4 2 2 6 1 22 2 14 22 6 30 8 22 32 1 28 31 9 3 7 1 33 3 21 22
split_gain=32.3204 25.8742 21.8758 15.1719 11.7709 10.6513 11.6066 16.4379 10.0133 9.50635 9.4267 9.03693 8.44081 12.5001 8.38093 7.46541 6.12977 10.6578 5.48115 6.47079 5.10866 5.15552 5.01984 4.36146 4.05436 3.98037 3.97437 10.0335 3.91522 3.85695
threshold=1.0000000180025095e-35 1.5000000000000002 0.48570226039551589 1.5000000000000002 3.5000000000000004 2.5000000000000004 2.4166666666666674 2.8750000000000004 2.5000000000000004 6.5000000000000009 1.0000000180025095e-35 1.7083333333333337 1.0000000180025095e-35 1.5000000000000002 1.5000000000000002 1.0000000180025095e-35 2.5000000000000004 1.5000000000000002 1.0000000180025095e-35 4.5000000000000009 2.5833333333333335 1.0000000180025095e-35 2.5000000000000004 2.5000000000000004 3.5000000000000004 8.5000000000000018 2.5000000000000004 1.5000000000000002 3.5000000000000004 1.5000000000000002
decision_type=2 2 2 2 2 2 2 2 2 2 2 2 2 2 2 2 2 2 2 2 2 2 2 2 2 2 2 2 2 2
left_child=1 4 16 -4 5 11 -7 22 15 -10 -5 14 13 -12 -1 -9 -3 -18 19 -16 21 25 -8 -11 -17 28 -23 -28 29 -13
right_child=-2 2 3 10 -6 6 7 8 9 23 12 20 -14 -15 18 24 17 -19 -20 -21 -22 26 -24 -25 -26 -27 27 -29 -30 -31
leaf_value=0.024791980865448447 -0.071517166755398334 0.052631671913645511 0.051194882331425821 -0.085000687069086617 -0.056236868970434922 -0.033355465918601099 0.034452752150053341 0.011768497625942068 -0.061289693666338629 0.062546638627771572 -0.013434953677188794 -0.008577549943058595 -0.046790357738737465 0.062303568555559755 0.01936011413655234 -0.076780559568963916 -0.042502429310155465 0.064657725870361712 -0.065407011230915302 -0.056822823593422889 -0.040931680499883938 0.061648271054125542 -0.015062868350702028 -0.0060940324214498647 -0.0050255500594747178 0.052254989581645789 -0.079335506906186903 0.048331424546344239 -0.061049853243067803 0.034226679341412929
leaf_weight=9.7439990788698214 15.084371551871298 46.046836212277412 11.2515652179718 4.2280236631631842 11.468235015869139 46.189187154173851 25.902105525135994 3.9432515352964428 3.6085337400436428 5.534784257411955 19.012766927480701 12.336732804775247 9.4251001924276334 7.6214292645454398 7.06989334523678 12.529046937823294 4.904766768217085 4.3830356001853943 7.5121439546346656 4.5826988518238068 3.0413278341293326 12.94984006881714 6.3567369431257239 3.9480861127376556 2.3548669815063468 5.0030135661363593 2.0216766744852048 6.3214592188596725 2.144928202033042 9.1479980200529081
leaf_count=45 72 255 63 18 51 194 124 17 15 28 85 59 42 41 32 54 22 25 32 19 13 70 29 18 11 26 9 33 9 49
internal_value=-6.66447e-05 0.00340413 0.0233284 -0.000102366 -0.00704702 -0.00410723 -0.0142454 -0.000480871 -0.0259237 0.00762575 -0.0144504 0.0095528 -0.00614308 0.00823426 -0.0129184 -0.0492705 0.0451571 0.00802923 -0.0321206 -0.0105811 0.0218268 0.0256674 0.0246784 0.0339399 -0.0654724 0.011781 0.0443025 0.0172779 0.003172 0.00963227
internal_weight=325.668 310.584 106.874 51.5389 203.711 192.242 110.367 64.1774 31.9186 13.0914 40.2873 81.8757 36.0593 26.6342 28.9087 18.8272 55.3346 9.2878 19.1647 11.6526 52.967 49.9256 32.2588 9.48287 14.8839 28.6327 21.293 8.34314 23.6297 21.4847
internal_count=1560 1488 551 249 937 886 490 296 143 61 186 396 168 126 128 82 302 47 83 51 268 255 153 46 65 143 112 42 117 108
is_linear=0
shrinkage=0.05


Tree=16
num_leaves=31
num_cat=0
split_feature=26 10 29 4 9 6 8 32 0 8 8 1 21 23 5 22 12 4 2 2 2 28 7 7 28 9 2 2 33 8
split_gain=30.0733 24.4054 18.7568 18.8273 11.6892 8.94635 9.19305 8.73181 8.31302 8.54 7.84771 7.71379 7.19358 7.92536 8.44184 7.06862 6.45863 6.0422 13.9025 10.2758 7.20616 8.4006 6.72386 5.99887 6.23934 4.45101 7.86724 4.25245 9.97563 7.2808
threshold=1.0000000180025095e-35 2.5000000000000004 3.5000000000000004 2.5000000000000004 2.5000000000000004 1.5000000000000002 1.0000000180025095e-35 1.0000000180025095e-35 3.5000000000000004 2.5000000000000004 1.5000000000000002 5.5000000000000009 3.5000000000000004 1.0000000180025095e-35 1.0000000180025095e-35 1.0000000180025095e-35 2.5000000000000004 4.5000000000000009 2.4166666666666674 3.4166666666666674 2.8750000000000004 1.7083333333333337 3.5000000000000004 2.5000000000000004 2.7083333333333335 1.5000000000000002 2.4166666666666674 2.2916666666666674 2.5000000000000004 1.0000000180025095e-35
decision_type=2 2 2 2 2 2 2 2 2 2 2 2 2 2 2 2 2 2 2 2 2 2 2 2 2 2 2 2 2 2
left_child=1 2 3 5 25 12 7 -7 9 -8 23 -11 13 -1 -15 -5 17 18 27 -19 -20 -22 -23 24 -6 26 -3 28 29 -17
right_child=-2 4 -4 15 10 6 8 -9 -10 11 -12 -13 -14 14 -16 16 -18 19 20 -21 21 22 -24 -25 -26 -27 -28 -29 -30 -31
leaf_value=0.044205733822519154 -0.070032263508208722 0.061086817891406832 -0.062258238006543079 -0.066344652678749935 0.064514671461908812 0.0021905823999238037 0.050197087417821001 -0.057451851819152112 -0.039816980713233696 -0.045798718894247262 0.054980541764249907 0.047984404400655455 -0.031983280127396034 0.072651759940220467 -0.043158730238752364 -0.032167910014188436 0.061382603309022982 -0.059506920405942257 0.03168483813878066 0.026594027009461202 -0.095414597590075895 -0.032142905694802618 0.067142849873959132 -0.038785733743387146 -0.024791494138185054 0.059936252949202774 0.0032666384767624347 -0.045585408768429224 0.081623754378814334 0.028274799257335444
leaf_weight=38.901754021644592 14.645339548587797 10.537329629063608 13.205215647816656 6.3275791853666297 3.8088009953498903 15.124634444713593 17.418439120054252 10.298331558704376 5.1287994980812064 5.6270116418600065 5.1893013566732398 3.5757539868354797 4.3724510669708243 2.1685488671064368 5.6468499004840851 28.9894690066576 2.9059642404317847 14.775710836052896 23.784494876861572 4.5105330497026435 2.6373169124126417 4.0875784009695053 2.908247247338295 10.729291617870329 3.9908187836408615 22.340777367353439 13.35025207698345 16.194678291678429 2.4873419553041449 5.999085620045661
leaf_count=205 72 60 59 28 22 68 99 44 23 23 31 18 19 11 24 119 14 65 113 20 11 17 16 48 17 132 72 71 11 28
internal_value=-5.66402e-05 0.00328183 -0.00437374 -0.000954511 0.0292336 0.0140262 0.000429476 -0.0219628 0.0183765 0.0296175 0.000674788 -0.00929228 0.029229 0.0349744 -0.010909 -0.0149877 -0.0120036 -0.0140187 -0.00840129 -0.039341 0.0169041 -0.0195332 0.00909691 -0.0145288 0.0187823 0.043872 0.0288082 -0.024167 -0.0148884 -0.0217851
internal_weight=321.668 307.022 237.076 223.871 69.9466 108.263 57.173 25.423 31.75 26.6212 23.7182 9.20277 51.0896 46.7172 7.8154 115.608 109.28 106.374 87.0882 19.2862 33.4176 9.63314 6.99583 18.5289 7.79962 46.2284 23.8876 53.6706 37.4759 34.9886
internal_count=1560 1488 1106 1047 382 534 275 112 163 140 118 41 259 240 35 513 485 471 386 85 157 44 33 87 39 264 132 229 158 147
is_linear=0
shrinkage=0.05


Tree=17
num_leaves=31
num_cat=0
split_feature=26 10 11 4 29 8 28 11 24 10 32 23 7 28 8 1 28 10 4 28 31 32 5 4 1 33 3 14 7 5
split_gain=28.0246 22.5008 21.3606 14.8418 14.2863 10.4797 8.28286 10.2598 12.2462 10.081 8.33796 7.72685 7.52822 7.3303 6.41918 9.8006 8.6696 11.6595 5.35035 7.44988 5.96919 4.71463 3.81867 5.512 5.21571 8.97382 3.80782 6.85352 7.22985 3.58314
threshold=1.0000000180025095e-35 2.5000000000000004 1.0000000180025095e-35 4.5000000000000009 3.5000000000000004 1.0000000180025095e-35 2.4166666666666674 1.5000000000000002 1.5000000000000002 3.5000000000000004 1.0000000180025095e-35 1.0000000180025095e-35 3.5000000000000004 2.0833333333333335 1.5000000000000002 7.5000000000000009 2.2083333333333335 1.5000000000000002 1.5000000000000002 2.2916666666666674 1.0000000180025095e-35 1.0000000180025095e-35 2.5000000000000004 2.5000000000000004 4.5000000000000009 1.5000000000000002 1.5000000000000002 1.0000000180025095e-35 1.5000000000000002 1.0000000180025095e-35
decision_type=2 2 2 2 2 2 2 2 2 2 2 2 2 2 2 2 2 2 2 2 2 2 2 2 2 2 2 2 2 2
left_child=1 2 3 4 14 6 9 -8 -9 -3 -11 12 18 -12 15 21 -16 -18 20 -20 -4 22 23 -1 -25 -26 -5 28 -28 -13
right_child=-2 5 11 26 -6 -7 7 8 -10 10 13 29 -14 -15 16 -17 17 -19 19 -21 -22 -23 -24 24 25 -27 27 -29 -30 -31
leaf_value=0.022667254418333768 -0.068676570851360919 0.053838993913080981 -0.045093010298149223 -0.056382753105522598 -0.061610312873993794 0.055470370202029808 -0.07723489578663506 -0.051964589417527046 0.07188711089621394 -0.077607233395745101 -0.022663177198268339 -0.01999445309547454 0.045127977017304269 0.055125216823004322 0.040731055670244432 0.043950631807104484 -0.038552040272872075 0.064691608689717267 -0.017711016848590642 -0.064111014975725231 0.047730138129472813 -0.031750514507633422 0.042693084649639758 -0.054642201731935507 0.053116790055749957 -0.035421061372734763 -0.042126533894407001 -0.068666567832469563 0.074984692596803057 -0.071441630276448578
leaf_weight=13.336183935403826 14.199229046702383 17.244917348027229 2.5275949239730826 9.4683052599430102 5.9354116767644873 23.459151461720467 4.8243205845355979 3.6804369091987592 4.3327566236257553 2.9361111819744101 6.0446157902479154 5.02022860944271 4.6498167663812628 6.0405298471450806 43.379795774817467 13.841625049710272 8.7263280004262906 3.9693893641233435 53.149761527776718 10.343094035983084 5.428449735045433 11.451108917593954 5.6599720269441596 6.7105017155408886 4.8056290298700315 7.0439477115869522 2.3121040463447553 3.1443869322538376 3.0301724821329117 10.640535742044447
leaf_count=67 72 100 12 42 26 143 21 16 22 15 32 23 26 33 238 68 37 23 226 43 30 49 26 28 22 31 10 14 14 51
internal_value=-4.60667e-05 0.00316916 -0.00419391 0.00789754 0.0140133 0.0283647 0.0142464 -0.0196896 0.0149462 0.0277656 -0.00215016 -0.0230174 -0.0164215 0.01619 0.0177966 0.00681193 0.0300959 -0.00620746 -0.0204399 -0.0252864 0.0181583 -0.00367414 0.00487937 -0.00182626 -0.0194555 0.000458064 -0.0345879 -0.0101754 0.0242223 -0.0550049
internal_weight=317.336 303.137 234.574 142.815 124.86 68.5628 45.1037 12.8375 8.01319 32.2662 15.0213 91.7595 76.0987 12.0851 118.924 62.849 56.0755 12.6957 71.4489 63.4929 7.95604 49.0073 37.5562 31.8963 18.5601 11.8496 17.955 8.48666 5.34228 15.6608
internal_count=1560 1488 1106 695 615 382 239 59 38 180 80 411 337 65 589 291 298 60 311 269 42 223 174 148 81 53 80 38 24 74
is_linear=0
shrinkage=0.05


Tree=18
num_leaves=31
num_cat=0
split_feature=26 10 11 4 29 2 28 2 13 11 11 21 4 28 8 1 28 10 31 22 7 2 32 1 3 24 29 1 2 28
split_gain=26.1482 20.772 19.4297 13.5888 13.0319 10.5045 9.61414 8.03334 7.91519 9.65518 6.49239 8.02443 6.18972 6.03464 5.95307 8.99903 7.99121 10.7636 5.70096 5.09824 4.32502 6.24832 4.25585 3.94821 4.53655 6.32431 7.04191 6.1699 3.92323 3.86422
threshold=1.0000000180025095e-35 2.5000000000000004 1.0000000180025095e-35 4.5000000000000009 3.5000000000000004 3.7083333333333335 2.4166666666666674 3.4166666666666674 3.5000000000000004 2.5000000000000004 1.5000000000000002 5.5000000000000009 1.5000000000000002 2.2916666666666674 1.5000000000000002 7.5000000000000009 2.2083333333333335 1.5000000000000002 1.0000000180025095e-35 1.0000000180025095e-35 2.5000000000000004 2.8750000000000004 1.0000000180025095e-35 6.5000000000000009 1.5000000000000002 1.5000000000000002 2.5000000000000004 5.5000000000000009 2.4166666666666674 2.0833333333333335
decision_type=2 2 2 2 2 2 2 2 2 2 2 2 2 2 2 2 2 2 2 2 2 2 2 2 2 2 2 2 2 2
left_child=1 2 3 4 14 6 10 -5 9 -8 -3 29 18 19 15 22 -16 -18 -4 -14 23 -22 -1 24 25 27 -27 -21 -25 -12
right_child=-2 5 12 7 -6 -7 8 -9 -10 -11 11 -13 13 -15 16 -17 17 -19 -20 20 21 -23 -24 28 -26 26 -28 -29 -30 -31
leaf_value=0.0046765093690981415 -0.067435283934033821 0.061514896730731142 -0.042135166366254341 -0.052807142709237712 -0.059038450407488986 -0.089623121767541697 0.047480330151774969 0.024886488275056972 -0.057358471491866382 -0.051090383314610403 0.019500076450133002 -0.068625137998177085 -0.077516835219757843 -0.056606139243745357 0.039421836335064658 0.042444012444805758 -0.036696632865201737 0.063762957583253482 0.047544445521968612 -0.051726556050922884 0.025990502575406024 -0.058677524405245984 -0.030148899592925917 -0.060815523626083792 -0.033592703379570134 0.081915672692368019 -0.016982276005944076 0.017541453861239172 -0.0048155931312281576 0.063409939190838038
leaf_weight=37.278579652309418 13.749161764979361 22.928024649620056 2.5693560689687711 13.270413324236872 5.8859635740518561 1.8481690287590016 8.7228636592626589 4.4226897954940787 4.6195742934942237 3.4588659703731528 16.159928441047676 2.0963776856660834 3.6607922017574301 13.574534416198729 42.59987784922123 13.622314497828482 8.7100692689418775 3.8295309990644446 5.632944330573082 6.9084504395723361 10.565859943628309 2.7327851653099051 11.456820026040075 10.910185158252714 16.951451152563095 4.1042736619710913 3.182134211063385 5.9838136583566666 4.4134562611579886 7.2983208000659934
leaf_count=174 72 140 12 60 26 8 50 20 19 15 95 10 17 60 238 68 37 23 32 29 53 13 49 48 71 18 13 25 20 45
internal_value=-3.70653e-05 0.00305852 -0.00402022 0.00760376 0.0134835 0.0275542 0.0308923 -0.033355 -0.00167338 0.0194323 0.0421861 0.0248071 -0.0220075 -0.0261055 0.0171254 0.00653028 0.0290951 -0.00595057 0.0193745 -0.0201263 -0.0169121 0.00852319 -0.00350457 -0.0233707 -0.0145313 0.00146549 0.0386922 -0.0195491 -0.0447329 0.0332038
internal_weight=313.148 299.398 232.266 141.076 123.383 67.1321 65.284 17.6931 16.8013 12.1817 48.4827 25.5546 91.19 82.9877 117.497 62.3577 55.1395 12.5396 8.2023 69.4132 65.7524 13.2986 48.7354 52.4538 37.1301 20.1787 7.28641 12.8923 15.3236 23.4582
internal_count=1560 1488 1106 695 615 382 374 80 84 65 290 150 411 367 589 291 298 60 44 307 290 66 223 224 156 85 31 54 68 140
is_linear=0
shrinkage=0.05


Tree=19
num_leaves=31
num_cat=0
split_feature=26 10 29 4 9 6 8 32 0 8 21 23 1 8 22 2 4 2 2 28 7 7 28 9 2 31 2 33 8 6
split_gain=24.4247 19.2034 14.783 14.8742 9.7591 7.67613 7.25232 7.19674 7.17232 7.52832 6.90339 6.77498 6.55781 6.48248 6.21501 5.02595 11.5533 6.62353 5.51329 8.3879 6.2274 4.73677 5.31084 4.50543 7.44395 4.13227 3.61984 9.04478 5.6054 3.5168
threshold=1.0000000180025095e-35 2.5000000000000004 3.5000000000000004 2.5000000000000004 2.5000000000000004 1.5000000000000002 1.0000000180025095e-35 1.0000000180025095e-35 3.5000000000000004 2.5000000000000004 3.5000000000000004 1.0000000180025095e-35 5.5000000000000009 1.5000000000000002 1.0000000180025095e-35 2.4166666666666674 4.5000000000000009 3.4166666666666674 2.8750000000000004 1.7083333333333337 3.5000000000000004 2.5000000000000004 2.7083333333333335 1.5000000000000002 2.4166666666666674 1.0000000180025095e-35 2.2916666666666674 2.5000000000000004 1.0000000180025095e-35 2.5000000000000004
decision_type=2 2 2 2 2 2 2 2 2 2 2 2 2 2 2 2 2 2 2 2 2 2 2 2 2 2 2 2 2 2
left_child=1 2 3 5 23 10 7 -7 9 -8 11 -1 -11 21 -5 26 18 -18 -17 -20 -21 22 -6 24 -3 -26 27 28 -16 -30
right_child=-2 4 -4 14 13 6 8 -9 -10 12 -12 -13 -14 -15 15 16 17 -19 19 20 -22 -23 -24 -25 25 -27 -28 -29 29 -31
leaf_value=0.041827739764033853 -0.066295756341102297 0.058410152375313634 -0.056222024267033668 -0.062748360948823564 0.062246547936065336 0.002377403673666359 0.047600741368564736 -0.051867182909615464 -0.038242662587324845 -0.042401865201064426 -0.032940336331818906 -0.0097738911400343173 0.04512238592675278 0.052199118940828376 -0.028776498825722918 0.030849192851869267 -0.045698451717231296 0.023805290114165989 -0.090674829549607983 -0.027029019902934572 0.065265492526426078 -0.035163312557607955 -0.022470420043756628 0.057765127554148171 -0.034573415505904613 0.023353138872588046 -0.041651909617933303 0.07833488014855261 0.066434529164835929 -0.011141674268858922
leaf_weight=37.154584094882011 13.297830522060393 9.6610794216394442 12.721030399203299 6.0340701043605796 3.4544680714607301 14.971562996506691 16.308672070503242 10.305637419223785 4.9809141606092444 5.6319610327482206 4.3388683199882498 7.6523841917514792 3.4352547526359558 4.7328581959009162 28.69478602707386 23.982866197824478 15.370186254382135 4.3935940563678733 2.5865558534860593 4.1175187528133392 3.2655740529298782 10.487477883696554 3.9506462961435318 20.499741077423096 5.1009219884872419 7.7324463874101639 15.740931108593939 2.5143598020076743 2.715227171778678 3.1246843934059143
leaf_count=205 72 60 59 28 22 68 99 44 23 23 19 35 18 31 119 118 70 20 11 17 19 48 17 132 27 45 71 12 15 13
internal_value=-3.1193e-05 0.00294961 -0.00385449 -0.000784368 0.0268072 0.0127692 3.98544e-05 -0.0197304 0.0165195 0.027299 0.027166 0.0330036 -0.00917369 0.000203253 -0.0134078 -0.0106021 0.000156638 -0.0302179 0.0178561 -0.0133495 0.0137587 -0.013544 0.0170131 0.0407924 0.0252838 0.000280954 -0.021557 -0.0129969 -0.0196817 0.0248933
internal_weight=308.959 295.661 230.041 217.32 65.6196 104.78 55.634 25.2772 30.3568 25.3759 49.1458 44.807 9.06722 22.6255 112.54 106.506 53.7163 19.7638 33.9525 9.96965 7.38309 17.8926 7.40511 42.9942 22.4944 12.8334 52.79 37.0491 34.5347 5.83991
internal_count=1560 1488 1106 1047 382 534 275 112 163 140 259 240 41 118 513 485 255 90 165 47 36 87 39 264 132 72 230 159 147 28
is_linear=0
shrinkage=0.05


Tree=20
num_leaves=31
num_cat=0
split_feature=26 10 23 24 4 2 13 6 6 2 28 21 12 22 11 7 5 1 3 0 22 1 5 13 7 28 5 28 1 4
split_gain=24.7874 18.7209 13.8794 10.8713 10.0192 9.49251 10.1916 9.97778 7.93468 6.40302 9.79601 9.01421 12.7051 8.02106 7.14239 6.04325 5.95331 5.07626 5.04039 6.65007 3.82564 3.69048 5.10074 5.76085 3.36849 3.32614 3.2421 3.84172 3.07041 2.99082
threshold=1.0000000180025095e-35 2.5000000000000004 1.0000000180025095e-35 1.0000000180025095e-35 2.5000000000000004 2.8750000000000004 3.5000000000000004 1.5000000000000002 1.5000000000000002 1.8750000000000002 2.2916666666666674 3.5000000000000004 2.5000000000000004 1.0000000180025095e-35 1.5000000000000002 3.5000000000000004 1.0000000180025095e-35 5.5000000000000009 2.5000000000000004 3.5000000000000004 1.0000000180025095e-35 9.5000000000000018 1.5000000000000002 3.5000000000000004 4.5000000000000009 2.4166666666666674 2.5000000000000004 2.4166666666666674 4.5000000000000009 4.5000000000000009
decision_type=2 2 2 2 2 2 2 2 2 2 2 2 2 2 2 2 2 2 2 2 2 2 2 2 2 2 2 2 2 2
left_child=1 2 4 8 9 6 -3 -7 16 10 14 13 -13 -11 -1 18 -4 -18 20 -20 -6 -9 -23 -24 -17 -15 28 29 -22 -28
right_child=-2 5 3 -5 15 7 -8 21 -10 11 -12 12 -14 25 -16 24 17 -19 19 -21 26 22 23 -25 -26 -27 27 -29 -30 -31
leaf_value=0.028869764756015066 -0.065219779069649722 0.048605467001082647 0.063687563739008385 -0.069655645445756573 -0.058669757889734137 -0.051925676343238927 -0.073120898673474058 -0.024170358786618509 -0.054505509082602703 -0.03274205126285934 -0.068612270496539826 -0.051601105938084292 0.062206860909358869 0.049680664349440622 -0.013106738525651355 0.06555903583358727 0.022425682014272211 -0.047019121290874093 -0.059637788506095558 0.029192621353018228 -0.050371247169894731 0.055248275046992028 0.045656026798315437 -0.050963710230543184 -0.0040453006325703832 0.0035980043705609744 0.016213568023689399 0.058262723472896794 -0.0074596237293844472 -0.039758435351910787
leaf_weight=20.235587865114212 13.549073442816733 37.524682849645615 3.8328223824501046 12.395797863602636 3.5174420624971381 6.0953828841447857 1.790275290608405 3.5762053877115276 6.9860271215438834 3.7419702857732764 4.6610118001699439 7.4346728026866895 3.6448146551847458 31.850849807262421 20.263073295354843 3.9659679532051078 5.8077596575021744 4.7892292737960815 10.382425859570501 2.62780638039112 4.5522780865430823 9.3744863793253881 3.0321076810359946 3.1187388151884079 3.0635592192411423 4.4931300729513159 8.5784127265214902 3.818346679210662 49.209098219871521 3.2947295606136313
leaf_count=113 76 238 19 63 15 29 8 20 34 17 21 33 18 191 88 23 25 20 46 13 19 55 20 14 16 20 40 18 221 14
internal_value=0.000842865 0.00395839 -0.00289822 -0.0324025 0.00236947 0.0276799 0.0430325 0.00369776 -0.010794 0.0136732 -3.80175e-05 0.0257824 -0.0140943 0.0368173 0.00785688 -0.00933196 0.0103569 -0.00892697 -0.0129815 -0.0416488 -0.00785842 0.0214915 0.0320505 -0.0032563 0.0351909 0.0439999 -0.0052698 0.0147061 -0.0111112 0.000619191
internal_weight=301.208 287.659 223.147 33.8116 189.335 64.5119 39.315 25.1969 21.4158 96.3251 45.1597 51.1654 11.0795 40.086 40.4987 93.0101 14.4298 10.597 85.9805 13.0102 72.9703 19.1015 15.5253 6.15085 7.02953 36.344 69.4529 15.6915 53.7614 11.8731
internal_count=1547 1471 1087 161 926 384 246 138 98 501 222 279 51 228 201 425 64 45 386 59 327 109 89 34 39 211 312 72 240 54
is_linear=0
shrinkage=0.05


Tree=21
num_leaves=31
num_cat=0
split_feature=10 29 4 2 3 13 12 24 33 23 24 6 4 2 21 5 7 31 12 6 5 11 32 24 2 1 33 2 5 7
split_gain=18.0995 14.5259 11.8596 10.767 9.34896 9.20244 8.11195 7.45152 9.67053 6.33032 10.0344 8.88487 4.75539 8.404 16.424 4.70867 5.21573 6.76605 4.36662 6.81293 4.04039 3.83042 3.67421 3.5923 3.27454 3.01093 2.84462 2.74825 2.60493 2.54981
threshold=2.5000000000000004 3.5000000000000004 1.5000000000000002 2.8750000000000004 1.5000000000000002 3.5000000000000004 2.5000000000000004 1.0000000180025095e-35 1.5000000000000002 1.0000000180025095e-35 1.0000000180025095e-35 1.5000000000000002 2.5000000000000004 1.7083333333333337 3.5000000000000004 1.0000000180025095e-35 3.5000000000000004 1.0000000180025095e-35 1.5000000000000002 1.5000000000000002 1.0000000180025095e-35 2.5000000000000004 1.5000000000000002 1.0000000180025095e-35 1.4166666666666667 5.5000000000000009 3.5000000000000004 2.8750000000000004 3.5000000000000004 3.5000000000000004
decision_type=2 2 2 2 2 2 2 2 2 2 2 2 2 2 2 2 2 2 2 2 2 2 2 2 2 2 2 2 2 2
left_child=1 2 7 5 18 22 9 8 -1 12 11 20 13 -4 27 23 17 -17 -5 -20 -11 28 -2 -6 -9 -22 -19 -15 29 -14
right_child=3 -3 6 4 15 -7 -8 24 -10 10 -12 -13 21 14 -16 16 -18 26 19 -21 25 -23 -24 -25 -26 -27 -28 -29 -30 -31
leaf_value=0.06911294110344883 0.049819879673659695 -0.053977150869327195 -0.015501864078746383 -0.11181559145702857 0.0035596505334682242 -0.068969360966607648 0.057577652154177865 0.017454335925220183 -0.042767932474765881 0.061981848640639436 -0.068458548579435091 -0.06306996910310296 -0.011344593276786177 0.045649456292158858 -0.041954396632425277 -0.10086513508826814 0.066121813635762389 0.035071139231438668 -0.068266163488681544 0.043464150836091481 0.021417364565475629 -0.071855694788274513 -0.025163771813160474 0.066057765374714236 0.056085352095212329 -0.034204235260834472 -0.042779921751754123 -0.0084471352611578676 -0.063673600138014805 0.023518587942599818
leaf_weight=2.66335181891918 35.146191969513893 14.601373702287672 26.245712757110596 1.9354308247566248 3.7198717445135117 1.803375408053397 4.6724935472011557 9.1705904752016085 6.938793420791626 3.2758562266826674 10.855980113148687 5.2171408534049979 79.422018930315971 24.374300047755245 7.7792312353849402 2.1612812727689743 1.8802059441804884 3.0319676399230957 3.5000706762075424 2.2179199308156967 5.7783614248037338 2.6098025590181342 1.6984489411115635 6.0904506146907806 13.858517557382582 4.1855578273534775 1.8980958461761472 2.5778342783451071 2.2334095239639273 5.5976169258356085
leaf_count=16 229 73 117 9 20 8 24 53 32 16 57 25 358 141 35 9 12 19 18 14 25 13 11 37 90 18 9 15 13 31
internal_value=0.000816687 -0.00571694 -0.00247182 0.0241177 -0.000454538 0.0409338 -0.0073805 0.0253097 -0.0116438 -0.00907116 -0.0303318 -0.0078544 -0.0049345 0.00583673 0.021976 0.0185077 -0.00762292 -0.0273117 -0.0470174 -0.0248402 0.0138968 -0.0122488 0.0463439 0.0424384 0.0407378 -0.00190842 0.004971 0.0404556 -0.0104522 -0.00904086
internal_weight=297.141 232.058 217.457 65.0833 26.4353 38.648 184.825 32.6313 9.60215 180.153 29.3129 18.4569 150.84 60.9771 34.7314 18.7819 8.97155 7.09134 7.65342 5.71799 13.2398 89.8628 36.8446 9.81032 23.0291 9.96392 4.93006 26.9521 87.253 85.0196
internal_count=1547 1152 1079 395 147 248 888 191 48 864 141 84 723 308 191 106 49 37 41 32 59 415 240 57 143 43 28 156 402 389
is_linear=0
shrinkage=0.05


Tree=22
num_leaves=31
num_cat=0
split_feature=26 10 23 24 12 4 21 2 28 2 28 13 22 28 5 11 0 6 5 14 3 22 1 28 9 24 7 7 3 9
split_gain=22.2043 16.0385 11.9451 9.73005 8.54579 8.39172 11.0657 9.9895 8.65056 8.31759 8.8886 8.67404 7.24302 6.96929 8.77737 6.83061 5.59453 3.80944 3.87726 6.82552 3.68591 3.39201 3.23145 2.92221 2.89209 3.65189 2.78348 4.15597 3.20346 4.66637
threshold=1.0000000180025095e-35 2.5000000000000004 1.0000000180025095e-35 1.0000000180025095e-35 2.5000000000000004 2.5000000000000004 3.5000000000000004 1.7083333333333337 2.2916666666666674 2.8750000000000004 2.0833333333333335 3.5000000000000004 1.0000000180025095e-35 1.5833333333333337 1.0000000180025095e-35 1.5000000000000002 3.5000000000000004 1.5000000000000002 1.5000000000000002 1.5000000000000002 3.5000000000000004 1.0000000180025095e-35 5.5000000000000009 2.4166666666666674 1.5000000000000002 1.5000000000000002 3.5000000000000004 4.5000000000000009 2.5000000000000004 1.5000000000000002
decision_type=2 2 2 2 2 2 2 2 2 2 2 2 2 2 2 2 2 2 2 2 2 2 2 2 2 2 2 2 2 2
left_child=1 2 4 13 5 6 7 8 15 11 16 -3 -9 14 -4 -1 -11 -12 -19 -20 21 -7 -16 -14 -17 -26 28 -28 -23 -30
right_child=-2 9 3 -5 -6 20 -8 12 -10 10 17 -13 23 -15 22 24 -18 18 19 -21 -22 26 -24 -25 25 -27 27 -29 29 -31
leaf_value=0.030727966370755457 -0.063693165809446506 0.046582751473629926 0.06749208074524421 -0.067204792986184023 0.058592174219894592 -0.056155401275969956 -0.043138901179594819 -0.031800233665038848 -0.064947748773719657 -0.11788198960429604 -0.025421152878097084 -0.065209382404242011 0.046773109178628557 -0.062423130585601498 0.0072618508588070327 -0.034550165455220105 -0.0073697878939737657 0.048754397225172115 0.046184070798109579 -0.060035069228271926 -0.075185981718836781 -0.0054964820447097502 -0.045204283806068675 0.0034442155455352225 -0.024424417854726481 0.031028283019101363 0.064745855910034747 -0.021986627502472798 -0.072115519220696908 -0.0037296927503742737
leaf_weight=17.233067259192467 12.75747539103031 35.440205961465836 4.2303582876920744 11.631148338317869 6.489060550928115 3.6501400768756858 8.5403343141078931 3.7103281319141379 4.6056464463472357 2.1393035948276546 3.9869973957538614 1.8123158216476429 31.624053940176964 4.8766439110040656 6.4934927076101303 8.3827039599418658 2.4765802472829819 9.7158453464508039 3.3133023977279672 2.7649273425340652 2.1496204435825339 68.057205036282539 5.3218304812908173 4.4677247256040564 5.8183993548154813 6.0369433760643005 3.1670523732900611 2.4252107590436935 4.6898287832736951 5.3534738570451736
leaf_count=100 76 238 23 63 35 16 38 17 21 9 20 8 199 24 28 36 14 60 23 12 10 306 23 20 25 27 19 12 20 25
internal_value=0.00079202 0.00372775 -0.00261344 -0.0305552 0.00226508 0.000227546 0.0109727 0.0166275 -0.000347609 0.026254 0.00353466 0.0411147 0.0345809 -0.0101347 0.00575475 0.00759439 -0.0588406 0.0181375 0.029174 -0.0020711 -0.0106233 -0.00902022 -0.0163458 0.0414258 -0.012085 0.00377326 -0.00695205 0.027071 -0.00939777 -0.0357529
internal_weight=293.361 280.604 218.954 32.5535 186.401 179.912 90.4192 81.8789 42.0768 61.6495 24.397 37.2525 39.8021 20.9223 16.0457 37.4711 4.61588 19.7811 15.7941 6.07823 89.4925 87.3429 11.8153 36.0918 20.238 11.8553 83.6928 5.59226 78.1005 10.0433
internal_count=1547 1471 1087 161 926 891 483 445 209 384 138 246 236 98 74 188 23 115 95 35 408 398 51 219 88 52 382 31 351 45
is_linear=0
shrinkage=0.05


Tree=23
num_leaves=31
num_cat=0
split_feature=26 10 23 24 4 24 8 33 32 10 22 8 32 14 28 5 31 28 7 0 3 7 21 3 11 10 1 4 5 10
split_gain=20.8025 14.8215 11.0354 9.22945 8.12034 8.01861 8.0134 7.31108 11.0892 7.88748 7.22372 7.23927 10.5369 8.08774 6.46765 8.17441 6.09022 7.15088 5.79888 4.90031 7.12355 4.79974 4.75262 6.10136 3.94411 5.32076 3.58968 3.53531 3.49883 11.3244
threshold=1.0000000180025095e-35 2.5000000000000004 1.0000000180025095e-35 1.0000000180025095e-35 1.5000000000000002 1.0000000180025095e-35 1.0000000180025095e-35 3.5000000000000004 1.5000000000000002 3.5000000000000004 1.0000000180025095e-35 1.5000000000000002 1.0000000180025095e-35 1.5000000000000002 1.5833333333333337 1.0000000180025095e-35 1.0000000180025095e-35 2.2083333333333335 2.5000000000000004 3.5000000000000004 2.5000000000000004 1.5000000000000002 3.5000000000000004 2.5000000000000004 1.5000000000000002 1.5000000000000002 4.5000000000000009 2.5000000000000004 1.5000000000000002 4.5000000000000009
decision_type=2 2 2 2 2 2 2 2 2 2 2 2 2 2 2 2 2 2 2 2 2 2 2 2 2 2 2 2 2 2
left_child=1 2 4 14 5 -1 7 9 28 -3 26 19 -13 24 15 -4 17 -11 -18 20 -12 -21 -23 -24 25 -14 -6 -22 29 -9
right_child=-2 6 3 -5 10 -7 -8 8 -10 16 11 12 13 -15 -16 -17 18 -19 -20 21 27 22 23 -25 -26 -27 -28 -29 -30 -31
leaf_value=-0.017030686727985338 -0.062844544305940983 0.051806653738082548 0.066364047728169576 -0.066110534351300446 -0.016374675889447795 0.040553342117788105 0.051139816999704095 0.071773044495387878 0.067546607354737248 -0.08785205608295385 -0.0063812569254857471 0.052918875510083611 0.00094100508328786724 -0.050910067619801117 -0.060860383508856669 -0.015587850374888685 0.061549726188303268 0.037719151835955013 -0.033858933960042602 0.071865461738271977 -0.0085061821478872018 0.044935426858730448 -0.044336997233754845 0.050316299940051802 -0.018271931318353536 0.05769966226554725 -0.084632796430485699 -0.067513590461946341 -0.076381036929328183 -0.070375973034326522
leaf_weight=8.1785251200199145 12.295110344886778 14.891697704792024 4.0908591151237532 11.242503538727759 4.0034233033657065 23.007244527339935 20.258716374635696 2.2244816571474058 2.9449926167726508 3.2882989346981031 74.268578693270683 13.904312938451765 9.1468085944652646 6.1322973370552054 4.755126252770423 11.77216100692749 4.4642494320869446 1.7139624655246732 2.4575061202049255 3.2679934650659588 3.7797252833843213 4.6177567839622471 6.1241430640220642 2.3434433937072754 6.8871851414442053 7.5448009446263304 3.7526911199092865 7.8697707951068878 4.3464666754007339 3.7415310889482498
leaf_count=40 76 101 23 63 17 147 147 11 17 18 329 85 46 29 24 51 30 11 12 16 18 27 27 13 33 47 17 35 18 19
internal_value=0.000766633 0.00359388 -0.00250689 -0.0296801 0.00217586 0.0254352 0.0255106 0.0125319 -0.01781 0.0275524 -0.0025433 -3.85231e-05 0.0170113 0.000178203 -0.009769 0.00554343 -0.00271445 -0.0447375 0.0276036 -0.00731557 -0.012094 0.0177514 0.00415394 -0.0180538 0.0135022 0.0266457 -0.0495313 -0.048435 -0.042276 -0.0172594
internal_weight=289.316 277.021 216.689 31.8606 184.829 31.1858 60.3319 40.0732 13.2575 26.8157 153.643 145.887 43.6154 29.7111 20.6181 15.863 11.924 5.00226 6.92176 102.271 85.9181 16.3533 13.0853 8.46759 23.5788 16.6916 7.75611 11.6495 10.3125 5.96601
internal_count=1547 1471 1087 161 926 187 384 237 65 172 739 705 240 155 98 74 71 29 42 465 382 83 67 40 126 93 34 53 48 30
is_linear=0
shrinkage=0.05


Tree=24
num_leaves=31
num_cat=0
split_feature=26 8 6 30 8 22 29 2 2 1 2 24 2 4 4 9 2 1 11 21 6 9 22 7 2 9 6 3 6 30
split_gain=19.5085 13.5186 12.6025 10.6655 9.41649 8.50537 7.50614 6.14655 9.76869 9.51595 6.89599 5.76299 5.30225 6.64839 4.94757 4.55027 4.47756 4.89495 4.43 6.60062 4.22212 3.75642 3.63705 5.08085 3.56088 5.59218 3.45666 3.61477 3.41644 3.28478
threshold=1.0000000180025095e-35 1.5000000000000002 2.5000000000000004 0.48570226039551589 2.5000000000000004 1.0000000180025095e-35 3.5000000000000004 2.8750000000000004 3.1250000000000004 7.5000000000000009 3.7083333333333335 1.0000000180025095e-35 2.4166666666666674 2.5000000000000004 1.5000000000000002 1.5000000000000002 1.7083333333333337 6.5000000000000009 1.0000000180025095e-35 3.5000000000000004 1.5000000000000002 2.5000000000000004 1.0000000180025095e-35 1.5000000000000002 1.4166666666666667 1.5000000000000002 2.5000000000000004 1.5000000000000002 1.5000000000000002 0.45220861134162554
decision_type=2 2 2 2 2 2 2 2 2 2 2 2 2 2 2 2 2 2 2 2 2 2 2 2 2 2 2 2 2 2
left_child=1 6 4 -4 5 14 7 9 -9 12 26 28 13 16 -3 18 20 -18 19 -11 -1 -17 -5 -24 25 -22 27 -10 -6 -19
right_child=-2 2 3 22 11 -7 -8 8 10 15 -12 -13 -14 -15 -16 21 17 29 -20 -21 24 -23 23 -25 -26 -27 -28 -29 -30 -31
leaf_value=0.018484323387673383 -0.062057765420169823 0.045444853027363896 0.042808906281148501 -0.069157638367766505 0.060142867732270636 0.054097869443877171 -0.047518336813093455 -0.050679932920375939 -0.065034833380376397 0.043433856504854304 -0.087788121183357937 -0.063867863536806721 0.025348405581814476 -0.025807028125824721 -0.033211500064413119 0.058002111980436338 0.035394809961204497 -0.045466691213059185 -0.041540171319841182 -0.038244809088142893 -0.047324602046789725 0.016185993355587937 0.046423076219600123 -0.022431589749347329 -0.04191001493526289 0.033893182773737505 0.04118863107452353 0.014992837459921377 -0.0058604507504751192 0.016600601917420226
leaf_weight=8.3265587836504 11.84009528160095 3.3149782717227918 8.9156346023082715 3.3319599032402065 2.8280836418271047 37.096847593784332 9.6039738655090314 15.289600916206838 1.9860533624887429 8.2621318250894529 1.7523755729198462 3.1363784670829764 12.195840090513228 37.540014535188675 5.0023031830787659 11.697114579379559 14.834956847131252 3.9510140866041183 4.0505784004926673 3.5138621777296057 3.5984685122966766 10.018108576536179 3.0748402774333981 20.226726002991199 11.583984464406967 5.1258086264133453 7.2237738072872162 4.7904024496674538 6.3010954409837723 4.5927356109023094
leaf_count=41 76 23 64 18 20 253 48 72 11 48 8 15 59 168 21 73 84 20 21 16 16 52 17 103 51 24 39 24 31 31
internal_value=0.000745888 0.00347205 0.0189248 -0.00447872 0.0333559 0.0438542 -0.00453216 -0.00210287 -0.0222203 0.00237816 0.00538567 -0.00547819 -0.0055564 -0.00977311 -0.00178485 0.0238922 0.00179226 0.0180321 0.00346312 0.0190074 -0.0114509 0.03875 -0.0203373 -0.0133082 -0.0237523 0.000320526 0.017138 -0.00844938 0.0145751 -0.0120633
internal_weight=285.006 273.166 93.2288 35.5492 57.6797 45.4141 179.937 170.333 31.0422 139.291 15.7526 12.2656 101.749 89.5535 8.31728 37.5418 52.0135 23.3787 15.8266 11.776 28.6348 21.7152 26.6335 23.3016 20.3083 8.72428 14.0002 6.77646 9.12918 8.54375
internal_count=1547 1471 565 202 363 297 906 858 154 704 82 66 494 435 44 210 267 135 85 64 132 125 138 120 91 40 74 35 51 51
is_linear=0
shrinkage=0.05


Tree=25
num_leaves=31
num_cat=0
split_feature=4 10 22 8 14 8 28 10 32 6 8 25 11 11 31 28 11 24 1 21 11 1 28 9 3 4 2 4 28 2
split_gain=17.6648 15.66 11.072 8.46611 13.6408 7.87987 7.17827 6.43004 9.78852 6.32708 9.22859 6.29936 6.09116 5.14716 4.96603 4.56332 3.88549 7.92859 3.31054 3.24165 5.27452 3.14094 3.49612 3.03564 7.92501 6.81152 2.91937 4.08189 2.91671 2.89238
threshold=1.5000000000000002 2.5000000000000004 1.0000000180025095e-35 1.5000000000000002 1.0000000180025095e-35 1.5000000000000002 2.4166666666666674 3.5000000000000004 1.0000000180025095e-35 2.5000000000000004 2.5000000000000004 1.0000000180025095e-35 1.0000000180025095e-35 1.5000000000000002 1.0000000180025095e-35 2.2916666666666674 1.5000000000000002 1.5000000000000002 7.5000000000000009 3.5000000000000004 1.5000000000000002 4.5000000000000009 1.4166666666666667 1.5000000000000002 2.5000000000000004 4.5000000000000009 2.4166666666666674 3.5000000000000004 2.0833333333333335 2.4166666666666674
decision_type=2 2 2 2 2 2 2 2 2 2 2 2 2 2 2 2 2 2 2 2 2 2 2 2 2 2 2 2 2 2
left_child=11 2 21 12 9 6 7 -3 -9 10 -5 19 23 -12 -13 26 -8 -18 -17 -1 -21 22 -2 24 -4 -25 -14 -28 -10 -11
right_child=1 5 3 4 -6 -7 16 8 28 29 13 14 15 -15 -16 18 17 -19 -20 20 -22 -23 -24 25 -26 -27 27 -29 -30 -31
leaf_value=0.044960641271804595 0.0010088104911806551 0.047245225907903143 -0.0035530308124209274 0.058324592049789847 -0.042634662632556178 0.047809909360806056 -0.065383449291378432 -0.073675104559585758 -0.0044802677844037178 -0.014756126472668574 0.01701594092264164 0.012139177741236113 -0.02500832444873323 -0.082446667344961963 -0.073134590890065534 -0.082445890137186562 -0.049197759760490622 0.067664078205030745 -0.021982183593654614 -0.047700993285685674 0.060495329686044499 -0.070218758007407164 -0.067078436777992398 0.044545678583602914 -0.075781002591372715 -0.046884692736293865 0.046483073914244354 -0.022446727457934988 0.052015262584145176 0.040531096885974192
leaf_weight=29.140548504889011 4.55615867674351 11.577870510518553 51.503906637430191 17.071795172989372 9.8880235254764539 16.023208968341351 4.3382098674774152 3.619414508342742 4.5993596762418729 11.124057181179522 4.2695996016263953 7.9221282154321653 50.142444238066673 1.8563186824321745 2.1643270775675774 5.5811812281608564 3.696373239159584 2.3749635964632034 3.8650566786527634 2.5656333267688742 1.9918379262089727 9.378754571080206 3.1889861524105072 7.7172365784645063 4.092204898595809 2.7527257353067398 3.6617400795221311 5.1575957983732224 4.497580774128437 2.9923143461346617
leaf_count=204 20 81 242 110 49 123 20 21 28 55 26 42 230 9 10 26 17 13 17 12 14 53 19 41 20 14 21 24 29 17
internal_value=-0.000832625 -0.00597453 -0.0123033 -0.00867587 0.00953423 0.0188159 0.00540466 0.0203004 -0.00421061 0.0233798 0.0394368 0.0284543 -0.0150718 -0.0131277 -0.00616345 -0.0255299 -0.0292978 -0.00336585 -0.0578086 0.0388296 -0.000275518 -0.0507324 -0.0270113 -0.00423322 -0.0088911 0.0204376 -0.0203411 0.00613615 0.023423 -0.00298084
internal_weight=293.312 249.527 198.8 181.676 47.2021 50.727 34.7038 24.2942 12.7164 37.3141 23.1977 43.7845 134.474 6.12592 10.0865 68.408 10.4095 6.07134 9.44624 33.698 4.55747 17.1239 7.74514 66.0661 55.5961 10.47 58.9618 8.81934 9.09694 14.1164
internal_count=1607 1325 993 901 266 332 209 159 78 217 145 282 635 35 52 318 50 30 43 230 26 92 39 317 262 55 275 45 57 72
is_linear=0
shrinkage=0.05


Tree=26
num_leaves=31
num_cat=0
split_feature=26 8 10 6 4 1 2 19 22 8 24 22 6 3 3 6 11 3 9 5 9 1 22 9 22 33 5 6 0 33
split_gain=16.6537 15.2296 13.5047 17.8676 7.15773 9.26648 10.2118 9.18857 6.83102 6.30643 5.56306 4.63803 4.46078 7.07063 4.1244 6.78577 4.90427 3.92763 3.6844 6.1433 5.13375 3.22083 3.60984 3.20175 3.19964 2.86459 2.67532 5.62896 4.19073 3.44849
threshold=1.0000000180025095e-35 1.5000000000000002 1.5000000000000002 2.5000000000000004 1.5000000000000002 7.5000000000000009 2.8750000000000004 2.5000000000000004 1.0000000180025095e-35 2.5000000000000004 1.0000000180025095e-35 1.0000000180025095e-35 2.5000000000000004 2.5000000000000004 2.5000000000000004 1.5000000000000002 1.0000000180025095e-35 1.5000000000000002 2.5000000000000004 1.5000000000000002 1.5000000000000002 6.5000000000000009 1.0000000180025095e-35 1.5000000000000002 1.0000000180025095e-35 2.5000000000000004 2.5000000000000004 2.5000000000000004 2.5000000000000004 1.5000000000000002
decision_type=2 2 2 2 2 2 2 2 2 2 2 2 2 2 2 2 2 2 2 2 2 2 2 2 2 2 2 2 2 2
left_child=1 4 3 9 25 14 18 12 -4 11 -11 -3 -8 -14 16 -16 24 -10 20 -20 -7 22 -5 -24 -6 -1 27 -26 29 -28
right_child=-2 2 8 21 5 6 7 -9 17 10 -12 -13 13 -15 15 -17 -18 -19 19 -21 -22 -23 23 -25 26 -27 28 -29 -30 -31
leaf_value=0.034666601318094618 -0.061035968958792097 0.007845403419661676 -0.072400845791643645 -0.070346335299361615 -0.065704714554898638 0.014356961153336881 -0.053657586508387894 0.056289671051917289 0.023875019709145514 0.014307477615782757 -0.068176148457843852 0.056174529388459675 0.064988443805937365 -0.042571753143866312 0.0039511933041638334 -0.074284355593412871 -0.026089964483151259 0.054634479207327072 -0.056071809449002114 0.024189072295742284 0.059979212651776075 -0.061408630146702947 -0.02180030415478787 0.051312612036495231 -0.0027583451796835564 -0.010826234572726263 0.012400134823188072 -0.087428566308467404 -0.032468993785787666 0.075838013422262596
leaf_weight=13.522918447852136 11.026191920042036 7.8741780221462276 1.3429722785949696 2.5930928736925143 1.9699348062276829 15.70210500061512 11.656996682286268 3.2220100611448279 18.096126735210419 6.9510123580694216 2.8814204484224319 13.561674788594244 2.4466337338089934 4.0304142087697983 4.3014101386070234 7.7186383903026581 49.804417096078396 24.649233929812908 3.5614188909530622 7.1583685278892517 10.195250183343887 8.4563407003879529 5.5431512296199799 2.0395519882440567 30.300618037581444 4.6236222311854354 5.8634147495031339 2.0902892947196952 2.9566760808229438 3.3921850323677063
leaf_count=90 75 42 7 14 11 85 60 20 118 35 13 92 16 18 20 40 233 189 18 36 67 41 23 12 141 26 27 9 13 16
internal_value=-0.000795864 0.00158938 0.0179722 0.000146035 -0.00675343 -0.0100082 0.00612026 -0.0213399 0.0381323 0.0232495 -0.00985848 0.0384567 -0.0351839 -0.00182744 -0.0186384 -0.046266 -0.0151831 0.0416329 0.0221508 -0.00245669 0.032353 -0.0385909 -0.019538 -0.00202728 -0.00350561 0.0230482 -0.000733221 -0.00826312 0.019188 0.0357609
internal_weight=289.532 278.506 93.9888 49.9004 184.517 166.371 57.9732 21.3561 44.0883 31.2683 9.83243 21.4359 18.134 6.47705 108.398 12.02 96.3775 42.7454 36.6171 10.7198 25.8974 18.6321 10.1758 7.5827 46.5731 18.1465 44.6032 32.3909 12.2123 9.2556
internal_count=1607 1532 586 272 946 830 320 114 314 182 48 134 94 34 510 60 450 307 206 54 152 90 49 35 217 116 206 150 56 43
is_linear=0
shrinkage=0.05


Tree=27
num_leaves=31
num_cat=0
split_feature=26 10 23 4 28 13 11 7 10 28 13 24 24 11 2 28 5 1 1 10 6 3 5 3 32 28 31 6 3 9
split_gain=15.6643 14.428 11.693 9.5359 8.12526 9.53898 7.42101 6.75955 7.16039 6.74911 6.95381 6.81446 6.5917 6.29457 5.99003 5.45351 7.26358 6.11971 4.8582 8.08684 4.76142 4.45639 4.58525 5.30392 4.23251 3.7337 4.43027 4.03017 3.69917 5.36611
threshold=1.0000000180025095e-35 2.5000000000000004 1.0000000180025095e-35 2.5000000000000004 2.2083333333333335 2.5000000000000004 1.5000000000000002 2.5000000000000004 1.5000000000000002 2.4166666666666674 3.5000000000000004 1.5000000000000002 1.0000000180025095e-35 1.5000000000000002 3.4166666666666674 1.5833333333333337 1.0000000180025095e-35 5.5000000000000009 7.5000000000000009 1.5000000000000002 2.5000000000000004 2.5000000000000004 2.5000000000000004 1.5000000000000002 1.0000000180025095e-35 2.0833333333333335 1.0000000180025095e-35 1.5000000000000002 2.5000000000000004 1.5000000000000002
decision_type=2 2 2 2 2 2 2 2 2 2 2 2 2 2 2 2 2 2 2 2 2 2 2 2 2 2 2 2 2 2
left_child=1 2 3 4 6 7 -1 -6 20 13 11 -11 15 -3 25 16 -4 -18 21 24 -9 22 -5 -24 -20 26 27 -15 29 -8
right_child=-2 9 12 18 5 -7 28 8 -10 10 -12 -13 -14 14 -16 -17 17 -19 19 -21 -22 -23 23 -25 -26 -27 -28 -29 -30 -31
leaf_value=0.033147632600141634 -0.060377275461995034 0.055486823625932637 0.05247540232344583 -0.021369209054911333 -0.069886055094199498 0.070037933734675803 -0.031648871033016376 0.014447394695831768 0.062837540221686181 -0.035772858027809933 -0.057137827843022453 0.04759147309239474 -0.06465576377255898 0.021312638346707744 -0.056677997708069229 -0.065677083886066231 0.0092095036365957474 -0.061789650296434386 0.016888029238459761 0.03271979446931441 -0.058504678498856211 -0.056446203686739464 -0.011403916559369407 0.05049187197870772 -0.045279084415464868 0.056073383043294692 0.03065789130931125 -0.071756599273526275 0.059266997147008449 0.014480242153252909
leaf_weight=42.726381897926331 10.600059680640696 19.008680894970894 4.3366147130727812 46.171264261007309 6.3945996761322084 2.8289527595043173 11.12422981858254 3.8427633196115476 2.8478860408067694 3.8394257202744466 4.4598194211721411 6.7241631373763084 10.577249228954317 2.1318556666374251 2.4765140563249579 4.3898877054452887 6.7171200811862946 5.5083885341882706 4.2480709254741669 14.393704570829868 5.3008091002702713 6.7155250310897818 9.8434195518493635 5.3193737268447867 7.6230625510215759 6.7034403905272475 9.2320346832275391 2.5243192464113235 2.4001609534025183 14.510932229459284
leaf_count=274 75 147 27 206 30 15 52 17 20 19 19 48 64 14 14 25 29 25 21 77 26 33 46 25 38 54 67 16 12 72
internal_value=-0.00076275 0.00153609 -0.00432679 0.000437073 0.0118943 -0.0152283 0.0200339 -0.0284058 -0.00620443 0.0239068 -0.00483004 0.0172395 -0.0324812 0.0341778 0.0165806 -0.0161915 -0.00301322 -0.0227637 -0.0107309 0.00751969 -0.0278082 -0.0177824 -0.0135324 0.0102962 -0.0229951 0.0254388 0.0105867 -0.0290828 2.58087e-05 -0.00552226
internal_weight=285.521 274.921 217.82 186.291 91.9767 21.215 70.7617 18.3861 11.9915 57.1003 15.0234 10.5636 31.5293 42.0768 23.0682 20.952 16.5621 12.2255 94.3144 26.2648 9.14357 68.0496 61.3341 15.1628 11.8711 20.5916 13.8882 4.65617 28.0353 25.6352
internal_count=1607 1532 1134 964 518 108 410 93 63 398 86 67 170 312 165 106 81 54 446 136 43 310 277 71 59 151 97 30 136 124
is_linear=0
shrinkage=0.05


Tree=28
num_leaves=31
num_cat=0
split_feature=26 8 10 6 23 4 1 2 19 8 24 22 6 3 29 22 2 4 28 2 2 5 30 4 1 22 32 32 6 5
split_gain=14.7431 13.5268 11.8473 15.4472 9.39328 6.07686 7.75551 8.90848 8.10585 5.83307 4.99101 4.5388 4.13637 6.2931 3.84334 3.47993 3.34024 5.76924 3.67573 3.39429 4.38798 3.11782 9.42203 2.96863 2.9219 3.44004 2.84449 2.76721 2.75617 3.58206
threshold=1.0000000180025095e-35 1.5000000000000002 1.5000000000000002 2.5000000000000004 1.0000000180025095e-35 1.5000000000000002 7.5000000000000009 2.8750000000000004 2.5000000000000004 2.5000000000000004 1.0000000180025095e-35 1.0000000180025095e-35 2.5000000000000004 2.5000000000000004 3.5000000000000004 1.0000000180025095e-35 2.4166666666666674 2.5000000000000004 2.2916666666666674 2.2916666666666674 1.7083333333333337 1.5000000000000002 0.60355339059327384 3.5000000000000004 6.5000000000000009 1.0000000180025095e-35 1.0000000180025095e-35 1.0000000180025095e-35 1.5000000000000002 1.0000000180025095e-35
decision_type=2 2 2 2 2 2 2 2 2 2 2 2 2 2 2 2 2 2 2 2 2 2 2 2 2 2 2 2 2 2
left_child=1 5 3 9 -4 -1 14 21 12 11 -11 -3 -9 -14 15 -7 17 18 19 20 27 22 23 -8 25 -5 -19 -17 29 -22
right_child=-2 2 4 24 -6 6 7 8 -10 10 -12 -13 13 -15 -16 16 -18 26 -20 -21 28 -23 -24 -25 -26 -27 -28 -29 -30 -31
leaf_value=0.021497134643673838 -0.059763237775026345 0.0067754736174184954 0.041815822808125257 -0.069019939618550949 -0.072442810048994652 -0.063163951836176555 0.032825397230221688 -0.051506709858832926 0.054715283133496162 0.013215852582996845 -0.065464961934354082 0.055197959279750498 0.064358122205604038 -0.039014268150732695 -0.065729143824300826 0.0039874999369098043 0.0041498645314717638 -0.04728875669213542 -0.058427094211416321 -0.047810028388024631 0.044412190051900467 0.036081480869091957 -0.064197295006892141 -0.036608618543694238 -0.058424856658254615 -0.00093963291216496046 -0.020587274764485963 -0.03753073160771285 0.056576545464209121 -0.030058043820074383
leaf_weight=17.58508837223053 10.184154517948626 7.7543324902653721 40.136988468468189 2.4639314115047473 1.8712102621793736 3.6833608746528617 12.909038625657558 11.348900124430662 3.0435040518641463 6.8694824054837245 2.8378830552101135 12.990025542676447 2.3177772685885421 3.9954688102006912 3.9476457536220542 12.706256046891214 20.72412420809269 16.379665732383728 2.8270567804574958 3.2280453443527213 3.2802567332983035 17.189144067466259 3.7459901347756377 1.7326961457729346 8.1269409209489805 7.4858020693063736 25.84497158229351 5.8438336104154578 5.3144669681787491 3.1559414714574814
leaf_count=116 75 42 304 14 10 23 78 60 20 35 13 92 16 18 23 55 97 72 15 18 18 101 19 8 41 35 117 25 32 15
