tree
version=v4
num_class=1
num_tree_per_iteration=1
label_index=0
max_feature_idx=33
objective=binary sigmoid:1
feature_names=Column_0 Column_1 Column_2 Column_3 Column_4 Column_5 Column_6 Column_7 Column_8 Column_9 Column_10 Column_11 Column_12 Column_13 Column_14 Column_15 Column_16 Column_17 Column_18 Column_19 Column_20 Column_21 Column_22 Column_23 Column_24 Column_25 Column_26 Column_27 Column_28 Column_29 Column_30 Column_31 Column_32 Column_33
feature_infos=[2:7] [2:24] [1:5.5] [1:4] [1:10] [0:4] [1:4] [1:8] [0:4] [0:4] [0:8] [0:4] [0:4] [0:8] [0:4] [0:3] [0:5] none [0:4] [0:5] none [1:7] [0:4] [0:3] [0:3] [0:3] [0:3] [2:7] [1:3.6666666666666665] [1:4] [0:1.5] [0:4] [0:3] [1:4]
tree_sizes=2566 3368 3059 3165 3072 3285 3392 3188 3290 3190 3290 3372 3192 3071 3185 3186 3293 3187 3188 3191 3187 2961 3056 3084 3389 3305 3403 3196 3401 3389 3387 3391 3189 3187 3285 3401 3193 3290 3181 3078 3409 3405 3310 3393 3175 3398 3413 3409 3416 3402 3417 3418 3082 3435 3296 3313 3408 3390 3408 3405 3323 3220 3314 3098 3409 3390 3297 3406 3404 3382 3165 3061 3299 3304 3438 3309 3383 3110 3424 3388 3302 3400 3405 3391 3410 3422 3407 3405 3403 3430 3190 3403 3383 3406 3411 3383 3176 3304 3411 3401 3418 3410 3407 3420 3419 3405 3415 3399 2990 3441 3413 3309 3208 3417 3327 3418

Tree=0
num_leaves=24
num_cat=0
split_feature=26 23 2 28 4 2 5 2 8 4 1 24 11 28 28 28 30 1 6 6 7 8 0
split_gain=208.964 86.7684 50.6789 40.8343 9.65869 9.80201 9.43973 7.15936 8.03527 4.9288 4.77074 4.31627 3.32167 2.51759 2.36741 2.17078 1.77898 1.25413 0.94098 0.509827 0.39467 0.116002 2.84217e-14
threshold=1.0000000180025095e-35 1.0000000180025095e-35 3.5833333333333335 1.5833333333333337 2.5000000000000004 2.2916666666666674 1.0000000180025095e-35 1.7083333333333337 1.5000000000000002 3.5000000000000004 6.5000000000000009 1.5000000000000002 1.5000000000000002 2.3666666666666671 1.7916666666666667 2.183333333333334 0.45220861134162554 7.5000000000000009 1.5000000000000002 1.5000000000000002 2.5000000000000004 1.5000000000000002 3.5000000000000004
decision_type=2 2 2 2 2 2 2 2 2 2 2 2 2 2 2 2 2 2 2 2 2 2 2
left_child=1 2 4 6 7 -6 -3 8 14 11 21 -7 15 16 -1 -11 -12 -18 -10 -19 -13 -9 -2
right_child=22 3 -4 -5 5 9 -8 10 18 12 13 20 -14 -15 -16 -17 17 19 -20 -21 -22 -23 -24
leaf_value=0.47575584905113044 0.31816210184564292 0.49826924150905721 0.34817995845621197 0.31816210184564292 0.42591851019127541 0.46700064087304777 0.41086430608416497 0.52050469085021944 0.49174362050675957 0.49826924150905721 0.47825733710201113 0.51001535931319286 0.44176504083033902 0.47032158190611362 0.43022876652510073 0.45824543269496515 0.52828709811962626 0.49008255334253836 0.52020536749370383 0.51147709841770761 0.52828709811962626 0.52828709811962626 0.31816210184564292
leaf_weight=4.7590720653533936 21.177870690822605 4.9970256686210641 6.6627008914947501 12.611540973186491 9.2801905274391157 5.7108864784240732 8.090422511100769 6.424747288227084 5.4729328751564026 8.3283761143684369 4.9970256686210694 5.4729328751564026 8.090422511100769 6.9006544947624198 7.1386080980300903 5.7108864784240732 7.138608098030093 5.2349792718887311 6.1867936849594116 5.9488400816917419 6.4247472882270813 18.798334658145905 6.6627008914947501
leaf_count=20 89 21 28 53 39 24 34 27 23 35 21 23 34 29 30 24 30 22 26 25 27 79 28
internal_value=0.444609 0.466559 0.482624 0.382367 0.489621 0.472186 0.444237 0.500439 0.477348 0.482991 0.510251 0.502731 0.467283 0.496851 0.44844 0.481988 0.504702 0.511914 0.506846 0.501463 0.519882 0.526305 0.318162
internal_weight=188.221 160.381 134.682 25.699 128.019 49.0184 13.0874 79.0006 23.5574 39.7383 55.4432 17.6086 22.1297 30.2201 11.8977 14.0393 23.3195 18.3224 11.6597 11.1838 11.8977 25.2231 27.8406
internal_count=791 674 566 108 538 206 55 332 99 167 233 74 93 127 50 59 98 77 49 47 50 106 117
is_linear=0
shrinkage=1


Tree=1
num_leaves=31
num_cat=0
split_feature=22 29 2 23 28 28 5 4 8 2 8 10 7 0 2 4 5 7 28 10 28 6 11 29 3 24 8 6 1 10
split_gain=113.437 57.557 48.1997 33.193 33.8148 21.0294 14.2463 11.3822 9.34094 16.1896 11.4961 12.0141 8.41428 6.4887 5.50321 4.94055 4.37965 1.9881 1.29452 1.09507 0.858011 0.963609 0.238239 0.115119 0.00694817 0.00667662 0.000640479 0.000510749 0.000153945 3.35662e-05
threshold=1.0000000180025095e-35 3.5000000000000004 3.5833333333333335 1.0000000180025095e-35 1.5833333333333337 1.1250000000000002 2.5000000000000004 3.5000000000000004 2.5000000000000004 2.4166666666666674 1.5000000000000002 2.5000000000000004 1.5000000000000002 2.5000000000000004 2.7083333333333335 3.5000000000000004 1.5000000000000002 2.5000000000000004 2.3666666666666671 1.5000000000000002 2.2678571428571432 2.5000000000000004 1.5000000000000002 2.5000000000000004 1.5000000000000002 1.0000000180025095e-35 3.5000000000000004 1.5000000000000002 6.5000000000000009 1.5000000000000002
decision_type=2 2 2 2 2 2 2 2 2 2 2 2 2 2 2 2 2 2 2 2 2 2 2 2 2 2 2 2 2 2
left_child=5 2 3 6 13 -1 8 -8 10 -10 11 12 16 -5 17 18 -2 19 22 -14 23 -22 27 -13 -24 26 -7 -12 29 -29
right_child=1 -3 -4 4 -6 25 7 -9 9 -11 15 20 14 -15 -16 -17 -18 -19 -20 -21 21 -23 24 -25 -26 -27 -28 28 -30 -31
leaf_value=-0.0097145943603256374 -0.054052767735277708 -0.12093040662423729 -0.096840745072583348 0.061949062516814063 -0.11872995226073829 -0.11946470031952545 -0.058051904384161551 0.032687249622409979 -0.062341778375387173 0.055912662135886186 0.080274647553053122 0.069481736548160103 0.017530114422791069 -0.014665519927351678 -0.011136238225254518 0.02508642522578048 0.0057557523720085848 0.06320585055718432 0.048817339366949437 0.049488845220449072 0.038049524407346588 0.070036435953958115 0.072016570458674267 0.080299763298825502 0.069509376558835115 -0.12083576549290918 -0.11872995226073826 0.079706899607540307 0.07996714271845716 0.079528626981568831
leaf_weight=5.4575552195310619 4.7677409201860401 7.5130511224269858 8.2409865558147413 4.9928002953529376 7.3133558034896842 5.1097200661897677 6.7135934978723508 7.1226255744695663 5.4978947043418867 6.1116599142551422 6.1043762415647533 4.6919138729572314 6.1877756863832527 6.1897061467170715 5.4299249202013007 6.1742802262306204 8.550275132060051 8.9076230823993665 4.7111443728208533 4.7288450449705124 4.7071148604154569 4.710835725069046 6.3222914636135084 5.1677499413490295 4.9089296162128448 8.9704629033803922 7.0695772767066956 6.0777540504932386 4.9200848042964926 4.6686840653419495
leaf_count=23 20 31 34 21 30 21 28 30 23 26 26 20 26 26 23 26 36 38 20 20 20 20 27 22 21 37 29 26 21 20
internal_value=-0.00156334 0.0142028 0.0207988 0.0274537 -0.0351317 -0.0972203 0.0365553 -0.0113411 0.0424019 -8.86647e-05 0.0472507 0.0326112 0.0165027 0.0195416 0.0334615 0.0665475 -0.0156552 0.045677 0.0733354 0.0313739 0.0648423 0.0540493 0.0768354 0.0751518 0.0709207 -0.119801 -0.119038 0.0798867 0.0797355 0.0796295
internal_weight=188.04 161.433 153.92 145.679 18.4959 26.6073 127.183 13.8362 113.347 11.6096 101.737 57.8498 38.5722 11.1825 25.2542 43.8875 13.318 19.8242 37.7133 10.9166 19.2776 9.41795 33.0021 9.85966 11.2312 21.1498 12.1793 21.7709 15.6665 10.7464
internal_count=791 681 650 616 77 110 539 58 481 49 432 245 163 47 107 187 56 84 161 46 82 40 141 42 48 87 50 93 67 46
is_linear=0
shrinkage=0.05


Tree=2
num_leaves=28
num_cat=0
split_feature=23 8 5 2 28 1 11 8 10 25 5 6 30 32 21 7 33 2 2 7 33 4 2 11 29 28 24
split_gain=95.4265 66.7758 43.015 38.9731 28.5716 13.1009 11.2821 8.17096 8.25105 6.78441 5.67404 9.55584 5.39104 7.78393 4.01407 3.48642 1.22529 1.14882 2.1623 1.09922 1.04161 0.531476 0.000236141 0.000192185 6.51244e-06 5.70864e-06 2.7665e-06
threshold=1.0000000180025095e-35 3.5000000000000004 3.5000000000000004 3.5833333333333335 1.5833333333333337 6.5000000000000009 2.5000000000000004 1.5000000000000002 2.5000000000000004 1.0000000180025095e-35 1.5000000000000002 1.5000000000000002 0.53867513459481298 1.0000000180025095e-35 3.5000000000000004 3.5000000000000004 1.5000000000000002 2.4166666666666674 3.0714285714285716 1.5000000000000002 1.5000000000000002 2.5000000000000004 1.7750000000000001 1.5000000000000002 3.5000000000000004 1.7916666666666667 1.0000000180025095e-35
decision_type=2 2 2 2 2 2 2 2 2 2 2 2 2 2 2 2 2 2 2 2 2 2 2 2 2 2 2
left_child=1 2 3 6 5 -2 7 8 10 14 11 -1 13 16 20 -11 -12 -10 -19 -15 -9 22 -22 25 26 -24 -6
right_child=4 -3 -4 -5 24 -7 -8 9 17 15 12 -13 -14 19 -16 -17 -18 18 -20 -21 21 -23 23 -25 -26 -27 -28
leaf_value=0.029134544136093982 0.012532152332928967 -0.11290306255729793 -0.11314416664278149 -0.085403721436901378 -0.11102106011845102 -0.080768947233847491 -0.022420014125574764 0.052354134778856282 0.078053826684053196 -0.0099229388248721958 0.02603869242315808 -0.047053375759790336 0.062983646415805158 -0.03374584333022853 0.030530361019483046 0.048270916399194112 0.058091845854045747 0.027855136177915685 0.070580630806435118 -7.5283142010491153e-05 0.077772585476342027 0.063219737864944656 0.077238786094788084 0.077646276675517795 -0.11093857647124911 0.077316019104966799 -0.1109774814105557
leaf_weight=8.8806730806827563 9.9932611882686633 9.3725499361753446 5.4234800338745108 6.8881922662258139 6.931018218398096 6.0343081206083289 7.5985129028558722 7.4371121525764456 5.0633931905031231 5.4512995928525907 5.4390807896852529 7.6703614592552176 8.8820787221193296 4.7547604143619537 8.1638597995042783 4.8757564276456833 6.5987043231725693 5.8184497654438001 6.0305097550153732 4.9447502940893173 6.4277775436639848 9.3094358891248685 5.02235399186611 5.5019863694906226 6.6843753755092612 4.5693583488464355 7.6741691082715988
leaf_count=38 42 38 22 28 28 25 32 32 22 23 23 32 38 20 35 21 28 25 26 21 28 40 22 24 27 20 31
internal_value=-0.00146326 0.0163236 0.0249287 0.0304622 -0.0730188 -0.0225953 0.036676 0.040392 0.0281558 0.054207 0.0174129 -0.00617376 0.0301625 0.0167515 0.0623595 0.0175524 0.0436091 0.0581189 0.0496002 -0.0165808 0.0691497 0.0732012 0.0775188 0.0774107 -0.110979 0.0772756 -0.110998
internal_weight=187.442 150.124 140.752 135.328 37.3171 16.0276 128.44 120.842 64.0828 56.7589 47.1704 16.551 30.6194 21.7373 46.4319 10.3271 12.0378 16.9124 11.849 9.69951 38.268 30.8309 21.5215 15.0937 21.2896 9.59171 14.6052
internal_count=791 638 600 578 153 67 550 518 273 245 200 70 130 92 201 44 51 73 51 41 166 134 94 66 86 42 59
is_linear=0
shrinkage=0.05


Tree=3
num_leaves=29
num_cat=0
split_feature=26 23 2 28 5 4 2 4 2 8 1 28 28 28 28 21 1 2 2 28 6 8 28 23 22 1 24 33
split_gain=154.287 64.0438 37.3951 28.2775 8.23944 8.13298 8.40942 6.18737 6.18349 6.48072 4.43546 2.23694 2.02821 3.15037 1.95084 1.62659 1.43372 2.63934 1.4018 1.12652 0.791804 0.103873 0.0430911 0.0110553 0.0101922 0.00270696 0.00188786 3.02574e-06
threshold=1.0000000180025095e-35 1.0000000180025095e-35 3.5833333333333335 1.5833333333333337 1.0000000180025095e-35 2.5000000000000004 2.4166666666666674 4.5000000000000009 1.7083333333333337 1.5000000000000002 6.5000000000000009 2.3666666666666671 1.5833333333333337 1.7083333333333337 1.7916666666666667 2.5000000000000004 8.5000000000000018 3.0714285714285716 2.9166666666666674 1.3666666666666669 1.5000000000000002 1.5000000000000002 1.5833333333333337 1.0000000180025095e-35 1.0000000180025095e-35 5.5000000000000009 1.5000000000000002 2.5000000000000004
decision_type=2 2 2 2 2 2 2 2 2 2 2 2 2 2 2 2 2 2 2 2 2 2 2 2 2 2 2 2
left_child=1 2 5 4 -3 8 12 15 9 14 21 18 -7 -14 -1 -8 -17 -18 19 -12 -11 -10 -2 24 -24 -23 -27 -5
right_child=22 3 -4 27 -6 6 7 -9 10 20 11 -13 13 -15 -16 16 17 -19 -20 -21 -22 25 23 -25 -26 26 -28 -29
leaf_value=0.026653645089426872 -0.11045324825687364 0.050101017350781721 -0.080388826978373809 -0.10453841318478992 -0.031714302117833056 -0.032667043954061281 0.027967408435163512 0.0018882179235094874 0.068687833426197012 0.040691692915275947 0.072075229320746004 0.020010694659289497 0.029835234239089826 -0.025081775511991741 -0.014846255737562887 0.078843387711857088 0.022378208444281789 0.070011819565130098 0.030312298412849548 0.046394627294253823 0.067381634908191143 0.077132716348412955 -0.10519968209119722 -0.10459620336392472 -0.10802356482808961 0.076588256882485425 0.075309385658022476 -0.10458645983387396
leaf_weight=4.6832804083824158 7.4214373826980617 4.9321231096982965 6.9502471536397925 7.2363343685865384 8.1827058345079422 5.2278637737035742 5.8229058235883739 8.9116108119487745 6.1325091421604183 5.3016267865896225 8.9332956969738095 6.7464631199836722 5.8701649010181409 4.7043186128139496 7.1631726324558258 5.7846729010343578 5.3174406290054304 6.4181486070156097 5.272240847349166 8.1813092380762082 5.8396861404180527 5.6911091059446344 5.2360264956951132 8.2340688854455948 8.1984542161226273 4.7456049919128418 7.3631476163864136 5.9884602129459381
leaf_count=20 30 21 28 29 34 22 25 38 27 23 39 29 25 20 30 25 23 28 23 36 26 25 21 33 33 21 33 24
internal_value=-0.00137674 0.0181745 0.0324725 -0.0529693 -0.000945832 0.0387928 0.0226911 0.037331 0.0489672 0.0273058 0.0583508 0.045249 -0.00719094 0.00540405 0.00155998 0.0508618 0.0584708 0.0484288 0.0528548 0.0597991 0.0546811 0.0742998 -0.107165 -0.106039 -0.106923 0.0762333 0.0758106 -0.10456
internal_weight=186.49 157.4 131.061 26.3396 13.1148 124.111 48.0571 32.2548 76.0534 22.9878 53.0657 29.1333 15.8023 10.5745 11.8465 23.3432 17.5203 11.7356 22.3868 17.1146 11.1413 23.9324 29.09 21.6685 13.4345 17.7999 12.1088 13.2248
internal_count=791 674 566 108 55 538 206 139 332 99 233 127 67 45 50 101 76 51 98 75 49 106 117 87 54 79 54 53
is_linear=0
shrinkage=0.05


Tree=4
num_leaves=28
num_cat=0
split_feature=26 23 2 28 4 2 5 2 8 4 1 28 32 28 28 28 10 2 28 6 32 30 28 23 22 24 30
split_gain=138.919 58.1942 33.9311 25.4344 7.61456 7.70766 7.4788 5.8257 6.00899 5.73678 4.26605 2.09845 2.68085 1.81705 2.85098 1.76743 1.59294 2.93676 0.830311 0.760616 0.634189 0.10277 0.0312774 0.00805503 0.00739915 0.0041851 2.45743e-06
threshold=1.0000000180025095e-35 1.0000000180025095e-35 3.5833333333333335 1.5833333333333337 2.5000000000000004 2.4166666666666674 1.0000000180025095e-35 1.7083333333333337 1.5000000000000002 4.5000000000000009 6.5000000000000009 2.3666666666666671 1.0000000180025095e-35 1.5833333333333337 1.7083333333333337 1.7916666666666667 3.5000000000000004 2.7750000000000004 1.7083333333333337 1.5000000000000002 1.0000000180025095e-35 0.45220861134162554 1.5833333333333337 1.0000000180025095e-35 1.0000000180025095e-35 1.5000000000000002 0.92016825471890717
decision_type=2 2 2 2 2 2 2 2 2 2 2 2 2 2 2 2 2 2 2 2 2 2 2 2 2 2 2
left_child=1 2 4 6 7 13 -3 8 15 16 21 12 -12 -6 -15 -1 17 20 -14 -10 -7 -9 -2 24 -24 -23 -5
right_child=22 3 -4 26 5 9 -8 10 19 -11 11 -13 18 14 -16 -17 -18 -19 -20 -21 -22 25 23 -25 -26 -27 -28
leaf_value=0.025499012511877681 -0.10415423245396227 0.048223072625312981 -0.075966832600473766 -0.099162328873145522 -0.030814611426756556 0.069323760177776875 -0.029953233776460749 0.067090840961753384 0.039120749939592026 0.0017946600245382076 0.028769359456667299 0.019114392200264951 0.051253484582259083 0.028556893881527892 -0.023688004449053571 -0.014060097100482755 0.075800590475970375 0.018631126274058222 0.076002918366527519 0.065499930965863887 0.044928186430656186 0.075231695206960311 -0.099690317634343342 -0.09917415457050982 -0.10209224620622251 0.073650253898172979 -0.099118880806498319
leaf_weight=4.6514062583446503 7.47513519227505 4.8695873916149148 6.9860323667526236 7.4994630813598615 5.2640618979930869 6.3774044960737282 8.2293584197759628 6.6231782883405712 5.240372896194458 8.9074885249137896 8.3705119490623527 6.7106074988842002 6.235124930739401 5.8274017572402936 4.7313380241394043 7.1849328279495239 4.4824718832969657 7.5684059560298911 7.4236247092485428 5.7103665173053741 4.575201004743576 8.4536914080381393 5.2486639320850363 8.2494266480207443 8.2397257089614868 8.282068058848381 5.7495447099208832
leaf_count=20 30 21 28 30 22 28 34 30 23 38 37 29 28 25 20 30 20 33 33 26 20 38 21 33 33 38 23
internal_value=-0.00129998 0.0174439 0.0312151 -0.050297 0.0373216 0.0217153 -0.000890868 0.0472694 0.0261824 0.0358632 0.0564924 0.0435935 0.0510504 -0.0068176 0.00514612 0.00148571 0.0490553 0.0425824 0.064705 0.0528764 0.0591331 0.0723627 -0.101364 -0.100405 -0.101158 0.0744491 -0.0991435
internal_weight=185.167 155.954 129.606 26.348 122.62 47.7338 13.0989 74.8859 22.7871 31.911 52.0988 28.7399 22.0293 15.8228 10.5587 11.8363 23.0035 18.521 13.6587 10.9507 10.9526 23.3589 29.213 21.7378 13.4884 16.7358 13.249
internal_count=791 674 566 108 538 206 55 332 99 139 233 127 98 67 45 50 101 81 61 49 48 106 117 87 54 76 53
is_linear=0
shrinkage=0.05


Tree=5
num_leaves=30
num_cat=0
split_feature=26 23 2 29 4 2 4 5 2 2 11 8 25 2 9 30 5 8 30 10 30 22 30 1 1 29 32 6 29
split_gain=122.35 56.7152 34.0059 24.3578 10.8408 10.1498 10.433 9.49919 7.46384 6.31039 4.9776 4.23882 2.04402 2.0072 1.49522 0.665555 0.640137 0.90415 0.505082 0.147611 0.0682218 0.0159215 0.0179612 0.0151443 0.00661801 0.00232556 0.00205796 0.000414039 2.23232e-06
threshold=1.0000000180025095e-35 1.0000000180025095e-35 3.5833333333333335 2.5000000000000004 2.5000000000000004 2.4166666666666674 4.5000000000000009 1.0000000180025095e-35 1.5833333333333337 2.9166666666666674 1.5000000000000002 1.5000000000000002 1.0000000180025095e-35 2.7750000000000004 2.5000000000000004 0.8228263892582881 1.5000000000000002 1.5000000000000002 0.48570226039551589 1.5000000000000002 0.45220861134162554 1.0000000180025095e-35 0.80824829046386315 5.5000000000000009 7.5000000000000009 2.5000000000000004 1.0000000180025095e-35 1.5000000000000002 3.5000000000000004
decision_type=2 2 2 2 2 2 2 2 2 2 2 2 2 2 2 2 2 2 2 2 2 2 2 2 2 2 2 2 2
left_child=1 2 4 7 8 10 13 -3 11 12 -6 -1 16 18 -15 -8 17 20 -7 -19 -10 26 -23 -18 27 -21 -2 -25 -5
right_child=21 3 -4 28 5 6 15 -9 9 -11 -12 -13 -14 14 -16 -17 23 19 -20 25 -22 22 -24 24 -26 -27 -28 -29 -30
leaf_value=-0.015207671474665063 -0.09624667525099781 0.046429032494489535 -0.078381952065721738 -0.094518370635289284 0.015120117017060328 0.075485057630225519 0.0051363940297212028 -0.036214047649204585 0.054010304553741395 0.012839268037027146 -0.039240887160282623 0.043266222166219441 0.040249545421864041 0.018602742474871297 0.056639169491868674 -0.021206194262423299 0.076489994686815596 0.062230459206658963 0.054638545201995126 0.072187330927320145 0.045415645387060374 -0.099601118250926463 -0.095977614513566817 0.072869281439579034 0.074832609604979491 0.07370431941117693 -0.095027303162284207 0.07221355140986295 -0.094477420051569838
leaf_weight=6.16971607506275 5.7351056039333352 5.9800425022840527 6.7492598295211783 8.4714085608720762 8.2673036605119705 7.5846070647239703 4.6779993474483472 8.3073349595069867 4.5023064464330673 7.1515682488679877 8.5826025307178497 6.2276667058467865 8.3163607567548734 5.1719679534435254 5.1629446893930435 4.9191292077302933 4.9627586752176311 4.7229532003402719 4.7099205851554871 5.1066316962242109 4.7393863648176193 7.2369386553764325 6.4841308444738388 4.7347910106182081 4.6511338055133811 5.000131830573082 8.7233928889036179 4.8971592485904694 5.4812066853046408
leaf_count=26 23 26 27 34 35 34 20 34 20 32 36 28 37 23 23 21 22 22 21 24 21 29 26 22 21 23 35 23 22
internal_value=-0.00082016 0.0165776 0.0308278 -0.0475124 0.036957 0.0188773 0.0353192 -0.00162344 0.049422 0.0568572 -0.012569 0.0141659 0.0629539 0.053846 0.0376044 -0.00836583 0.0673129 0.061878 0.067499 0.0695278 0.0496027 -0.0966688 -0.0978888 0.0741105 0.0732838 0.0729378 -0.095511 0.0725359 -0.0945023
internal_weight=183.428 155.248 127.008 28.24 120.259 49.0765 32.2266 14.2874 71.1826 58.7852 16.8499 12.3974 51.6336 22.6294 10.3349 9.59713 43.3173 24.0714 12.2945 14.8297 9.24169 28.1796 13.7211 19.2458 14.2831 10.1068 14.4585 9.63195 13.9526
internal_count=790 677 561 116 534 213 142 60 321 267 71 54 235 101 46 41 198 110 55 69 41 113 55 88 66 47 58 45 56
is_linear=0
shrinkage=0.05


Tree=6
num_leaves=31
num_cat=0
split_feature=26 23 2 28 5 10 7 11 2 24 21 9 7 28 1 10 6 22 3 11 33 2 9 28 1 23 22 30 30 30
split_gain=111.204 51.7275 30.962 30.105 7.58629 6.92959 8.91665 10.258 9.51143 7.38606 4.26198 3.89455 2.79992 3.59708 4.23177 3.18025 2.3658 0.808066 0.576285 0.559711 0.538005 0.531233 0.138515 0.0178336 0.0130901 0.00683673 0.00568858 0.00253987 0.00154266 0.000414182
threshold=1.0000000180025095e-35 1.0000000180025095e-35 3.5833333333333335 1.5833333333333337 1.0000000180025095e-35 2.5000000000000004 1.5000000000000002 1.5000000000000002 2.7083333333333335 1.5000000000000002 3.5000000000000004 2.5000000000000004 2.5000000000000004 1.2916666666666667 6.5000000000000009 1.5000000000000002 2.5000000000000004 1.5000000000000002 2.5000000000000004 2.5000000000000004 1.5000000000000002 2.2916666666666674 1.5000000000000002 1.5833333333333337 7.5000000000000009 1.0000000180025095e-35 1.0000000180025095e-35 0.72623138684323885 0.48570226039551589 0.80824829046386315
decision_type=2 2 2 2 2 2 2 2 2 2 2 2 2 2 2 2 2 2 2 2 2 2 2 2 2 2 2 2 2 2
left_child=1 2 5 4 -3 6 7 16 12 -9 19 -10 13 -8 15 -15 20 22 -12 24 -1 -19 28 -2 29 26 -25 -5 -14 -7
right_child=23 3 -4 27 -6 10 8 9 11 -11 18 -13 17 14 -16 -17 -18 21 -20 -21 -22 -23 -24 25 -26 -27 -28 -29 -30 -31
leaf_value=0.033329083192107208 -0.094470435248238602 0.05774427679455553 -0.074543583871032632 -0.091852684638149107 -0.021488893850571157 0.070765259701362868 0.075066537270759681 -0.079104908354271031 -0.022755088455435977 0.0043401613922505111 0.01678053307078738 0.035071914628352976 0.071301076357778256 0.022551101311397752 -0.0096532665462471245 0.072339454086934804 0.001279989691923396 0.040309852571362936 0.041414646753223872 0.052196381548817311 0.055665758354582554 0.063252904607668192 0.061372495016828635 -0.091067760092401001 0.073877845943880568 -0.090463381870900111 -0.093222934848412611 -0.090487226484788005 0.072570347750672434 0.071461787555915396
leaf_weight=6.6504886448383349 7.4583384990692165 5.4053974598646182 6.7420498877763739 4.9576587229967108 6.8487396836280823 4.3523647785186856 4.8833594173193005 4.8529384732246417 7.4979955554008466 5.8468519598245621 5.1062287986278516 4.760063424706459 5.4410158246755582 8.1454494893550891 5.5775746107101432 5.2905455380678168 5.0958470106124869 5.9025315642356873 4.4371762424707413 4.2436287552118293 4.5334767550230026 4.4066517800092697 4.6584562510252008 5.1975564211606997 8.5072392374277097 7.9110896587371817 7.4512686431407928 10.878425583243368 4.2745437622070312 4.1879682689905167
leaf_count=29 30 24 27 20 28 21 22 20 33 25 23 21 26 36 24 25 22 27 20 19 20 20 22 21 39 32 30 44 20 20
internal_value=-0.00077483 0.0159467 0.0296852 -0.0453814 0.0134615 0.0356076 0.0284476 0.00452274 0.0390575 -0.0335067 0.0559995 -0.000299641 0.0489883 0.0367888 0.0269577 0.0421557 0.0295173 0.0607993 0.0282341 0.0684449 0.0423834 0.0501168 0.0684608 -0.092376 0.0724896 -0.0916163 -0.0923373 -0.0909147 0.0718595 0.0711068
internal_weight=181.503 153.485 125.394 28.0902 12.2541 118.652 87.8178 26.9796 60.8382 10.6998 30.8346 12.2581 48.5801 23.8969 19.0136 13.436 16.2798 24.6832 9.54341 21.2912 11.184 10.3092 14.374 28.0183 17.0476 20.5599 12.6488 15.8361 9.71556 8.54033
internal_count=790 677 561 116 52 534 392 116 276 45 142 54 222 107 85 61 71 115 43 99 49 47 68 113 80 83 51 64 46 41
is_linear=0
shrinkage=0.05


Tree=7
num_leaves=29
num_cat=0
split_feature=26 23 2 28 4 2 4 5 2 2 11 25 2 28 0 5 30 30 33 7 1 28 1 23 22 30 6 29
split_gain=101.464 47.2725 28.2345 27.532 9.60353 8.89774 9.31069 6.96608 6.87516 5.74598 4.04466 2.03137 1.93088 1.4542 1.25874 0.630134 0.700515 0.592534 0.498569 0.326614 0.0138271 0.0135677 0.00652288 0.00521069 0.00432334 0.00193697 0.000392729 1.36799e-06
threshold=1.0000000180025095e-35 1.0000000180025095e-35 3.5833333333333335 1.5833333333333337 2.5000000000000004 2.4166666666666674 4.5000000000000009 1.0000000180025095e-35 1.5833333333333337 2.9166666666666674 1.5000000000000002 1.0000000180025095e-35 2.7750000000000004 1.3666666666666669 3.5000000000000004 1.5000000000000002 0.48570226039551589 0.8228263892582881 2.5000000000000004 2.5000000000000004 5.5000000000000009 1.5833333333333337 7.5000000000000009 1.0000000180025095e-35 1.0000000180025095e-35 0.72623138684323885 1.5000000000000002 3.5000000000000004
decision_type=2 2 2 2 2 2 2 2 2 2 2 2 2 2 2 2 2 2 2 2 2 2 2 2 2 2 2 2
left_child=1 2 4 7 8 10 12 -3 13 11 -6 15 18 -1 -14 16 19 -8 -7 -10 -17 -2 26 24 -23 -5 -22 -27
right_child=21 3 -4 25 5 6 17 -9 9 -11 -12 -13 14 -15 -16 20 -18 -19 -20 -21 22 23 -24 -25 -26 27 -28 -29
leaf_value=0.033589204216250272 -0.090476502775478404 0.055924343014923363 -0.071096781273746149 -0.088183326437286325 0.013152339117593415 0.07355595966000282 0.0046637244737358953 -0.020354655218868613 0.07112026047267643 0.011607461674323163 -0.035853957551131015 0.036770975281962638 0.017482272395969715 -0.0016619700543612317 0.052836393645011914 0.073475576716592716 0.045880354059488107 -0.020194239236311612 0.052837483774041516 0.056635621654224526 0.069908341942340968 -0.087495195303638626 0.071912348869611523 -0.086963616367127058 -0.089383632051752412 -0.087002347458783172 0.069251039955354129 -0.086966680845734667
leaf_weight=4.8534258455038053 7.399588659405711 5.3048097044229525 6.7160620391368857 4.9069849103689185 8.1822459548711777 6.733141511678701 4.6592331975698453 6.8683346658945084 8.7120239436626452 7.0872432738542548 8.6734784692525864 8.0474395751953107 5.1280413568019849 7.3655050247907639 4.9459042251110077 4.7578850090503719 7.264775648713111 4.9380650818347931 5.1054125279188156 7.0342732369899741 4.477267920970915 5.1406827569007891 4.4422364234924308 7.8202209174633017 7.3843662440776825 5.3772458732128126 4.6148011684417725 5.3764709532260895
leaf_count=22 30 24 27 20 35 31 20 28 42 32 36 37 23 32 23 22 34 21 24 34 22 21 21 32 30 22 23 22
internal_value=-0.000733994 0.0153575 0.0286009 -0.0435174 0.0343226 0.0172569 0.0329422 0.0128862 0.0463447 0.0537067 -0.0120649 0.0597526 0.0509295 0.01234 0.0348397 0.0642303 0.058724 -0.00812636 0.0646211 0.0646496 0.071157 -0.0886431 0.070342 -0.0879763 -0.0886086 -0.0873601 0.0695747 -0.0869845
internal_weight=179.317 151.572 123.738 27.8338 117.022 48.3655 31.5098 12.1731 68.6569 56.4379 16.8557 49.3507 21.9125 12.2189 10.0739 41.3033 23.0111 9.5973 11.8386 15.7463 18.2922 27.7449 13.5343 20.3453 12.525 15.6607 9.09207 10.7537
internal_count=790 677 561 116 534 213 142 52 321 267 71 235 101 54 46 198 110 41 55 76 88 113 66 83 51 64 45 44
is_linear=0
shrinkage=0.05


Tree=8
num_leaves=30
num_cat=0
split_feature=26 23 2 28 4 2 2 4 5 1 8 11 22 32 9 2 7 8 7 2 8 28 10 23 22 30 1 10 28
split_gain=92.881 43.2526 26.0583 25.2908 8.60429 9.67814 7.38481 7.37734 6.40222 4.29392 3.69535 3.6284 3.45427 1.98157 1.66518 1.62373 1.04634 0.717785 0.569434 0.106206 0.0166677 0.0104442 0.00984122 0.0040164 0.00332393 0.00149371 0.000994695 0.000577074 4.04342e-07
threshold=1.0000000180025095e-35 1.0000000180025095e-35 3.4166666666666674 1.5833333333333337 2.5000000000000004 2.4166666666666674 1.5833333333333337 4.5000000000000009 1.0000000180025095e-35 8.5000000000000018 1.5000000000000002 1.5000000000000002 2.5000000000000004 1.0000000180025095e-35 2.5000000000000004 2.2916666666666674 2.5000000000000004 2.5000000000000004 3.5000000000000004 2.7083333333333335 1.5000000000000002 1.5833333333333337 2.5000000000000004 1.0000000180025095e-35 1.0000000180025095e-35 0.72623138684323885 5.5000000000000009 2.5000000000000004 2.2678571428571432
decision_type=2 2 2 2 2 2 2 2 2 2 2 2 2 2 2 2 2 2 2 2 2 2 2 2 2 2 2 2 2
left_child=1 2 4 8 6 11 10 13 -3 -4 -1 -6 14 19 17 -16 -15 18 20 -7 22 -2 -8 24 -23 -5 -22 -28 -27
right_child=21 3 9 25 5 7 12 -9 -10 -11 -12 -13 -14 16 15 -17 -18 -19 -20 -21 26 23 -24 -25 -26 28 27 -29 -30
leaf_value=-0.015451947827584503 -0.086988052055739437 0.05420686009378204 -0.0059384046000872373 -0.084963575942559183 0.012536908788455359 0.071425828599777627 0.072513146603945033 -0.0056840060060923906 -0.019287387182604001 -0.065793468237433164 0.039664820279323748 -0.033850557537473701 0.016903369758475711 0.018341974448307815 0.01862270347489894 0.06121227356129752 0.051722296574646609 0.048124572351677802 0.051188319535506045 0.061387867927414609 0.069046585652048464 -0.084355842289289357 0.069593495496158231 -0.083884935818629422 -0.086023049734295476 -0.083913151653722984 0.067878223673965232 0.068621794902892469 -0.083893616301032703
leaf_weight=6.1555723398923856 7.3136270493268993 5.2018747329711932 5.0862037092447263 4.839954897761344 8.1554136276245117 6.0735277235508001 5.522232711315155 7.5101788789033881 6.8855153769254684 7.2923823595046997 6.0104882717132568 8.7260519862174988 5.3557475358247748 4.5334238260984421 4.4957484751939756 4.4561901837587357 4.8691127002239227 6.1733002066612235 4.9928784519433966 4.6546114683151245 5.3891232758760461 5.0672238469123858 6.0463238507509232 7.7047480940818778 7.291495680809021 5.2978619039058668 5.8193792849779111 4.7303058505058289 5.2972769439220428
leaf_count=26 30 24 22 20 35 29 26 32 28 30 28 36 25 21 21 21 23 29 24 22 27 21 30 32 30 22 30 24 22
internal_value=-0.000698419 0.0147998 0.027568 -0.0418209 0.03533 0.0183888 0.0469077 0.036607 0.0123413 -0.0411998 0.0117778 -0.0114408 0.0549746 0.0523846 0.0592559 0.0398234 0.035628 0.0637541 0.0667228 0.0670707 0.0695425 -0.0853705 0.0709872 -0.0847809 -0.0853395 -0.0842358 0.0684939 0.0682116 -0.0839034
internal_weight=176.948 149.571 122.048 27.5225 109.67 44.5223 65.1473 27.6409 12.0874 12.3786 12.1661 16.8815 52.9812 20.1307 47.6255 8.95194 9.40254 38.6735 32.5002 10.7281 27.5074 27.3771 11.5686 20.0635 12.3587 15.4351 15.9388 10.5497 10.5951
internal_count=790 677 561 116 509 198 311 127 52 52 54 71 257 95 232 42 44 190 161 51 137 113 56 83 51 64 81 54 44
is_linear=0
shrinkage=0.05


Tree=9
num_leaves=29
num_cat=0
split_feature=26 23 2 28 4 2 2 4 5 2 11 2 25 32 28 7 5 30 7 21 1 28 1 23 5 30 6 29
split_gain=85.273 39.6196 23.8468 23.3229 8.10755 8.89457 7.00312 6.88938 5.88851 3.95399 3.258 2.21953 2.02413 1.9126 1.25549 0.986865 0.618592 0.703171 0.337823 0.111662 0.00913119 0.00812239 0.00499587 0.00312645 0.00209408 0.00116314 0.000344814 8.46058e-07
threshold=1.0000000180025095e-35 1.0000000180025095e-35 3.4166666666666674 1.5833333333333337 2.5000000000000004 2.4166666666666674 1.5833333333333337 4.5000000000000009 1.0000000180025095e-35 3.5833333333333335 1.5000000000000002 2.9166666666666674 1.0000000180025095e-35 1.0000000180025095e-35 1.3666666666666669 2.5000000000000004 1.5000000000000002 0.48570226039551589 2.5000000000000004 2.5000000000000004 5.5000000000000009 1.5833333333333337 7.5000000000000009 1.0000000180025095e-35 3.5000000000000004 0.72623138684323885 1.5000000000000002 3.5000000000000004
decision_type=2 2 2 2 2 2 2 2 2 2 2 2 2 2 2 2 2 2 2 2 2 2 2 2 2 2 2 2
left_child=1 2 4 8 6 10 14 13 -3 -4 -6 12 16 19 -1 -15 17 18 -8 -7 -18 -2 26 24 -23 -5 -22 -27
right_child=21 3 9 25 5 7 11 -9 -10 -11 -12 -13 -14 15 -16 -17 20 -19 -20 -21 22 23 -24 -25 -26 27 -28 -29
leaf_value=0.031301978409280749 -0.083917801112127155 0.052579372734405765 -0.0088033762739974739 -0.082118432127276805 0.011949308096947296 0.059193506141755239 0.06875513834948048 -0.0053923127413836383 -0.018282049536521301 -0.06550457771832785 -0.031988805178304297 0.020970291981196192 0.033526326413287018 0.017545666205512345 -0.0016858457894684369 0.050181414719497268 0.070457191030888613 0.042784291165343463 0.053636721780799958 0.069753719151849358 0.067466005727207679 -0.082977828918558288 0.069249277534348327 -0.081158455071280972 -0.0816325209801326 -0.081189097674643829 0.066830798597682609 -0.081160586965754539
leaf_weight=4.7476651370525342 7.2048574984073666 5.0974173843860644 5.7365344464778882 4.7592827379703513 8.1293121129274368 4.1662426739931142 8.2599503844976443 7.5203454047441474 6.9005433470010757 6.6259105205535889 8.7710044384002686 4.7562221288681021 7.7849777340888968 4.5030069798231125 7.3491011708974838 4.7702270746231079 4.5036814212799099 6.9948333054780951 6.6859108656644812 6.2711945325136185 4.2161237895488721 7.4134298413991946 4.2046579122543326 7.5688185244798651 4.7434329390525818 5.2047505676746351 4.3312483429908752 5.2036479264497757
leaf_count=22 30 24 25 20 35 20 42 32 28 27 36 22 37 21 32 23 22 34 34 31 22 31 21 32 20 22 23 22
internal_value=-0.000665319 0.0142732 0.0265862 -0.0402664 0.0341182 0.0176394 0.0455107 0.0353232 0.0118239 -0.0391936 -0.0108539 0.0535186 0.0568137 0.0508577 0.011261 0.0343338 0.0614389 0.0558685 0.061992 0.0655385 0.0685218 -0.082481 0.0678382 -0.0819562 -0.0824529 -0.0814709 0.0671441 -0.0811748
internal_weight=174.424 147.494 120.328 27.1656 107.966 44.1313 63.8344 27.231 11.998 12.3624 16.9003 51.7376 46.9814 19.7107 12.0968 9.27323 39.1964 21.9407 14.9459 10.4374 17.2557 26.9305 12.752 19.7257 12.1569 15.1677 8.54737 10.4084
internal_count=790 677 561 116 509 198 311 127 52 52 71 257 235 95 54 44 198 110 76 51 88 113 66 83 51 64 45 44
is_linear=0
shrinkage=0.05


Tree=10
num_leaves=30
num_cat=0
split_feature=26 23 2 28 25 30 5 4 2 30 8 2 2 31 30 28 4 7 30 2 0 4 7 28 2 23 5 28 31
split_gain=78.8465 34.8484 27.1628 15.3997 7.59003 10.1826 5.57112 5.34404 5.01394 4.47709 3.72849 6.5418 3.4597 2.35283 1.47754 0.944252 1.01344 0.730455 0.596869 0.40835 0.185586 0.0350021 0.0204523 0.00667856 0.00265518 0.00138921 0.00194747 0.00041325 0.000168581
threshold=1.0000000180025095e-35 1.0000000180025095e-35 3.4166666666666674 1.5833333333333337 1.0000000180025095e-35 0.53867513459481298 1.0000000180025095e-35 4.5000000000000009 2.4166666666666674 0.80824829046386315 1.5000000000000002 1.7083333333333337 2.9166666666666674 1.0000000180025095e-35 0.48570226039551589 1.7916666666666667 2.5000000000000004 1.5000000000000002 0.8228263892582881 1.5833333333333337 3.5000000000000004 2.5000000000000004 2.5000000000000004 1.5833333333333337 2.2916666666666674 1.0000000180025095e-35 2.5000000000000004 2.183333333333334 1.0000000180025095e-35
decision_type=2 2 2 2 2 2 2 2 2 2 2 2 2 2 2 2 2 2 2 2 2 2 2 2 2 2 2 2 2
left_child=1 2 4 6 7 8 -3 10 -6 -4 11 13 17 -1 19 -16 -17 -13 20 -12 22 24 -19 -2 28 26 -25 -5 -21
right_child=23 3 9 27 5 -7 -8 -9 -10 -11 14 12 -14 -15 15 16 -18 18 -20 21 -22 -23 -24 25 -26 -27 -28 -29 -30
leaf_value=0.024999707569021826 -0.081118820048285439 0.041490724590749373 -0.075495468600127749 -0.079299173569066198 0.0045032596547211956 -0.033266824523276395 -0.02719380945104637 -0.0038641589623361647 0.064076075952523362 -0.01094823001486356 0.052441541601934399 0.042945451710018991 0.012738910123356276 -0.021366757604652842 0.061184743419441204 0.049739585586031379 0.01644399423554517 0.073342293339655792 0.044486178659434418 0.066307507165337523 0.058056698754824249 0.071240490811792609 0.068394022236917457 -0.080373836576464297 0.067624274477319446 -0.078725593153621515 -0.07902712381789348 -0.078702989913751187 0.065853546734847154
leaf_weight=5.5134570598602277 6.3671781867742565 5.0207508355379122 6.179713696241377 5.1227026879787427 6.745181083679201 8.6051507294177991 7.1662828028202057 5.8792091161012641 7.4145345836877823 4.752461776137352 5.4007744938135174 7.9133866578340593 5.8964355885982505 5.4313209801912308 5.2330460846424094 5.0231185555458051 4.1932343542575836 4.5025257021188754 3.9463320672512046 3.7053012400865573 4.0876911580562583 5.9535436481237403 3.8943726569414139 4.6935835033655184 4.0137323290109626 7.6475217789411536 6.2713944464921951 6.7191129475831985 4.5642589330673218
leaf_count=24 27 24 26 22 30 39 29 25 36 20 26 38 28 24 26 25 19 22 20 20 20 29 20 20 21 33 27 29 25
internal_value=0.00223481 0.0165634 0.0276666 -0.0383541 0.0352746 0.00962903 0.00110249 0.0421308 0.0356977 -0.0474353 0.0455419 0.0351142 0.0471024 0.00199046 0.0568181 0.0442222 0.0345908 0.0554255 0.0614361 0.0645178 0.066794 0.0680941 0.0710473 -0.079721 0.0665691 -0.0792428 -0.0796036 -0.0789609 0.066057
internal_weight=167.857 142.878 118.849 24.0288 107.917 22.7649 12.187 85.1517 14.1597 10.9322 79.2725 41.1855 30.2407 10.9448 38.087 14.4494 9.21635 24.3443 16.4309 23.6376 12.4846 18.2368 8.3969 24.9797 12.2833 18.6125 10.965 11.8418 8.26956
internal_count=774 667 563 104 517 105 53 412 66 46 387 196 148 48 191 70 44 120 82 121 62 95 42 107 66 80 47 51 45
is_linear=0
shrinkage=0.05


Tree=11
num_leaves=31
num_cat=0
split_feature=22 29 2 28 23 28 5 4 4 8 2 8 30 2 2 4 32 4 30 30 30 1 1 28 6 1 4 4 30 2
split_gain=51.8824 31.3522 24.2984 11.2043 8.55238 14.7795 8.54538 9.98993 5.22861 5.14901 6.95204 5.77456 5.04745 4.95385 3.14855 2.75818 1.29513 1.88738 0.518581 1.90893 0.459439 0.287192 0.144768 0.126572 0.115265 0.104204 0.0673672 0.016386 0.0075294 0.00180571
threshold=1.0000000180025095e-35 3.5000000000000004 3.4166666666666674 1.1250000000000002 1.0000000180025095e-35 1.5833333333333337 2.5000000000000004 3.5000000000000004 4.5000000000000009 2.5000000000000004 2.4166666666666674 1.5000000000000002 0.80824829046386315 1.7083333333333337 2.9166666666666674 1.5000000000000002 1.0000000180025095e-35 2.5000000000000004 0.48570226039551589 0.80824829046386315 0.45220861134162554 5.5000000000000009 4.5000000000000009 2.183333333333334 1.5000000000000002 6.5000000000000009 2.5000000000000004 2.5000000000000004 0.8228263892582881 2.2916666666666674
decision_type=2 2 2 2 2 2 2 2 2 2 2 2 2 2 2 2 2 2 2 2 2 2 2 2 2 2 2 2 2 2
left_child=3 2 4 -1 6 21 8 -8 9 11 -11 13 -4 15 16 -2 20 24 22 -20 -15 -6 -13 26 -18 -21 -5 29 -25 -24
right_child=1 -3 12 23 5 -7 7 -9 -10 10 -12 18 -14 14 -16 -17 17 -19 19 25 -22 -23 27 28 -26 -27 -28 -29 -30 -31
leaf_value=-0.0019561423608156366 0.03297172581182941 -0.088030470866692537 -0.074805109874038697 -0.082170972571146486 0.036539814333463753 -0.076916557696246113 -0.056356220109831517 0.037291688588790811 -0.0084898712617552368 -0.029932794778249134 0.053066077264580749 0.056403379332924712 -0.0091340551958170781 0.051331192523233517 0.010069799406295375 -0.018149214118026325 0.057689491447096591 0.012659954064632765 0.023722841503381668 0.059804167988793989 0.069668913125967971 0.019366785993331363 0.065111726031803221 -0.076456070026505091 0.046206628825505108 0.070478998095071146 -0.090347128236647326 0.069047879804350218 -0.079302141260188475 0.066478768129403551
leaf_weight=5.6287195682525661 4.4515386521816236 7.1442751586437216 7.1742595434188825 5.4895657151937503 4.4385100752115232 5.2297217249870291 5.7097572684288007 5.681423544883728 6.1228576451539984 5.8250875920057279 4.4505621492862701 4.270609229803088 4.9410984516143799 7.576048344373703 6.4879054874181739 6.4785796403884888 4.1551563590764982 4.8053533136844644 4.1662093102931967 5.2550087273120862 6.2199584096670151 5.3922240734100342 6.3945777118206006 4.7521393746137601 4.6102268248796463 4.0465399622917175 4.6563036292791367 5.3142905533313742 4.5477633476257324 3.8820867091417313
leaf_count=26 20 31 30 24 20 23 25 26 26 26 22 22 21 38 31 28 22 21 20 27 32 24 36 21 24 20 20 27 20 21
internal_value=0.00216387 0.0140093 0.0194872 -0.0640792 0.0262487 -0.00900635 0.0312623 -0.00964873 0.0361931 0.0392884 0.00601546 0.0436653 -0.048022 0.0319376 0.0413865 0.00267095 0.0488108 0.0378437 0.0594239 0.0518499 0.0595988 0.0271203 0.0645596 -0.0820612 0.05165 0.0644481 -0.0859233 0.0667938 -0.0778478 0.0656281
internal_weight=165.298 140.224 133.08 25.0745 120.964 15.0605 105.904 11.3912 94.5126 88.3897 10.2756 78.1141 12.1154 44.7848 33.8546 10.9301 27.3667 13.5707 33.3293 13.4678 13.796 9.83073 19.8616 19.4458 8.76538 9.30155 10.1459 15.591 9.2999 10.2767
internal_count=774 663 632 111 581 67 514 51 463 437 48 389 51 216 168 48 137 67 173 67 70 44 106 85 46 47 44 84 41 57
is_linear=0
shrinkage=0.05


Tree=12
num_leaves=29
num_cat=0
split_feature=26 23 2 28 25 30 24 5 2 30 7 4 10 8 11 1 10 9 6 6 33 10 7 22 30 8 6 28
split_gain=68.6757 29.4552 22.7766 13.3093 6.61874 8.97177 5.03522 4.82905 4.49975 3.72371 3.21079 3.6033 3.26412 5.12207 2.1258 1.79448 3.74195 0.875316 0.641729 0.546786 0.227727 0.0423114 0.0565564 0.0133665 0.00965547 0.00839616 0.00125208 0.000340225
threshold=1.0000000180025095e-35 1.0000000180025095e-35 3.4166666666666674 1.5833333333333337 1.0000000180025095e-35 0.53867513459481298 1.0000000180025095e-35 1.0000000180025095e-35 2.4166666666666674 0.80824829046386315 1.5000000000000002 4.5000000000000009 2.5000000000000004 1.5000000000000002 1.5000000000000002 7.5000000000000009 1.5000000000000002 2.5000000000000004 2.5000000000000004 2.5000000000000004 1.5000000000000002 1.5000000000000002 2.5000000000000004 1.0000000180025095e-35 0.80824829046386315 1.5000000000000002 1.5000000000000002 2.183333333333334
decision_type=2 2 2 2 2 2 2 2 2 2 2 2 2 2 2 2 2 2 2 2 2 2 2 2 2 2 2 2
left_child=1 2 4 7 6 8 -1 -3 -6 -4 12 15 13 14 -8 19 -17 -18 -14 20 -12 22 -22 26 -25 -23 -2 -5
right_child=23 3 9 27 5 -7 10 -9 -10 -11 11 -13 18 -15 -16 16 17 -19 -20 -21 21 25 -24 24 -26 -27 -28 -29
leaf_value=-0.010090244853384086 -0.07555874906939275 0.039248872161820401 -0.068409164683335105 -0.075000589122259945 0.0048476228985177474 -0.030768675428391873 0.023559314418842018 -0.025230341362170446 0.061862838282610647 -0.0095274815460415895 0.055608913378296015 0.0046607413107666029 0.040430709835364058 0.050785142343041649 -0.019820433417744168 0.0014595446445644458 0.067548159097057331 0.043057054964671618 0.068201448960262021 0.045630738212037648 0.075076042045843353 0.067229049421261525 0.066895736027089703 -0.078712432019913375 -0.075795789538957339 0.064303249211836083 -0.074528424543021485 -0.074446434209348863
leaf_weight=4.783124476671218 4.6882811486721057 4.8800873011350649 6.1667320728301984 4.8855042159557325 6.7512580156326312 8.6765857487916929 4.6678031384944969 7.1702276468276978 7.0997766405344009 4.7557937502861023 4.6159521043300691 3.9774129241704932 3.9433429390192014 7.211338445544242 7.1502388417720795 4.2996544390916851 6.8516079634428007 7.8033212870359421 4.4029932767152786 4.0607490986585608 3.8712925761938113 5.0048840343952161 4.6518603563308716 5.7563415914773923 5.5962123274803162 4.8073428124189377 7.9466378688812256 6.3957415819168091
leaf_count=23 21 24 26 22 30 39 21 29 36 20 25 17 22 35 30 21 36 40 23 21 18 27 25 25 25 28 36 29
internal_value=0.00209421 0.0155874 0.0259341 -0.0356566 0.0331064 0.00909873 0.0396937 0.000882187 0.0340725 -0.0427714 0.0427734 0.0503169 0.0290111 0.0175769 -0.00268662 0.0542674 0.042474 0.0545074 0.0550808 0.062543 0.0655352 0.0680342 0.0706113 -0.0760295 -0.0772747 0.0657956 -0.0749107 -0.0746864
internal_weight=162.872 138.885 115.553 23.3316 104.631 22.5276 82.1029 12.0503 13.851 10.9225 77.3198 49.9441 27.3757 19.0294 11.818 45.9667 18.9546 14.6549 8.34634 27.0121 22.9513 18.3354 8.52315 23.9875 11.3526 9.81223 12.6349 11.2812
internal_count=774 667 563 104 517 105 412 53 66 46 389 258 131 86 51 241 97 76 45 144 123 98 43 107 50 55 57 51
is_linear=0
shrinkage=0.05


Tree=13
num_leaves=28
num_cat=0
split_feature=26 29 2 22 30 4 31 8 30 21 7 2 32 7 8 3 7 9 10 30 4 1 4 22 30 1 6
split_gain=63.5385 27.2821 25.9293 16.8084 11.9079 5.85643 6.45313 6.43118 5.52471 3.67166 3.55851 3.87452 3.11656 2.43605 1.43013 0.929319 1.78748 1.78692 0.497124 0.592155 0.0803137 0.0229195 0.0205037 0.0107011 0.00769689 0.00323994 0.00100774
threshold=1.0000000180025095e-35 3.5000000000000004 3.4166666666666674 1.0000000180025095e-35 0.45220861134162554 4.5000000000000009 1.5000000000000002 1.5000000000000002 0.80824829046386315 3.5000000000000004 1.5000000000000002 1.7750000000000001 1.0000000180025095e-35 3.5000000000000004 2.5000000000000004 1.5000000000000002 2.5000000000000004 1.5000000000000002 1.5000000000000002 0.45220861134162554 1.5000000000000002 6.5000000000000009 2.5000000000000004 1.0000000180025095e-35 0.80824829046386315 6.5000000000000009 1.5000000000000002
decision_type=2 2 2 2 2 2 2 2 2 2 2 2 2 2 2 2 2 2 2 2 2 2 2 2 2 2 2
left_child=1 2 3 4 -1 6 7 9 -4 10 11 -5 -13 15 18 16 21 -17 19 -9 -20 -12 25 26 -25 -22 -2
right_child=23 -3 8 5 -6 -7 -8 14 -10 -11 13 12 -14 -15 -16 17 -18 -19 20 -21 22 -23 -24 24 -26 -27 -28
leaf_value=0.023584055265908656 -0.073703762699530745 -0.086700764575402392 -0.072637219360307467 -0.010319347444991361 -0.089766959584881165 -0.0084190417335624056 -0.024988430870462701 0.065294516721026929 -0.0044679484702357828 -0.0067315192014845374 0.073828717900127447 0.057202359285595396 0.0051058399010574743 0.0070725895083279325 0.035035057547110803 0.018521941047981289 0.035219091845272749 0.056312277236889134 0.059044376863685855 0.042516971981918783 0.063267571878543705 0.06870562425476387 0.068216525199693304 -0.076554562906445675 -0.073918710986346781 0.065415757565925839 -0.072767273229402504
leaf_weight=4.3243410587310773 4.5689836293458956 6.2850368469953528 8.1048289835453016 8.1395982354879397 4.9914005398750305 7.9688145965337744 4.1429826170206061 4.6294859349727648 4.6932435482740393 6.6787319779396048 4.7333941310644203 6.6199682801961881 5.0689161568880081 4.0358304083347312 7.6144820749759665 5.8261535018682462 5.5499951094388953 6.7549125552177429 5.3953053951263454 7.437541663646698 3.472435310482977 4.0519816279411316 6.7238500118255615 5.6259633600711805 5.4549815058708191 3.5493083149194717 7.7373206615447998
leaf_count=21 21 28 34 35 22 34 20 26 20 32 23 33 23 21 37 29 28 35 31 38 21 21 35 25 25 20 36
internal_value=0.00203002 0.015051 0.0199512 0.0272999 -0.0371497 0.032839 0.0361128 0.038742 -0.0476385 0.0281201 0.0327038 0.0161668 0.0346106 0.0432976 0.0544631 0.0487292 0.0574328 0.038812 0.0592034 0.0512555 0.064214 0.0714659 0.0662431 -0.0741299 -0.075257 0.0643534 -0.073115
internal_weight=160.18 136.793 130.508 117.709 9.31574 108.394 100.425 96.2819 12.7981 57.4595 50.7808 19.8285 11.6889 30.9523 38.8224 26.9164 14.3354 12.5811 31.2079 12.067 19.1409 8.78538 13.7456 23.3872 11.0809 7.02174 12.3063
internal_count=774 667 639 585 43 542 508 488 54 280 248 91 56 157 208 136 72 64 171 64 107 44 76 107 50 41 57
is_linear=0
shrinkage=0.05


Tree=14
num_leaves=29
num_cat=0
split_feature=26 23 2 28 25 30 10 4 8 7 1 2 5 5 30 11 11 22 2 2 2 22 7 30 30 28 30 6
split_gain=58.8686 25.5797 18.9898 11.7363 6.1029 7.7471 4.43861 7.3819 4.44642 4.89913 5.01706 4.25008 4.06243 3.28614 1.64567 1.2987 0.974302 0.792488 0.600976 1.06953 0.400231 0.00861624 0.00754477 0.00617285 0.00327886 0.00192813 0.0012807 0.000815402
threshold=1.0000000180025095e-35 1.0000000180025095e-35 3.4166666666666674 1.5833333333333337 1.0000000180025095e-35 0.53867513459481298 2.5000000000000004 4.5000000000000009 1.5000000000000002 1.5000000000000002 7.5000000000000009 2.4166666666666674 1.0000000180025095e-35 1.5000000000000002 0.48570226039551589 1.5000000000000002 1.5000000000000002 1.5000000000000002 3.0714285714285716 2.4166666666666674 1.5833333333333337 1.0000000180025095e-35 2.5000000000000004 0.80824829046386315 0.48570226039551589 2.2678571428571432 0.45220861134162554 1.5000000000000002
decision_type=2 2 2 2 2 2 2 2 2 2 2 2 2 2 2 2 2 2 2 2 2 2 2 2 2 2 2 2
left_child=1 2 4 12 6 11 7 8 9 15 16 -6 -3 -4 20 -1 -11 -16 19 24 -10 27 -22 -23 -8 -5 -24 -2
right_child=21 3 13 25 5 -7 18 -9 14 10 -12 -13 -14 -15 17 -17 -18 -19 -20 -21 22 23 26 -25 -26 -27 -28 -29
leaf_value=0.014954745817807334 -0.072024004775790587 0.036454153305462998 -0.014470311879626328 -0.072475416547985269 0.0033860318575198419 -0.028895121438672424 0.062824653255890414 -0.03263692796186167 0.047433214023363944 0.04115465815439634 -0.004807628240608249 0.059636108364944256 -0.023384167206492619 -0.069967986575600882 0.018907057151889017 -0.019607806179300621 0.070241730202921626 0.047862068867052916 0.069290085276483157 0.036559716779982196 0.065863722790752199 -0.074611238963976353 0.063914332370205204 -0.072219651469747834 0.064891726367042268 -0.071136659234535063 0.062582723136768256 -0.07116980354690762
leaf_weight=4.8424841612577456 4.4449092298746127 4.6974253207445162 6.152184069156645 5.3331998586654645 6.6841214150190371 8.7109804302453977 3.562194377183916 4.3041749149560919 4.9706186652183595 5.4735473990440386 4.7033980935811988 6.7485093921422958 7.1593720316886902 4.7089288681745529 4.7455600053071958 6.1949305236339569 6.0734019577503204 4.7070604413747787 6.8471947014331809 6.6314361691474915 4.724971339106558 5.4873803406953794 3.8926722705364227 5.3078784495592117 4.1575163751840591 5.4256148189306259 3.3678576201200485 7.5209266096353531
leaf_count=22 21 24 26 25 30 39 22 18 26 29 24 36 29 20 24 26 31 24 35 36 27 25 23 25 24 26 21 36
internal_value=0.00196613 0.014523 0.0243008 -0.0339881 0.0310347 0.00782992 0.0375226 0.0303667 0.0354169 0.0212625 0.0387226 0.0316459 0.000322575 -0.0385318 0.0500425 -0.00444405 0.0564537 0.0333256 0.057102 0.0512869 0.0593617 -0.0724111 0.0643087 -0.0734353 0.0639379 -0.0718003 0.0632967 -0.0714871
internal_weight=157.58 134.819 112.204 22.6156 101.343 22.1436 79.199 58.0007 53.6965 27.2878 16.2503 13.4326 11.8568 10.8611 26.4087 11.0374 11.5469 9.45262 21.1983 14.3511 16.9561 22.7611 11.9855 10.7953 7.71971 10.7588 7.26053 11.9658
internal_count=774 667 563 104 517 105 412 295 277 132 84 66 53 46 145 48 60 48 117 82 97 107 71 50 46 51 44 57
is_linear=0
shrinkage=0.05


Tree=15
num_leaves=29
num_cat=0
split_feature=26 29 2 23 33 28 31 4 33 11 28 2 2 28 32 6 9 30 30 8 30 28 5 4 28 28 22 23
split_gain=53.9589 21.8721 21.0641 12.6748 11.152 6.44007 4.84303 4.89515 5.28044 4.28059 4.07913 2.98724 2.32183 3.16843 2.2568 1.34299 1.34097 1.17416 1.53816 0.937516 0.56109 0.143708 0.00726972 0.00463449 0.00360364 0.00299029 0.00232116 0.000498509
threshold=1.0000000180025095e-35 3.5000000000000004 3.7083333333333335 1.0000000180025095e-35 1.5000000000000002 1.2916666666666667 1.5000000000000002 2.5000000000000004 2.5000000000000004 1.5000000000000002 2.3666666666666671 1.7083333333333337 2.5500000000000003 1.7083333333333337 1.0000000180025095e-35 1.5000000000000002 2.5000000000000004 0.80824829046386315 1.0000000180025095e-35 1.5000000000000002 0.45220861134162554 1.2916666666666667 1.0000000180025095e-35 1.5000000000000002 1.7083333333333337 1.7916666666666667 1.5000000000000002 1.0000000180025095e-35
decision_type=2 2 2 2 2 2 2 2 2 2 2 2 2 2 2 2 2 2 2 2 2 2 2 2 2 2 2 2
left_child=1 2 3 6 -5 -6 7 10 9 17 11 19 21 -14 -10 -11 -16 18 -9 -1 -21 -13 -2 25 -24 -23 -25 -26
right_child=22 -3 -4 4 5 -7 -8 8 14 15 -12 12 13 -15 16 -17 -18 -19 -20 20 -22 23 24 26 27 -27 -28 -29
leaf_value=0.014713206562065335 -0.07271546954766174 -0.083072923814920818 -0.079158572393950133 0.036166960747488833 -0.0024691836000432887 -0.078837756540027421 -0.017558204100718951 0.028977011375236089 0.066435751543857446 -0.0037464525948724191 0.00049987856680788431 0.053066573670439404 0.00064144734214426806 0.056103178120284883 0.043299347281299881 -0.038584545804699236 0.0070867394660203481 0.035983633569030823 -0.013232750163277088 0.053103515397247336 0.025482696176202031 0.063400769786070399 -0.071416016745423125 0.06200184078204804 -0.070254083756722471 0.065422066777743967 0.063524988035126337 -0.069646085966309307
leaf_weight=8.8090900182724017 4.2708444893360165 6.0040462613105765 5.7140901237726203 5.8065199106931713 4.5543258786201459 7.0091538578271866 6.0487424433231345 4.2324091643094999 4.9982883483171436 5.3621094077825546 6.2994803786277762 4.2055880725383785 4.4396758675575239 6.1316041946411133 5.1844556033611298 5.7144261002540588 5.0433646142482758 6.1905383318662652 4.4043079316616058 3.5727967470884314 3.7881115525960922 4.0751096606254587 6.4713382422924068 5.7559291571378708 7.575089290738104 3.3208428770303726 4.4235681891441345 6.0752681940793991
leaf_count=40 20 28 25 27 20 33 27 20 28 24 31 24 24 32 26 25 24 29 21 19 22 25 31 37 37 19 27 30
internal_value=-0.00255822 0.0101478 0.0146224 0.0191115 -0.02037 -0.0487597 0.025835 0.0285705 0.0155321 0.00179673 0.0383525 0.0432667 0.0520375 0.0328106 0.0388996 -0.0217196 0.0254428 0.0193643 0.00745207 0.0257186 0.0388891 0.0613691 -0.0708419 0.0633558 -0.0704442 0.0643083 0.0626637 -0.0699835
internal_weight=155.481 131.089 125.085 119.37 17.37 11.5635 102 95.9517 41.1299 25.9038 54.8218 48.5223 32.3523 10.5713 15.2261 11.0765 10.2278 14.8273 8.63672 16.17 7.36091 21.781 24.3925 17.5754 20.1217 7.39595 10.1795 13.6504
internal_count=775 657 629 604 80 53 524 497 197 119 300 269 188 56 78 49 50 70 41 81 41 132 118 108 98 44 64 67
is_linear=0
shrinkage=0.05


Tree=16
num_leaves=30
num_cat=0
split_feature=26 29 2 22 1 31 8 21 30 2 2 32 10 30 6 3 33 31 2 23 0 1 22 4 5 28 6 22 8
split_gain=50.2005 20.1852 19.414 11.8931 8.85254 6.75715 4.4941 4.07396 2.70102 4.58487 3.24803 2.40664 1.82487 2.56575 2.37469 1.7296 2.1782 1.40566 1.21571 1.22526 1.12992 0.326153 0.188407 0.035845 0.00588899 0.00293728 0.00110422 0.000418454 6.07335e-05
threshold=1.0000000180025095e-35 3.5000000000000004 3.7083333333333335 1.0000000180025095e-35 4.5000000000000009 1.5000000000000002 1.5000000000000002 3.5000000000000004 0.48570226039551589 2.9166666666666674 2.4166666666666674 1.0000000180025095e-35 1.5000000000000002 0.45220861134162554 1.5000000000000002 1.5000000000000002 2.5000000000000004 1.0000000180025095e-35 1.7083333333333337 1.0000000180025095e-35 2.5000000000000004 8.5000000000000018 1.5000000000000002 2.5000000000000004 1.0000000180025095e-35 1.7083333333333337 1.5000000000000002 1.0000000180025095e-35 3.5000000000000004
decision_type=2 2 2 2 2 2 2 2 2 2 2 2 2 2 2 2 2 2 2 2 2 2 2 2 2 2 2 2 2
left_child=1 2 3 4 -1 6 8 12 9 10 11 18 13 -8 -15 20 -17 -12 -5 -20 -10 22 23 26 -2 -26 -14 28 -27
right_child=24 -3 -4 5 -6 -7 7 -9 15 -11 17 -13 21 14 -16 16 -18 -19 19 -21 -22 -23 -24 -25 25 27 -28 -29 -30
leaf_value=0.013978202052921315 -0.071130800051509332 -0.080836359220679208 -0.076989397033771972 0.00068455495217534744 -0.083970858913412827 -0.024153763910272075 0.064156472524914784 0.0044325825716365549 0.034562769571282917 -0.023419556030669544 0.025989989389585928 -0.012881434076723493 0.062421399563608954 0.045075069826428768 -0.0062871706287174816 0.028383319966402826 0.072445826707292327 0.066026584448750883 0.044184807021961002 0.0083228836556780011 0.0014549332209924074 0.043823401637173992 0.05035632913645563 0.067751440447099298 -0.069947163271243368 -0.068574382502478978 0.061224210912265702 -0.069020862426845131 -0.068308476161365511
leaf_weight=4.5153526514768583 4.150736182928088 5.865174561738967 5.5846042335033408 5.036722570657731 4.7161572277545929 7.0849913060665122 4.4566140770912162 6.7672024220228186 4.8695567101240176 8.0557503253221494 4.7092151492834073 8.1693313270807266 3.2982167452573794 4.2374290078878385 4.7990638911724091 7.4518455862998945 4.4976539462804794 4.1019551903009415 6.3471337258815748 3.8123788684606552 5.4740601778030396 3.6406922042369834 3.5051331222057334 3.5777186453342438 6.2816795408725765 3.9479126036167127 4.6296725869178772 4.5769720822572699 4.7084643989801407
leaf_count=23 20 28 25 22 22 32 27 34 23 38 25 38 21 22 25 36 22 23 35 17 28 20 21 19 31 20 31 23 24
internal_value=-0.00247205 0.00979067 0.0141003 0.0184203 -0.0360616 0.0230549 0.0263522 0.039693 0.0180498 0.0103141 0.0187596 0.00900436 0.0471161 0.0331095 0.0177978 0.0320105 0.0449679 0.0446286 0.0207699 0.0307275 0.0170414 0.057249 0.0605052 0.0635971 -0.0694206 -0.0690568 0.0617223 -0.0686342 -0.0684297
internal_weight=152.869 129.204 123.338 117.754 9.23151 108.522 101.437 38.9117 62.5256 40.2325 32.1767 23.3656 32.1445 13.4931 9.03649 22.2931 11.9495 8.81117 15.1962 10.1595 10.3436 18.6514 15.0107 11.5056 23.6658 19.515 7.92789 13.2333 8.65638
internal_count=775 657 629 604 45 559 527 220 307 198 160 112 186 74 47 109 58 48 74 52 51 112 92 71 118 98 52 67 44
is_linear=0
shrinkage=0.05


Tree=17
num_leaves=29
num_cat=0
split_feature=26 29 22 1 1 33 3 8 30 14 5 6 8 8 31 10 11 28 10 24 24 7 24 4 5 28 23 5
split_gain=46.7601 18.6488 11.2343 8.72028 7.88905 24.9915 7.92873 5.49649 5.27475 4.54743 4.27163 9.61639 3.5622 2.81746 2.01706 2.52289 2.28891 1.93624 0.661553 1.46854 0.404541 0.286455 0.233815 0.0327101 0.0047915 0.00240391 0.000344148 4.59072e-05
threshold=1.0000000180025095e-35 3.5000000000000004 1.0000000180025095e-35 4.5000000000000009 8.5000000000000018 2.5000000000000004 1.5000000000000002 1.0000000180025095e-35 0.8228263892582881 1.0000000180025095e-35 1.0000000180025095e-35 1.5000000000000002 1.5000000000000002 2.5000000000000004 1.0000000180025095e-35 1.5000000000000002 1.0000000180025095e-35 1.5833333333333337 1.5000000000000002 1.5000000000000002 1.5000000000000002 2.5000000000000004 1.5000000000000002 2.5000000000000004 1.0000000180025095e-35 1.7083333333333337 1.0000000180025095e-35 1.5000000000000002
decision_type=2 2 2 2 2 2 2 2 2 2 2 2 2 2 2 2 2 2 2 2 2 2 2 2 2 2 2 2
left_child=1 2 3 -1 7 -6 -7 10 9 12 11 -4 -8 18 16 -16 17 -12 19 21 -20 -9 -17 27 -2 -26 -27 -22
right_child=24 -3 4 -5 5 6 8 13 -10 -11 14 -13 -14 -15 15 22 -18 -19 20 -21 23 -23 -24 -25 25 26 -28 -29
leaf_value=0.013328612364660078 -0.069687486409282282 -0.07880249565018535 0.039226257374533141 -0.081409871692990188 -0.096729181279994955 -0.029776718107389057 0.007728461733576779 0.044032435231606742 0.078095661013532658 -0.018387677694751494 0.041766742723066068 -0.051968820933055028 0.065715673113049003 0.013429045013066264 0.017003409749900274 0.049556216713863288 -0.011030141266030467 0.0039374112328183376 0.043292298425633237 0.016750620862340967 0.060751854139649432 0.063468868909207499 0.066947773431969129 0.066607108050355024 -0.068606048911242737 -0.067631313326826176 -0.067109853959429616 0.0604907127534886
leaf_weight=4.4990694969892484 4.0279801487922695 5.719420686364173 5.3065687119960767 5.2789026349782944 5.7902196943759909 6.7137237340211895 5.0977104604244285 3.6083532422781008 4.8955484628677359 5.434938743710517 7.8675625473260897 6.3497564047574997 5.5123359709978104 6.5538757890462866 7.1225738972425443 3.8651854544878006 6.2197350710630408 5.9335640370845795 3.6651383042335484 3.9785561561584473 3.6284749060869217 3.9939013868570328 3.865107923746109 3.4602054059505463 6.0891324430704143 7.1142345368862134 5.6984342187643051 3.1387443244457245
leaf_count=23 20 28 29 25 25 31 26 20 25 27 36 30 31 33 33 21 29 28 22 22 25 25 22 19 31 37 30 22
internal_value=-0.0023869 0.00943502 0.0135791 -0.0378185 0.0180662 -0.00227142 0.0175061 0.0267247 0.0326653 0.0188039 0.015752 -0.0104521 0.0378551 0.0426661 0.0245105 0.0384715 0.0141533 0.0255027 0.0501883 0.0413629 0.057545 0.0542435 0.0582519 0.0626527 -0.0681218 -0.0677881 -0.0673994 0.0606307
internal_weight=150.429 127.499 121.78 9.77797 112.002 33.4445 27.6543 78.5573 20.9405 16.045 46.5301 11.6563 10.61 32.0272 34.8737 14.8529 20.0209 13.8011 25.4734 11.5808 13.8926 7.60225 7.73029 10.2274 22.9298 18.9018 12.8127 6.76722
internal_count=775 657 629 48 581 165 140 416 109 84 228 59 57 188 169 76 93 64 155 67 88 45 43 66 118 98 67 47
is_linear=0
shrinkage=0.05


Tree=18
num_leaves=29
num_cat=0
split_feature=26 29 2 22 30 31 8 21 30 2 2 24 3 32 10 30 6 31 2 2 10 22 4 5 28 6 22 8
split_gain=43.6141 17.2555 16.933 9.99716 8.0049 5.87218 4.00428 3.81866 2.36983 3.78418 3.00519 2.09531 2.53689 2.07729 1.76441 2.42666 2.21642 1.38019 1.06112 0.390427 0.33073 0.164788 0.0239467 0.00391406 0.00197458 0.00107001 0.00029132 4.24355e-05
threshold=1.0000000180025095e-35 3.5000000000000004 3.7083333333333335 1.0000000180025095e-35 0.45220861134162554 1.5000000000000002 1.5000000000000002 3.5000000000000004 0.48570226039551589 2.9166666666666674 2.4166666666666674 1.5000000000000002 1.5000000000000002 1.0000000180025095e-35 1.5000000000000002 0.45220861134162554 1.5000000000000002 1.0000000180025095e-35 1.7083333333333337 2.9166666666666674 1.5000000000000002 1.5000000000000002 2.5000000000000004 1.0000000180025095e-35 1.7083333333333337 1.5000000000000002 1.0000000180025095e-35 3.5000000000000004
decision_type=2 2 2 2 2 2 2 2 2 2 2 2 2 2 2 2 2 2 2 2 2 2 2 2 2 2 2 2
left_child=1 2 3 4 -1 6 8 14 9 10 13 12 -10 18 15 -8 -17 -12 -5 21 -20 22 25 -2 -25 -16 27 -26
right_child=23 -3 -4 5 -6 -7 7 -9 11 -11 17 -13 -14 -15 19 16 -18 -19 20 -21 -22 -23 -24 24 26 -27 -28 -29
leaf_value=0.016221847715486522 -0.068368923067841245 -0.076945406793891891 -0.073764423262653561 0.00034685535109026762 -0.078300272691518638 -0.02247217677153519 0.062640714653381321 0.0032315081886321118 5.5212119500890533e-05 -0.02098801158568267 0.024179149732894291 0.05247459850327061 0.041517170227578906 -0.012283315755595586 0.061160715642181812 0.043223106728919186 -0.0069044016396829907 0.06461430527434818 0.018720022881392639 0.039464705111164525 0.037054375573371816 0.049745717979878937 0.065553411657352414 -0.067378111726180398 -0.066214984094169954 0.059937816397880261 -0.066599663533355322 -0.065985240655376642
leaf_weight=4.2585121393203718 3.9035360217094448 5.5684178769588462 5.3615257143974295 5.0213324576616332 4.7253559976816177 7.1015864461660376 4.1545938104391125 6.6512698829174033 7.9331265687942523 8.1022350788116437 4.5988066345453245 7.0324951559305182 6.8964623659849167 8.1829037070274353 3.0748945027589816 4.1108567863702756 4.7568467855453491 3.9001477360725403 4.5792232453823072 3.1465854644775382 5.3141759783029556 3.6539697498083106 3.3430044203996658 5.8950208723545101 3.6962881684303266 4.2764358520507812 4.2889837622642508 4.4055603742599487
leaf_count=22 20 28 25 22 23 32 27 34 39 38 25 37 33 38 21 22 25 23 23 18 29 23 19 31 20 31 23 24
internal_value=-0.00230352 0.009101 0.013088 0.0171438 -0.0334951 0.0214424 0.0246012 0.0375603 0.0167769 0.0094969 0.0173141 0.0299965 0.019337 0.00796034 0.0450423 0.0311072 0.0163335 0.0427347 0.0190669 0.0554149 0.0285682 0.0589127 0.0620448 -0.0669316 -0.0666248 0.0604493 -0.0662665 -0.0660901
internal_weight=147.934 125.745 120.176 114.815 8.98387 105.831 98.7294 37.1685 61.5609 39.6988 31.5966 21.8621 14.8296 23.0976 30.5172 13.0223 8.8677 8.49895 14.9147 17.4949 9.8934 14.3483 10.6943 22.1894 18.2859 7.35133 12.3908 8.10185
internal_count=775 657 629 604 45 559 527 220 307 198 160 109 72 112 186 74 47 48 74 112 52 94 71 118 98 52 67 44
is_linear=0
shrinkage=0.05


Tree=19
num_leaves=29
num_cat=0
split_feature=26 29 2 23 33 28 32 14 8 25 2 2 10 32 6 28 6 22 10 30 30 1 1 9 6 22 30 23
split_gain=40.7196 15.9827 15.6558 10.2193 9.20975 5.38396 4.10581 4.37921 5.52796 4.06704 3.39344 2.8266 4.12501 3.20886 2.80685 2.13111 1.94135 1.18876 1.4818 1.84868 1.01071 0.196132 0.111439 0.182867 0.00601816 0.00268139 0.00164146 0.000469449
threshold=1.0000000180025095e-35 3.5000000000000004 3.7083333333333335 1.0000000180025095e-35 1.5000000000000002 1.2916666666666667 1.5000000000000002 1.5000000000000002 1.5000000000000002 1.0000000180025095e-35 1.7083333333333337 2.9166666666666674 2.5000000000000004 1.0000000180025095e-35 1.5000000000000002 1.7916666666666667 1.5000000000000002 1.0000000180025095e-35 1.5000000000000002 0.45220861134162554 0.45220861134162554 6.5000000000000009 9.5000000000000018 1.5000000000000002 2.5000000000000004 1.0000000180025095e-35 0.75604704659038091 1.0000000180025095e-35
decision_type=2 2 2 2 2 2 2 2 2 2 2 2 2 2 2 2 2 2 2 2 2 2 2 2 2 2 2 2
left_child=1 2 3 6 -5 -6 7 8 10 17 15 13 -13 20 -15 -1 -11 -10 19 -19 -12 -22 23 24 -20 27 -27 -2
right_child=25 -3 -4 4 5 -7 -8 -9 9 16 11 12 -14 14 -16 -17 -18 18 22 -21 21 -23 -24 -25 -26 26 -28 -29
leaf_value=0.010121352879320504 -0.064941198809609954 -0.07524355241447013 -0.072105669085081356 0.032317179974148159 -0.0040783802532750732 -0.075336466141756583 0.067278285522891029 -0.015597498048063633 0.02073847265603505 0.031973456051747361 0.030786934857311994 -0.030206629982661711 0.03286105580342219 0.03606903558447324 -0.010783436410802663 -0.034436775634953384 -0.017864164420519524 0.061618823875870414 0.060516509827799395 0.016493909489433557 0.067691571936382977 0.050938112725824485 0.066287277223430682 0.048915177500307015 0.063398871984955016 -0.067125739636453546 -0.065865095644575863 -0.065598176350454826
leaf_weight=5.2959520965814573 5.133588120341301 5.413575515151023 5.214351922273635 5.6217858493328121 4.4666852504014951 6.5202583819627762 4.9073984920978537 7.7616434395313254 3.8743226826190975 3.7495782375335684 5.7769390642642975 5.8551162183284742 4.6531365662813187 5.9462237656116486 6.9130648225545883 5.4397249966859818 4.0804902017116547 3.8065298944711703 3.7516379654407519 5.6217624992132187 3.3855458498001099 3.6094106584787369 4.5564448386430731 4.3221406489610672 3.5008384585380554 4.5319000333547592 6.0019477754831314 5.7812940925359726
leaf_count=25 29 28 25 27 20 33 25 38 20 20 33 25 24 33 34 23 20 26 27 31 19 22 26 31 22 24 33 32
internal_value=-0.00222645 0.00877278 0.0126068 0.0165014 -0.0197336 -0.0463669 0.022718 0.0203386 0.0236536 0.0380278 0.0122268 0.0195591 -0.00227977 0.0285126 0.0108815 -0.0124561 0.00600153 0.0465475 0.0504597 0.0347124 0.0462644 0.0590468 0.0596636 0.0570562 0.0619079 -0.0658384 -0.0664075 -0.0652892
internal_weight=145.493 124.045 118.631 113.417 16.6087 10.9869 96.8079 91.9005 84.1389 37.2637 46.8751 36.1394 10.5083 25.6312 12.8593 10.7357 7.83007 29.4337 25.5594 9.42829 12.7719 6.99496 16.1311 11.5746 7.25248 21.4487 10.5338 10.9149
internal_count=775 657 629 604 80 53 524 499 461 223 238 190 49 141 67 48 40 183 163 57 74 41 106 80 49 118 57 61
is_linear=0
shrinkage=0.05


Tree=20
num_leaves=29
num_cat=0
split_feature=26 29 2 23 28 13 14 7 1 10 11 33 5 25 2 24 7 11 1 6 28 31 4 8 28 23 22 2
split_gain=35.058 16.6991 13.4697 8.88866 12.1197 5.33117 9.78141 7.3478 5.86706 6.58792 4.81513 3.79088 2.27117 1.59164 2.45909 1.34664 1.32467 1.04844 0.513461 0.665997 0.884298 1.08277 0.167212 0.397795 0.00261382 0.00132842 0.00148065 0.00037156
threshold=1.0000000180025095e-35 3.5000000000000004 3.7083333333333335 1.0000000180025095e-35 1.5833333333333337 2.5000000000000004 1.5000000000000002 1.5000000000000002 8.5000000000000018 2.5000000000000004 1.5000000000000002 1.5000000000000002 1.0000000180025095e-35 1.0000000180025095e-35 2.4166666666666674 1.5000000000000002 2.5000000000000004 1.5000000000000002 7.5000000000000009 2.5000000000000004 1.5833333333333337 1.0000000180025095e-35 1.5000000000000002 1.5000000000000002 1.5833333333333337 1.0000000180025095e-35 1.0000000180025095e-35 1.7750000000000001
decision_type=2 2 2 2 2 2 2 2 2 2 2 2 2 2 2 2 2 2 2 2 2 2 2 2 2 2 2 2
left_child=1 2 3 5 12 6 7 10 13 -10 11 27 -5 18 -15 -12 -7 -11 19 20 21 -9 -22 -24 -2 26 -26 -1
right_child=24 -3 -4 4 -6 16 -8 8 9 17 15 -13 -14 14 -16 -17 -18 -19 -20 -21 22 -23 23 -25 25 -27 -28 -29
leaf_value=0.00051617708025374672 -0.066048138807840939 -0.0734783372121076 -0.071329633407258564 0.044368947330776461 -0.067533518266067141 0.036069728880417935 -0.062036334024432538 0.023715653932876488 -0.04685039206936592 0.047074742182550817 -0.034536290979404603 0.051207588744337985 -0.0031963074455949089 -0.0032010556658452908 0.045697125739709667 -0.0028309913407370121 0.073401186110459996 0.010951540883030832 0.063228647350635228 0.024353370155562541 0.048668889922295816 0.055028419038364078 0.071687969145240865 0.049693263390546451 -0.064175722329771978 -0.063982349665511792 -0.065495680443969348 0.0011477303210458527
leaf_weight=4.099528416991232 4.1822800636291531 5.8222085386514655 4.5254710465669623 4.5669320374727267 6.9384575933217993 4.1194766610860807 3.6060736626386634 6.0751457959413617 4.3403773605823508 4.1486593931913358 7.3228608071804047 6.1745093539357194 5.5710385590791702 4.4205413609743101 6.1458151489496231 6.171725869178772 5.615521103143692 3.8941527307033539 4.5480587854981414 3.3914411440491667 3.6828401163220397 5.0604734420776367 4.4286857545375806 3.8365886211395264 3.439698860049246 5.1231129318475714 5.5568036139011383 5.3920407891273499
leaf_count=20 23 31 22 25 37 21 17 37 20 23 33 37 23 21 33 31 31 21 29 20 25 32 24 26 20 30 31 26
internal_value=-0.000355299 0.00918645 0.0132626 0.0166339 -0.0166168 0.0225194 0.0185818 0.0220788 0.033005 0.00279376 0.00185558 0.0207127 0.0182308 0.0420004 0.0252401 -0.0200359 0.0576039 0.0295847 0.0477088 0.0450428 0.0480824 0.0379454 0.0575301 0.0614784 -0.0649502 -0.064625 -0.064991 0.000874955
internal_weight=142.201 123.899 118.076 113.551 17.0764 96.4745 86.7395 83.1334 53.9728 12.3832 29.1607 15.6661 10.138 41.5896 10.5664 13.4946 9.735 8.04281 31.0232 26.4752 23.0837 11.1356 11.9481 8.26527 18.3019 14.1196 8.9965 9.49157
internal_count=769 665 634 612 85 527 475 458 311 64 147 83 48 247 54 64 52 44 193 164 144 69 75 50 104 81 51 46
is_linear=0
shrinkage=0.05


Tree=21
num_leaves=27
num_cat=0
split_feature=29 8 2 23 28 5 10 7 1 0 29 9 5 8 25 6 28 28 8 11 6 31 28 1 23 11
split_gain=19.7164 13.166 11.5692 11.2644 12.0486 6.11281 4.8224 4.88565 6.53725 4.56959 4.51395 3.83783 2.78976 2.18049 1.56013 1.46082 1.7124 0.8077 1.06333 1.15566 0.739497 1.64243 0.592506 0.185585 0.123808 0.0107409
threshold=3.5000000000000004 3.5000000000000004 3.7083333333333335 1.0000000180025095e-35 1.5833333333333337 2.5000000000000004 2.5000000000000004 1.5000000000000002 8.5000000000000018 2.5000000000000004 2.5000000000000004 2.5000000000000004 1.0000000180025095e-35 1.5000000000000002 1.0000000180025095e-35 1.5000000000000002 2.5833333333333335 1.5833333333333337 1.5000000000000002 1.5000000000000002 1.5000000000000002 1.0000000180025095e-35 1.7083333333333337 9.5000000000000018 1.0000000180025095e-35 1.5000000000000002
decision_type=2 2 2 2 2 2 2 2 2 2 2 2 2 2 2 2 2 2 2 2 2 2 2 2 2 2
left_child=1 2 3 5 12 6 7 10 14 -7 13 -10 -5 -1 17 -8 22 18 19 -9 -19 -22 -17 -24 -2 -6
right_child=24 -3 -4 4 25 9 15 8 11 -11 -12 -13 -14 -15 -16 16 -18 20 -20 -21 21 -23 23 -25 -26 -27
leaf_value=-0.0037388647632422296 -0.07359121829357658 -0.063893793209777602 -0.069640431102964848 0.043158933495443655 -0.067164178785353357 0.021536689376539433 0.019769591702934422 -0.00096039116194787601 -0.042987421305632066 -0.040157113008968001 -0.040418868765166864 0.02010424387240586 -0.0088069495589558171 0.040977599552941266 0.012292949197404949 0.040406547096652506 0.022729725514742873 0.062955471651806955 0.04976804231837987 0.037592169671101072 0.058826350749724754 0.020142991756985071 0.054614571129009339 0.068797546843456056 -0.062420579018091442 -0.063702255058970855
leaf_weight=7.7501118183136004 5.1595110297203046 6.6084972620010367 4.5556839853525153 4.4628933817148226 4.8436225205659849 5.1405925899744016 5.6253466606140163 3.7393911331892031 4.8531319797039014 7.2129239588975906 6.2593524754047385 4.7887371033430099 6.1302438974380493 4.2055885344743729 6.2474162578582755 3.6459910646080997 4.6838645786046973 5.1161939427256611 4.4277467429637909 4.0482999831438065 5.6203304156661016 5.3615936785936356 3.5260073095560056 6.668622225522995 4.7770652174949646 4.1689404994249344
leaf_count=35 27 39 23 25 26 25 34 22 22 35 27 25 26 25 32 25 27 33 31 22 35 33 23 37 30 25
internal_value=-0.000342015 0.00485868 0.0085501 0.0115554 -0.023068 0.0184176 0.0231129 0.0157724 0.0247522 -0.0144849 -0.00601907 -0.0116523 0.0130863 0.0119908 0.0349084 0.0420853 0.0488619 0.0398985 0.0302039 0.0190805 0.0472549 0.0399404 0.0577054 0.0638921 -0.0682209 -0.0655628
internal_weight=139.628 129.691 123.083 118.527 19.6057 98.9212 86.5677 62.4179 44.2028 12.3535 18.2151 9.64187 10.5931 11.9557 34.561 24.1498 18.5245 28.3136 12.2154 7.78769 16.0981 10.9819 13.8406 10.1946 9.93658 9.01256
internal_count=769 712 673 650 102 548 488 342 255 60 87 47 51 60 208 146 112 176 75 44 101 68 85 60 57 51
is_linear=0
shrinkage=0.05


Tree=22
num_leaves=28
num_cat=0
split_feature=26 29 2 22 28 10 1 13 7 22 25 6 11 1 2 24 6 2 2 10 9 5 0 4 28 23 22
split_gain=31.1498 14.496 11.6112 8.03894 8.5785 3.31406 5.34346 10.7672 6.84263 5.36079 2.47805 2.21524 2.09041 1.7604 4.7456 3.91157 1.56817 0.803901 1.14992 0.687961 0.513634 1.03534 0.817215 0.328953 0.00323224 0.00145579 0.00149806
threshold=1.0000000180025095e-35 3.5000000000000004 3.7083333333333335 1.0000000180025095e-35 1.3666666666666669 2.5000000000000004 8.5000000000000018 2.5000000000000004 1.5000000000000002 1.5000000000000002 1.0000000180025095e-35 1.5000000000000002 1.5000000000000002 6.5000000000000009 2.5500000000000003 1.5000000000000002 1.5000000000000002 3.0714285714285716 2.5500000000000003 1.5000000000000002 1.5000000000000002 1.5000000000000002 2.5000000000000004 1.5000000000000002 1.5833333333333337 1.0000000180025095e-35 1.0000000180025095e-35
decision_type=2 2 2 2 2 2 2 2 2 2 2 2 2 2 2 2 2 2 2 2 2 2 2 2 2 2 2
left_child=1 2 3 4 -1 6 8 -8 9 12 11 -7 16 20 15 -15 -5 18 -13 -16 21 22 -10 -22 -2 26 -26
right_child=24 -3 -4 5 -6 10 7 -9 13 -11 -12 17 -14 14 19 -17 -18 -19 -20 -21 23 -23 -24 -25 25 -27 -28
leaf_value=0.024695795450720457 -0.064633649076762362 -0.070724420109664135 -0.068570767871957095 0.04971346471291542 -0.074995064733805752 0.018259101116121518 -0.051869146532722288 0.047392827926061427 0.056220431656192608 -0.04148033951319794 0.00839992587651389 0.060690369638484565 -0.011572943422323376 -0.033411771106512222 0.03354610845845421 0.035598260528872154 0.010810033889501417 0.06796622683229013 0.02354455559354076 0.062206791878315064 0.040609270652709306 0.013384687404174291 0.029256128271315358 0.06187654107647849 -0.062549880262447968 -0.062306272224558507 -0.063923467765893846
leaf_weight=3.9010382294654828 3.967057183384898 5.4869371950626364 4.2560603767633429 4.2033287137746864 4.8294821232557297 6.2753552272915885 7.690856605768202 4.2371035814285278 6.1675827428698557 6.2085014879703513 6.8878242522478095 4.6191154643893224 5.7111071795225135 5.1316301673650759 4.423861697316168 3.4230715557932854 6.7502373903989792 5.9349089413881311 3.7954348921775818 3.9752218723297119 3.2346092313528052 3.6720272824168196 5.1615429520606995 4.15236546844244 3.2047858536243421 4.7548387646675101 5.2151400744915009
leaf_count=21 23 31 22 21 26 36 35 23 39 28 38 33 25 28 20 21 33 34 24 26 20 21 31 29 20 30 31
internal_value=-0.000329681 0.00866762 0.0124674 0.015592 -0.0304504 0.0195462 0.0140468 -0.0166089 0.0199242 -0.00182278 0.0343664 0.0430381 0.0129518 0.0325677 0.0204136 -0.00579815 0.0257389 0.0538746 0.0439355 0.047111 0.0417716 0.0364572 0.0439355 0.052564 -0.0633824 -0.0630057 -0.0634007
internal_weight=137.271 120.129 114.642 110.386 8.73052 101.656 74.143 11.928 62.2151 22.8732 27.5126 20.6248 16.6647 39.3419 16.9538 8.5547 10.9536 14.3495 8.41455 8.39908 22.3881 15.0012 11.3291 7.38697 17.1418 13.1748 8.41993
internal_count=769 665 634 612 47 565 400 58 342 107 165 127 79 235 95 49 54 91 57 46 140 91 70 49 104 81 51
is_linear=0
shrinkage=0.05


Tree=23
num_leaves=28
num_cat=0
split_feature=26 29 22 28 1 33 7 22 11 3 30 33 21 24 25 5 22 33 10 1 3 4 1 8 28 23 22
split_gain=29.1647 13.4795 7.40783 8.84919 4.56568 18.1699 6.01694 5.17073 4.77543 3.63267 2.49178 1.9283 1.9224 1.8039 1.22332 2.82746 1.04217 0.792982 1.28437 2.20709 0.858073 0.607465 0.283998 0.0212198 0.00268756 0.00121402 0.00124975
threshold=1.0000000180025095e-35 3.5000000000000004 1.0000000180025095e-35 1.2916666666666667 8.5000000000000018 2.5000000000000004 1.5000000000000002 1.5000000000000002 1.0000000180025095e-35 1.5000000000000002 0.8228263892582881 1.5000000000000002 3.5000000000000004 1.5000000000000002 1.0000000180025095e-35 1.0000000180025095e-35 1.5000000000000002 2.5000000000000004 1.5000000000000002 6.5000000000000009 1.5000000000000002 1.5000000000000002 5.5000000000000009 1.5000000000000002 1.5833333333333337 1.0000000180025095e-35 1.0000000180025095e-35
decision_type=2 2 2 2 2 2 2 2 2 2 2 2 2 2 2 2 2 2 2 2 2 2 2 2 2 2 2
left_child=1 2 3 -1 6 -6 8 -7 11 -9 12 -4 -11 -10 17 -16 -13 18 19 20 22 -20 -8 -23 -2 26 -26
right_child=24 -3 4 -5 5 7 14 9 13 10 -12 16 -14 -15 15 -17 -18 -19 21 -21 -22 23 -24 -25 25 -27 -28
leaf_value=0.026224599548353988 -0.063725946191087762 -0.069492653333966301 0.0076173263949988849 -0.074267292764920764 -0.086857323929108596 -0.032174195034896241 0.061564398536081671 -0.0083262099411293249 -0.034311755484044811 0.052687923038025421 0.073562018642193305 0.062159776803992407 0.011143710588407605 0.0036368527795706609 0.038521017884279245 -0.015081478915515478 0.02304830632042433 0.020949685018004871 0.038735393730676242 0.00065142768269313975 0.025494042396937533 0.064150642943136632 0.042748259597464019 0.058983461010131667 -0.06178926711165781 -0.061562927451711859 -0.063067678189454773
leaf_weight=3.8081454932689649 3.8259611427783993 5.309487357735633 8.8267406076192838 5.1577820330858231 5.0758083313703564 4.4521962702274349 4.2915114834904724 5.3660297542810449 7.3456622064113617 4.6267832294106466 3.9712277799844751 3.480674423277379 6.9937136322259903 5.4586422890424728 6.7694583386182767 3.8646917343139648 3.3353148177266121 5.4579568654298773 4.3242781013250342 4.0738292783498755 4.4897647574543944 4.6393439546227437 3.7644491642713547 3.4752333015203476 3.0850572735071164 4.5761646181344977 5.0263938903808594
leaf_count=21 23 31 42 28 23 24 29 26 33 29 22 20 39 28 37 19 21 36 31 20 28 29 21 28 20 30 31
internal_value=-0.000317532 0.00836723 0.012024 -0.0315848 0.0157806 -0.000490478 0.0225204 0.0167619 0.00450933 0.0271577 0.0393698 0.0230438 0.0276848 -0.0181338 0.0338682 0.0190407 0.0430211 0.0384365 0.041721 0.0326269 0.0430099 0.0538716 0.0527719 0.0619377 -0.0625644 -0.0622141 -0.0625815
internal_weight=134.872 118.359 113.049 8.96593 104.083 30.4858 73.5976 25.41 28.447 20.9578 15.5917 15.6427 11.6205 12.8043 45.1505 10.6342 6.81599 34.5164 29.0584 16.6196 12.5457 12.4389 8.05596 8.11458 16.5136 12.6876 8.11145
internal_count=769 665 634 49 585 163 422 140 144 116 90 83 68 61 278 56 41 222 186 98 78 88 50 57 104 81 51
is_linear=0
shrinkage=0.05


Tree=24
num_leaves=31
num_cat=0
split_feature=26 29 2 23 28 13 14 7 1 11 5 2 28 30 30 5 1 30 8 9 9 4 31 2 4 22 8 28 23 22
split_gain=27.3256 12.5436 10.4911 7.03394 9.6235 4.55486 8.39056 5.82977 5.04119 3.50313 2.53551 2.80239 2.36342 3.09438 2.22973 1.75755 1.34961 1.25051 1.04009 0.607115 0.537725 0.819678 0.92436 1.15623 0.203626 0.0174678 0.00700617 0.0022398 0.00101456 0.00104483
threshold=1.0000000180025095e-35 3.5000000000000004 3.7083333333333335 1.0000000180025095e-35 1.5833333333333337 2.5000000000000004 1.5000000000000002 1.5000000000000002 10.500000000000002 1.5000000000000002 2.5000000000000004 2.9166666666666674 1.3666666666666669 0.80824829046386315 0.53867513459481298 1.0000000180025095e-35 7.5000000000000009 0.80824829046386315 2.5000000000000004 1.5000000000000002 2.5000000000000004 2.5000000000000004 1.0000000180025095e-35 1.7750000000000001 1.5000000000000002 1.5000000000000002 1.5000000000000002 1.5833333333333337 1.0000000180025095e-35 1.0000000180025095e-35
decision_type=2 2 2 2 2 2 2 2 2 2 2 2 2 2 2 2 2 2 2 2 2 2 2 2 2 2 2 2 2 2
left_child=1 2 3 5 15 6 7 9 10 12 11 16 -1 -14 -7 -5 18 19 20 -11 21 22 23 -9 -25 -18 -24 -2 29 -29
right_child=27 -3 -4 4 -6 14 -8 8 -10 17 -12 -13 13 -15 -16 -17 25 -19 -20 -21 -22 -23 26 24 -26 -27 -28 28 -30 -31
leaf_value=0.04565043116385837 -0.062885874818968887 -0.068349458497362361 -0.067061102150631796 0.039697646290667923 -0.064668687479585638 0.024009973243286652 -0.0580881507514475 0.015067501833445733 -0.01930022522642558 -0.019967473030955779 -0.0046284077962783577 0.01132542234740485 -0.023221219907517222 0.032647679430963798 0.074510475731401016 -0.0034088793153552116 0.059768306258748564 -0.039785106531365966 0.013362428644176539 0.0056144870452137195 0.062259398704041992 0.019006000043703883 0.061798981579624927 0.040297603571652373 0.059472837534799483 0.06454048166327167 0.058415380247566789 -0.061083163713447103 -0.060872560945705416 -0.062274718316299028
leaf_weight=5.1393244490027437 3.6867449879646292 5.1328595280647269 4.084296226501464 4.1440707594156247 6.216264382004737 3.7236455455422384 3.6313940286636344 4.1038024351000875 4.7251383960247031 4.5001485496759397 3.7171710431575766 7.7577417790889731 5.1100551486015302 4.8125059828162193 5.2922533601522446 5.506873831152916 3.2071464434266082 4.1548556983470926 3.4065430164337149 4.7855365425348282 3.1221577301621428 3.7832630276679984 2.6515708342194548 2.7129962220788002 2.8273539245128632 4.7687624096870422 3.6165900230407715 2.9676569998264295 4.4010942429304123 4.840584009885788
leaf_count=31 23 31 22 25 37 23 17 25 25 20 18 39 26 26 29 23 24 20 18 24 21 20 18 22 22 29 30 20 30 31
internal_value=-0.000307202 0.00807444 0.0115925 0.0145832 -0.0161503 0.0199098 0.0162237 0.0196438 0.0298644 0.00157103 0.0349505 0.0384569 0.0181297 0.00387556 0.0536533 0.0151009 0.0446112 -0.0169852 0.0391335 -0.00678337 0.042981 0.039925 0.0448986 0.0351832 0.0500831 0.0626216 0.0598467 -0.0618058 -0.0614797 -0.0618218
internal_weight=132.53 116.634 111.501 107.417 15.8672 91.55 82.5341 78.9027 50.4002 28.5024 45.6751 41.9579 15.0619 9.92256 9.0159 9.65094 34.2002 13.4405 26.2243 9.28569 22.8177 19.6956 15.9123 9.64415 5.54035 7.97591 6.26816 15.8961 12.2093 7.80824
internal_count=769 665 634 612 85 527 475 458 311 147 286 268 83 52 52 48 229 64 176 44 158 137 117 69 44 53 48 104 81 51
is_linear=0
shrinkage=0.05


Tree=25
num_leaves=30
num_cat=0
split_feature=26 23 2 28 33 22 4 24 28 30 1 3 24 13 1 2 8 28 21 2 32 28 28 30 24 8 5 28 29
split_gain=27.5645 13.939 8.89442 7.36255 6.11026 4.91576 2.78917 4.13466 3.90473 3.15096 4.5114 2.7962 1.78468 1.47393 3.85896 1.78718 2.27275 1.05079 0.723644 0.691662 1.17685 0.597043 0.132882 0.0156662 0.00524199 0.00255331 0.00100051 0.000370841 5.14508e-05
threshold=1.0000000180025095e-35 1.0000000180025095e-35 3.7083333333333335 1.5833333333333337 1.5000000000000002 1.0000000180025095e-35 2.5000000000000004 1.0000000180025095e-35 1.3666666666666669 0.75604704659038091 7.5000000000000009 2.5000000000000004 1.5000000000000002 2.5000000000000004 7.5000000000000009 1.7750000000000001 1.5000000000000002 2.2678571428571432 2.5000000000000004 3.0714285714285716 1.0000000180025095e-35 1.7916666666666667 1.7916666666666667 0.80824829046386315 1.5000000000000002 1.0000000180025095e-35 1.0000000180025095e-35 1.7916666666666667 3.5000000000000004
decision_type=2 2 2 2 2 2 2 2 2 2 2 2 2 2 2 2 2 2 2 2 2 2 2 2 2 2 2 2 2
left_child=1 2 5 4 -3 -1 7 17 -8 11 12 19 -11 14 15 16 21 18 -7 20 -10 -9 24 -5 -17 -2 -27 -28 -29
right_child=25 3 -4 23 -6 6 8 13 9 10 -12 -13 -14 -15 -16 22 -18 -19 -20 -21 -22 -23 -24 -25 -26 26 27 28 -30
leaf_value=-0.028034686792309471 -0.062409526849711454 0.039713735406650436 -0.064720743157388169 -0.065199741884791565 -0.034917884036999025 0.027058929379632387 -0.019631755892435356 0.028811253701312375 0.019900161236092364 0.0060274648514618591 -0.024408935260613294 0.0055862811724484455 0.054203589102813234 0.065097312865745341 -0.0023441284205533096 0.059777373051203148 0.060034115434143068 -0.016515093724752541 -0.0025163944467789471 0.062697997718343709 0.058990936888610616 0.0038586520118944231 0.048031042319120337 -0.061012784377782937 0.057358498278989069 -0.061563681734280201 -0.061016575590068733 -0.060462229534269177 -0.060189105319831376
leaf_weight=5.2935743778944007 2.9776208698749569 4.884438559412958 3.2950121015310279 3.9572519659996015 6.2541816383600235 4.8866630941629392 7.9211029112339011 4.695880129933359 4.1430464833974856 3.9014494717121107 7.6807396933436394 6.0481253117322913 3.7896341383457184 4.3620268404483786 5.9368281811475745 4.8114830926060659 4.2392270416021338 4.0140352398157111 3.586047500371933 4.5111734569072723 3.5969494432210922 4.897364005446434 4.3775697648525229 5.1307981759309769 4.1905440166592598 3.1656404435634604 2.9383908957242948 4.146412581205368 2.9518180787563324
leaf_count=27 19 25 19 23 29 27 39 24 24 19 36 34 21 27 37 37 31 20 20 24 19 22 36 36 38 21 20 29 21
internal_value=0.000187352 0.00842131 0.0160656 -0.0294393 -0.00219089 0.0188132 0.0215208 0.029479 0.0119543 0.0193849 0.00269642 0.0334036 0.0297653 0.0377749 0.0341795 0.0421478 0.0295457 0.00455778 0.0145413 0.0471364 0.0380665 0.0160729 0.0551766 -0.0628359 0.0586514 -0.0610869 -0.0607886 -0.0605442 -0.0603487
internal_weight=136.585 120.405 100.178 20.2267 11.1386 96.8835 91.5899 49.9977 41.5922 33.6711 15.3718 18.2993 7.69108 37.5109 33.1489 27.2121 13.8325 12.4867 8.47271 12.2512 7.74 9.59324 13.3796 9.08805 9.00203 16.1799 13.2023 10.0366 7.09823
internal_count=804 694 581 113 54 562 535 319 216 177 76 101 40 252 225 188 77 67 47 67 43 46 111 59 75 110 91 70 50
is_linear=0
shrinkage=0.05


Tree=26
num_leaves=31
num_cat=0
split_feature=26 22 2 29 29 4 8 25 29 24 32 30 11 3 0 6 1 3 10 7 31 1 6 1 4 10 8 5 3 11
split_gain=25.8528 12.5369 9.36509 9.97515 5.33225 3.23664 4.68599 4.32736 2.18008 2.00324 2.99313 4.91625 2.62454 4.58793 2.32127 1.94687 1.35706 1.97826 1.29569 0.803862 0.665459 0.51759 0.53139 0.225104 0.0387616 0.00438667 0.00213405 0.000838622 0.000251428 8.32928e-05
threshold=1.0000000180025095e-35 1.0000000180025095e-35 3.5833333333333335 3.5000000000000004 1.5000000000000002 4.5000000000000009 1.5000000000000002 1.0000000180025095e-35 2.5000000000000004 1.5000000000000002 1.0000000180025095e-35 0.48570226039551589 1.0000000180025095e-35 1.5000000000000002 3.5000000000000004 2.5000000000000004 8.5000000000000018 2.5000000000000004 1.5000000000000002 2.5000000000000004 1.0000000180025095e-35 5.5000000000000009 1.5000000000000002 4.5000000000000009 2.5000000000000004 1.5000000000000002 1.0000000180025095e-35 1.0000000180025095e-35 1.5000000000000002 1.5000000000000002
decision_type=2 2 2 2 2 2 2 2 2 2 2 2 2 2 2 2 2 2 2 2 2 2 2 2 2 2 2 2 2 2
left_child=1 4 3 5 -1 6 9 16 -9 12 -11 -12 14 -14 15 20 23 -18 -7 -15 21 22 -3 -8 25 -25 -2 -28 -29 -27
right_child=26 2 -4 -5 -6 18 7 8 -10 10 11 -13 13 19 -16 -17 17 -19 -20 -21 -22 -23 -24 24 -26 29 27 28 -30 -31
leaf_value=0.0027395546373348901 -0.061664550552153974 0.043149276242440804 -0.047378194104015475 -0.068292951136718377 -0.073100542564695711 -0.026918768967026468 0.04461510473165637 0.037267977219524427 -0.013270393324541205 0.064348591772180483 -0.022729560974745804 0.050258055256676232 -0.037085801785587007 0.0032965354716935841 -0.011074408718572834 -0.006905959844179653 0.003366343834368379 0.055475604979463522 0.01056309852712858 0.035634894693505496 0.046184476655379038 0.011632742973971317 0.019220896854266277 0.059297114870930867 0.063411377651828957 0.056736113656556113 -0.060877343283743834 -0.060284953150427804 -0.059744140355257914 0.05711017358127321
leaf_weight=3.6481508761644346 2.8657480627298346 5.0278556048870175 6.0543157309293738 3.3463433533906928 6.3550625666975975 4.7494144290685636 3.1052750498056474 3.6393789201974851 5.1584305763244629 4.4256738424301121 4.5433029532432556 4.6875554546713829 7.2135689631104452 4.1228260025382042 5.7518928050994864 4.0963087975978842 3.459181420505046 3.8467643558979034 4.481095477938652 3.5994450002908707 5.2762293964624396 4.6114637404680243 4.3084130436182022 2.8059201389551145 4.3949523717164984 3.3284743502736092 3.0443358868360511 3.2330471575260145 6.4101517051458359 2.6917271986603737
leaf_count=20 19 25 32 21 37 21 23 22 27 29 23 28 35 22 32 21 20 26 20 23 34 23 22 23 28 32 21 23 47 25
internal_value=0.000183012 0.00812349 0.0130517 0.0166151 -0.0454418 0.0194758 0.0223648 0.0375703 0.00763575 0.0138133 0.0305426 0.0143345 0.00862188 -0.00841359 0.0173739 0.0243906 0.0487143 0.0308032 -0.00872261 0.0183698 0.0310594 0.0253377 0.032107 0.0567295 0.0595748 0.0576644 -0.0604322 -0.0601539 -0.0599255 0.0569034
internal_weight=134.282 118.729 108.726 102.671 10.0032 99.3251 90.0946 32.4301 8.79781 57.6645 13.6565 9.23086 44.008 14.9358 29.0722 23.3203 23.6323 7.30595 9.23051 7.72227 19.224 13.9477 9.33627 16.3263 13.2211 8.82612 15.5533 12.6875 9.6432 6.0202
internal_count=804 694 637 605 57 584 543 226 49 317 80 51 237 80 157 125 177 46 41 45 104 70 47 131 108 80 110 91 70 57
is_linear=0
shrinkage=0.05


Tree=27
num_leaves=29
num_cat=0
split_feature=26 23 2 28 33 22 10 25 1 28 9 1 7 11 33 24 10 29 5 30 6 6 1 30 28 30 23 28
split_gain=24.2654 12.1829 7.2539 6.79188 5.23423 4.28972 2.74723 5.17172 4.67698 4.39825 3.59481 2.39656 1.99016 2.04628 2.08203 1.25614 0.763404 0.463656 0.563632 0.25027 0.226462 0.0240961 0.0240858 0.0139636 0.00178856 0.00159217 0.000510027 0.000571881
threshold=1.0000000180025095e-35 1.0000000180025095e-35 3.5833333333333335 1.5833333333333337 1.5000000000000002 1.0000000180025095e-35 2.5000000000000004 1.0000000180025095e-35 8.5000000000000018 2.2678571428571432 2.5000000000000004 7.5000000000000009 1.5000000000000002 1.5000000000000002 1.5000000000000002 1.0000000180025095e-35 4.5000000000000009 2.5000000000000004 1.5000000000000002 0.45220861134162554 1.5000000000000002 2.5000000000000004 8.5000000000000018 0.80824829046386315 1.5833333333333337 0.48570226039551589 1.0000000180025095e-35 2.3666666666666671
decision_type=2 2 2 2 2 2 2 2 2 2 2 2 2 2 2 2 2 2 2 2 2 2 2 2 2 2 2 2
left_child=1 2 5 4 -3 -1 8 16 9 11 -10 12 13 14 -7 -14 19 18 20 -8 -17 -11 25 -5 -2 -21 27 -26
right_child=24 3 -4 23 -6 6 7 -9 10 21 -12 -13 15 -15 -16 17 -18 -19 -20 22 -22 -23 -24 -25 26 -27 -28 -29
leaf_value=-0.025309289613811875 -0.06077107644777964 0.037356616495892538 -0.042039218575485884 -0.064057953784292243 -0.032262048551781733 0.013090489732319516 0.043860925363822009 -0.00048876023950733896 -0.05210046499210931 -0.011414442534188534 0.0088998078407270462 -0.0042480588470075039 0.022310804771121656 -0.0014838449981120351 0.057243610802032954 0.041866888250652108 0.028250318762939639 0.060487539195476482 0.030694030428224224 0.057394729701044048 0.061174444466953116 -0.017123195281964657 0.063165098054459815 -0.059977897954262706 -0.060172746443863313 0.059125290735159 -0.059078782865009116 -0.059256356481889844
leaf_weight=5.3095986098051062 3.7291002124547949 4.740269288420679 5.2616801857948294 3.7541058808565122 6.2723091095685959 6.017512112855913 2.8825655207037952 6.7922749668359748 4.0382415503263456 3.6362153068184844 6.0091819688677788 5.3736426085233679 6.5385977178812054 7.3680422455072394 4.7994543164968491 2.6737636923789996 2.8469937816262236 5.2349957153201094 5.3676845654845238 2.6505595222115499 3.5156839564442635 3.7595821842551231 4.7378131076693535 4.7508460432291031 3.8986199498176557 2.6658615618944168 4.291664719581604 3.0223076492547989
leaf_count=27 26 25 29 23 29 31 20 38 18 19 32 32 36 32 28 21 18 39 34 24 29 22 30 36 28 22 33 23
internal_value=0.000179457 0.00784228 0.0150619 -0.0282158 -0.0022953 0.0183199 0.0209854 0.0359918 0.0157192 0.0215191 -0.0156173 0.0271714 0.0312382 0.0188384 0.0326811 0.0409032 0.0516905 0.0481428 0.042551 0.056849 0.0528338 -0.0143164 0.0605727 -0.0617788 -0.0598225 0.0582625 -0.059507 -0.0597726
internal_weight=131.939 116.997 97.4799 19.5175 11.0126 92.2183 86.9087 22.5761 64.3326 54.2852 10.0474 46.8894 41.5157 18.185 10.817 23.3307 15.7838 16.7921 11.5571 12.9368 6.18945 7.3958 10.0542 8.50495 14.9417 5.31642 11.2126 6.92093
internal_count=804 694 581 113 54 552 525 152 373 323 50 282 250 91 59 159 114 123 84 96 50 41 76 59 110 46 84 51
is_linear=0
shrinkage=0.05


Tree=28
num_leaves=31
num_cat=0
split_feature=26 23 2 28 33 22 10 25 1 28 8 8 3 5 6 28 33 28 32 8 10 30 4 1 30 2 8 8 10 5
split_gain=22.7873 11.1892 6.65938 6.50656 4.74559 3.91672 2.60154 4.94864 4.27891 4.0509 3.33487 2.88515 2.69466 2.15061 4.37547 3.94092 1.47878 1.34501 0.922458 0.782265 0.759896 0.253241 0.0229194 0.0201512 0.0116177 0.00504774 0.00331805 0.00152208 0.00102859 0.000600035
threshold=1.0000000180025095e-35 1.0000000180025095e-35 3.5833333333333335 1.5833333333333337 1.5000000000000002 1.0000000180025095e-35 2.5000000000000004 1.0000000180025095e-35 8.5000000000000018 2.2678571428571432 1.5000000000000002 2.5000000000000004 1.5000000000000002 1.5000000000000002 1.5000000000000002 1.5833333333333337 1.5000000000000002 1.7916666666666667 1.0000000180025095e-35 1.5000000000000002 4.5000000000000009 0.45220861134162554 2.5000000000000004 8.5000000000000018 0.80824829046386315 1.5833333333333337 1.5000000000000002 1.0000000180025095e-35 1.5000000000000002 1.0000000180025095e-35
decision_type=2 2 2 2 2 2 2 2 2 2 2 2 2 2 2 2 2 2 2 2 2 2 2 2 2 2 2 2 2 2
left_child=1 2 5 4 -3 -1 8 20 9 10 13 22 -10 14 -7 18 -17 -18 -15 -11 21 -8 25 26 -5 -12 -23 -2 -27 -29
right_child=27 3 -4 24 -6 6 7 -9 12 19 11 -13 -14 15 -16 16 17 -19 -20 -21 -22 23 -24 -25 -26 28 -28 29 -30 -31
leaf_value=-0.023888665580905639 -0.060335747654456123 0.035961226539883928 -0.040742572907659036 -0.063204345865051081 -0.030509732603427542 0.02498404554830716 0.042891932787128724 -0.00046421830321009637 -0.046388689710520153 -0.029344160287748073 0.059635738846738257 0.01402138276833482 0.0063777193416569723 0.014075246270074452 -0.047437583104084351 0.016428713103514469 0.073411094944318925 0.035304857459599541 -0.020446171421297732 0.0031096154758357619 0.027299249804953653 0.059065889559102441 0.062524574332275082 0.062378168511053572 -0.059410231408445584 0.057475310254103934 0.056514132832885193 -0.059645468581525099 0.05609610966213855 -0.058807297194205736
leaf_weight=5.3431917279958716 2.6506250873208037 4.6795647293329257 5.1602890193462363 3.6180155351757985 6.300183042883873 5.0854937210679072 2.8023561462759998 6.7937483638525 4.0410946458578092 3.8110895231366149 2.1433198526501673 5.2447359412908545 6.0296334251761436 3.7814249098300943 3.5355234593153 4.1981256008148184 4.1455732733011246 5.2459932118654251 3.9633535891771317 3.6209485754370689 2.8000841289758673 2.5750180557370168 3.4020517915487289 4.5621543526649475 4.5612283647060394 2.6385224759578705 2.5212579444050789 2.810795046389102 2.7721815556287766 8.8844709396362287
leaf_count=27 19 25 29 23 29 32 20 38 17 18 16 30 33 22 16 20 23 27 20 23 18 21 22 30 36 25 25 21 29 70
internal_value=0.000175801 0.0075653 0.0145135 -0.0273288 -0.00217983 0.0176449 0.020234 0.0350333 0.0151068 0.0207264 0.0262427 0.044518 -0.0147959 0.0163589 -0.00471644 0.0248752 0.0410981 0.0521255 -0.00359093 -0.0135324 0.0508359 0.0561248 0.0591169 0.0599643 -0.0610885 0.0575822 0.0578035 -0.0592539 0.0567687 -0.0590087
internal_weight=129.722 115.376 96.2172 19.159 10.9797 91.0569 85.7137 22.0546 63.6591 53.5883 46.1563 16.2008 10.0707 29.9555 8.62102 21.3345 13.5897 9.39157 7.74478 7.43204 15.2609 12.4608 10.9561 9.65843 8.17924 7.55402 5.09628 14.3459 5.4107 11.6953
internal_count=804 694 581 113 54 552 525 152 373 323 282 122 50 160 48 112 70 50 42 41 114 96 92 76 59 70 46 110 54 91
is_linear=0
shrinkage=0.05


Tree=29
num_leaves=31
num_cat=0
split_feature=26 22 2 28 21 3 28 1 8 11 6 5 5 30 3 28 8 7 1 28 1 30 2 2 4 2 28 24 22 30
split_gain=21.4136 9.98149 7.47926 5.26957 4.69823 8.7119 4.94333 8.93114 4.17528 4.57762 3.29384 4.28235 2.57045 1.86518 1.80453 1.72567 1.64326 1.18288 1.08124 1.92574 1.41464 0.801852 0.307889 0.196075 0.0183133 0.00323216 0.00128222 0.00096006 0.000359649 0.000267738
threshold=1.0000000180025095e-35 1.0000000180025095e-35 3.5833333333333335 1.2916666666666667 3.5000000000000004 1.5000000000000002 2.183333333333334 7.5000000000000009 1.5000000000000002 1.0000000180025095e-35 1.5000000000000002 1.5000000000000002 1.0000000180025095e-35 0.48570226039551589 2.5000000000000004 1.5833333333333337 2.5000000000000004 2.5000000000000004 3.5000000000000004 1.2916666666666667 6.5000000000000009 0.80824829046386315 2.4166666666666674 2.4166666666666674 2.5000000000000004 1.7750000000000001 1.5833333333333337 1.5000000000000002 1.0000000180025095e-35 0.8228263892582881
decision_type=2 2 2 2 2 2 2 2 2 2 2 2 2 2 2 2 2 2 2 2 2 2 2 2 2 2 2 2 2 2
left_child=1 3 4 -1 6 -6 8 14 9 18 15 -12 -9 -7 -8 -11 23 -15 -3 20 -20 22 -21 24 25 -10 -2 -27 -28 -30
right_child=26 2 -4 -5 5 13 7 12 16 10 11 -13 -14 17 -16 -17 -18 -19 19 21 -22 -23 -24 -25 -26 27 28 -29 29 -31
leaf_value=0.0050294863791374503 -0.059558744890397641 0.010934231316153169 -0.04373123882691804 -0.071015724336750102 -0.05342265153844368 -0.01512408249949879 -0.020413669441050091 0.061289657533925158 0.058157690696885755 0.0042268984703397235 -0.049586213024633535 0.015086261429746381 0.0056060216562828875 0.050272234815464369 -0.06880754530900425 0.046862684882841073 0.022529402944913405 0.013556288296798176 -0.0026539658623853579 0.048147837246252684 0.040869412070937285 0.031169349166483735 0.067299922857965599 0.04250274030279938 0.061749553339433452 0.056966096686457406 -0.05814330638957621 0.055558309604714688 -0.059065387347562552 -0.058350578244522958
leaf_weight=3.7230895757675153 3.4433201178908339 4.5898357331752804 5.7299215644597998 5.8696031719446182 6.6564690098166492 3.1753545105457297 4.1023375093936947 3.8705603927373868 3.657353416085245 5.9617765545845032 5.449174702167511 4.8271503821015358 4.4613312184810638 3.8760424181818944 3.6315081641077995 3.9428714513778687 5.2688978910446158 5.0540389865636826 3.9598966836929348 3.8371458798646909 3.5324157029390335 3.8780610263347617 4.631185419857502 2.4279479607939711 2.7110572680830947 2.204471543431282 5.0558911040425283 2.6874335035681725 2.8229434043169022 2.4442703500390053
leaf_count=20 26 22 32 37 32 19 27 27 31 34 27 23 29 23 18 28 31 30 21 23 20 22 28 20 18 22 42 30 22 20
internal_value=0.000173395 0.00730334 0.0117996 -0.0415013 0.0150334 -0.00747575 0.0203367 -0.0044432 0.0265995 0.018246 0.000624008 -0.0192073 0.0314737 0.0177893 -0.0431375 0.0211995 0.0462569 0.0294926 0.0328038 0.0378635 0.0178661 0.0499988 0.0586218 0.0553901 0.0581688 0.0570333 -0.0587232 0.0561927 -0.0584445 -0.0587337
internal_weight=127.483 113.717 104.124 9.59269 98.3943 18.7619 79.6324 16.0657 63.5667 44.6095 20.181 10.2763 8.33189 12.1054 7.73385 9.90465 18.9572 8.93008 24.4285 19.8387 7.49231 12.3464 8.46833 13.6883 11.2603 8.54926 13.7664 4.89191 10.3231 5.26721
internal_count=804 694 637 57 605 104 501 101 400 248 112 50 56 72 45 62 152 53 136 114 41 73 51 121 101 83 110 52 84 42
is_linear=0
shrinkage=0.05


Tree=30
num_leaves=31
num_cat=0
split_feature=26 29 2 22 1 14 13 7 22 28 2 4 4 1 28 5 24 10 1 2 25 2 32 22 30 28 11 24 28 23
split_gain=21.5181 9.02285 8.6575 5.62935 6.40339 3.82883 11.4267 3.30495 4.64693 2.44105 15.5532 2.4025 2.23855 1.94207 1.62835 1.2913 2.10704 1.22077 1.82449 1.13297 0.821708 0.787296 0.621556 0.599513 0.536891 0.233128 0.228608 0.00858777 0.000868301 0.000464662
threshold=1.0000000180025095e-35 3.5000000000000004 3.7083333333333335 1.0000000180025095e-35 4.5000000000000009 1.0000000180025095e-35 2.5000000000000004 1.5000000000000002 1.5000000000000002 1.7083333333333337 2.7083333333333335 2.5000000000000004 4.5000000000000009 5.5000000000000009 1.3666666666666669 1.0000000180025095e-35 1.5000000000000002 1.5000000000000002 6.5000000000000009 2.5500000000000003 1.0000000180025095e-35 2.2916666666666674 1.0000000180025095e-35 1.5000000000000002 0.80824829046386315 1.3666666666666669 1.0000000180025095e-35 1.5000000000000002 1.5833333333333337 1.0000000180025095e-35
decision_type=2 2 2 2 2 2 2 2 2 2 2 2 2 2 2 2 2 2 2 2 2 2 2 2 2 2 2 2 2 2
left_child=1 2 3 4 -1 7 -7 8 11 10 17 26 15 -10 -13 22 -17 18 25 -18 21 23 -11 -19 -24 -9 -5 -23 -2 -30
right_child=28 -3 -4 5 -6 6 -8 9 13 12 -12 14 -14 -15 -16 16 19 20 -20 -21 -22 27 24 -25 -26 -27 -28 -29 29 -31
leaf_value=0.016087660966164621 -0.058949874641604963 -0.065717699292410142 -0.063271535234784917 0.045920566565721278 -0.078010169280348748 -0.079798779821280155 0.034368427213676576 0.039079602176661274 -0.046015598207528902 0.030002404009962833 -0.092200787867689898 -0.020374570744756196 0.075285236488285751 0.0015692506605936886 0.01895676595773093 -0.0064403383488107983 0.061114549500547344 0.048405989812298267 -0.013489860980867786 0.019576985373416261 0.018272334493826585 0.061758392255585937 0.038397951745823035 0.016992953287422639 0.065374820210832171 0.020664706745536936 0.029776153243251315 0.057736085092253198 -0.058286521839208773 -0.05758944627395788
leaf_weight=3.8063245341181746 3.4252693876624098 3.975259691476821 3.777855969965457 5.19640661776066 3.4436910450458527 3.7970608770847303 5.183843657374382 4.034274056553846 4.6335020959377307 4.8534876778721845 2.906395971775054 4.1639514863491041 3.5681848078966132 3.9911768957972527 7.1505482345819473 4.4081361442804337 2.96916863322258 3.1589909270405752 3.3754020482301712 3.6716621816158295 3.627545401453971 2.5037014782428741 3.4051548317074776 2.9254295602440834 4.0237424075603485 2.9943213015794754 3.7934805452823639 2.8234853073954582 6.517521992325781 3.7755507454276085
